#include "neural_network.h"
#include "nn_helpers.h"

const float weights_fc0[] = {
-0.8731749653816223, -0.07748545706272125, 0.09879834204912186, -0.03762280195951462, -0.08284488320350647, -0.3576028048992157, 0.07920408993959427, 0.17850907146930695, 0.39006078243255615, 0.30810660123825073, -0.8027536273002625, 0.3279339671134949, 0.08517397940158844, -0.11991742253303528, -0.2809741199016571, 0.0407218337059021, 0.03631601110100746, 0.121425561606884, -0.07320944219827652,
-0.374286413192749, 0.17888429760932922, 0.17346419394016266, 0.021623995155096054, 0.043576423078775406, -0.2574542462825775, -0.3564007580280304, -0.6557399034500122, -0.8799675107002258, 0.06071563810110092, 0.47901374101638794, -0.14461201429367065, -0.4260022044181824, 0.2804124653339386, -0.545897364616394, -0.26162096858024597, 0.36557766795158386, 0.45174211263656616, 0.6474247574806213,
0.13936695456504822, 0.27073487639427185, -0.7357140183448792, 0.00417323736473918, -0.011229748837649822, -0.4824772775173187, 0.14693261682987213, 0.02631896361708641, -0.10222665220499039, 0.3749294579029083, 0.4515415132045746, 0.2465682029724121, 0.05488770082592964, 0.3610054552555084, 0.48959556221961975, -0.20564110577106476, 0.3822687268257141, 0.2081160694360733, -0.7269365787506104,
-0.4455969035625458, 0.1781560182571411, -0.35132789611816406, -0.23244976997375488, 0.23512953519821167, 0.30097198486328125, 0.31760671734809875, 0.22504648566246033, -0.08553899824619293, -0.031550757586956024, 0.5321234464645386, 0.24629120528697968, 0.38781243562698364, -0.4992598295211792, -0.2282366156578064, 0.6289471387863159, -0.018712177872657776, 0.09354671090841293, -0.23141959309577942,
0.0358247384428978, 0.3037181794643402, 0.18551349639892578, 0.032904576510190964, 0.04506383091211319, 0.04733807593584061, 0.17756333947181702, 0.8966901302337646, -0.6243786811828613, -0.13668832182884216, -0.2682345509529114, -0.4251236021518707, 0.15913695096969604, 0.4624577760696411, -0.651542603969574, 0.8022307753562927, 0.264845609664917, -0.05035986751317978, -0.7213134765625,
0.06189815700054169, -0.11768122017383575, 0.20900872349739075, -0.009625726379454136, 0.09854979813098907, 0.2075854241847992, 1.1325255632400513, -0.006231276784092188, -0.5928050875663757, 0.2446986883878708, 0.20977498590946198, -0.17507752776145935, 0.6671155095100403, -0.4307919442653656, -0.25031742453575134, 0.16792556643486023, -0.13035054504871368, 0.16708147525787354, -0.5508440136909485,
-0.19989445805549622, 0.3691704571247101, 0.1822739541530609, 0.04372839629650116, 0.06709638237953186, 0.051669444888830185, -0.012499715201556683, 0.2978552579879761, 0.526052713394165, 1.2597929239273071, -0.8980231881141663, -0.3628174066543579, -0.05438373237848282, 0.1638053059577942, 0.2795684337615967, -0.036380358040332794, 0.14881622791290283, 0.10043235868215561, 0.23457229137420654,
-0.1899287849664688, 0.0023025372065603733, -0.00729764299467206, 0.15985043346881866, 0.07600019127130508, -0.05731198936700821, 0.2177557796239853, -0.2493777722120285, 0.192622110247612, 0.10231201350688934, -0.5361520051956177, 0.19595317542552948, -0.23673254251480103, 0.2551508843898773, 0.17209383845329285, -0.3672958314418793, -0.40990275144577026, 0.17406223714351654, 0.2801203727722168,
-0.13521580398082733, -0.0892331525683403, -0.5077982544898987, 0.012369426898658276, -0.07209624350070953, 0.20545350015163422, 0.01935679279267788, -0.026000233367085457, -0.4292427599430084, 0.1654062271118164, 0.05307219550013542, 0.06670603901147842, -0.21244104206562042, -0.13426706194877625, -0.4398849308490753, -0.45923730731010437, -0.3249717354774475, 0.10198469460010529, 0.3822200894355774,
-0.21372494101524353, -0.6243797540664673, -0.18847621977329254, -0.09040386974811554, 0.06072123348712921, -0.05145098268985748, -0.28683093190193176, 0.40517616271972656, 0.42731133103370667, 0.020575059577822685, -0.10721306502819061, -0.16915182769298553, 0.3867507576942444, -0.005524627398699522, 0.15398667752742767, -0.5274758338928223, 0.22248083353042603, -0.5623367428779602, 0.3500399589538574,
0.12303514033555984, 0.3858165144920349, -0.10393506288528442, 0.04891153797507286, -0.000790391000919044, -0.11287426948547363, -0.34003761410713196, -0.051123157143592834, -1.1816569566726685, -0.18391631543636322, -0.4573434591293335, 0.8306825757026672, 0.16671286523342133, 0.12300173938274384, -0.12995478510856628, 0.11611992865800858, 0.6890385150909424, 0.0024274105671793222, 0.4656142592430115,
-0.4090273976325989, 0.0643797293305397, -0.15303386747837067, -0.017647529020905495, -0.004303995985537767, -0.04038572683930397, -0.24133044481277466, -0.2015836387872696, -1.5140737295150757, 0.2817409634590149, -0.02594701200723648, -0.36573314666748047, -0.07059425115585327, 0.3525032103061676, 0.8452083468437195, -0.2400544434785843, -0.42553266882896423, 0.3656782805919647, -0.15586408972740173,
-0.05904645472764969, 0.28581923246383667, -0.08210700750350952, -0.12653332948684692, 0.0660625696182251, 0.059335511177778244, 0.4079737663269043, 0.4982428252696991, -1.2514922618865967, -0.29102617502212524, -0.08777239173650742, 0.09934549033641815, 0.2897821366786957, -0.1656399667263031, -0.14920808374881744, 0.19360922276973724, 0.3385545313358307, -0.7094021439552307, -0.17943643033504486,
0.18649306893348694, 0.31100034713745117, -0.145361989736557, 0.011905098333954811, 0.185649573802948, 0.12376322597265244, 0.024164842441678047, -0.5657901167869568, -0.04679422453045845, 0.11117275804281235, -0.15807820856571198, 0.39824530482292175, -0.16392314434051514, -0.6520535349845886, -0.2152058184146881, 0.47984927892684937, -0.0740889385342598, 0.0053061735816299915, -0.09587489813566208,
0.14155060052871704, -0.38411134481430054, 0.2491340935230255, 0.215782031416893, 0.3070022463798523, -0.1606227606534958, 0.8310380578041077, -0.47677192091941833, 0.2324827015399933, -0.4018806517124176, 0.15945877134799957, -0.09453575313091278, -0.3464707136154175, -0.06316795945167542, 0.47581326961517334, -0.02613735757768154, 0.3693993091583252, 0.5136629343032837, 0.4030267894268036,
0.39177021384239197, 0.08133736997842789, 0.04312223941087723, -0.053499747067689896, 0.012149344198405743, -0.4262852072715759, 0.48397570848464966, -0.01906685158610344, -0.30544865131378174, -0.23940511047840118, 0.055145859718322754, 0.013292877934873104, -0.2662416994571686, -0.9002665281295776, 0.8410454392433167, 0.1052146777510643, 0.08242498338222504, 0.5552405714988708, -0.38727888464927673,
0.15686023235321045, 0.45997264981269836, 0.3932602107524872, 0.025125762447714806, 0.08654696494340897, -0.22942113876342773, 0.11393905431032181, -0.20291434228420258, 0.2920483946800232, -0.7501822113990784, -0.5006259679794312, -0.46396541595458984, 0.345977783203125, 0.5545943975448608, -0.5813813805580139, -0.41717997193336487, 0.3075641095638275, -0.16238068044185638, 0.08371292054653168,
-0.2852664291858673, -0.2522970736026764, -0.3324727714061737, 0.17437952756881714, -0.18591494858264923, -0.032621052116155624, 0.2308150678873062, -0.37746426463127136, -0.5468538403511047, 0.10646478831768036, 0.3923777639865875, -0.15959905087947845, -0.14834663271903992, -0.36896416544914246, -1.1796238422393799, -0.007765996735543013, -0.5009231567382812, 0.12351365387439728, 0.5554508566856384,
0.009981047362089157, -0.11047520488500595, -0.22745852172374725, 0.17333461344242096, 0.014988904818892479, -0.5315850973129272, -0.14892029762268066, 0.11954368650913239, -0.16764721274375916, -0.3567131459712982, -0.10070855170488358, -0.2576557695865631, 0.08937309682369232, -0.27116742730140686, 0.2167554497718811, -0.3212968111038208, 0.029483947902917862, -0.18695107102394104, -0.5650825500488281,
0.07517975568771362, 0.38713300228118896, 0.3443199098110199, 0.014744453132152557, 0.048654548823833466, -0.3913426697254181, 0.1255144625902176, 0.5623877048492432, -0.7505172491073608, 0.15039119124412537, -0.4286312162876129, -0.4173392951488495, 0.2655015289783478, 0.08362282812595367, -0.24145576357841492, -0.13320541381835938, -0.05501886457204819, -0.34374064207077026, -0.004562930203974247,
-0.2642664313316345, 0.09573522210121155, 0.09088337421417236, 0.09723205864429474, -0.17347246408462524, 0.1450634002685547, -0.5466286540031433, 0.2859242856502533, -0.228298619389534, 0.12597088515758514, -0.5074658989906311, -0.5066383481025696, 0.3813154697418213, 0.2687366008758545, -0.5258694291114807, -0.1113826185464859, 0.5947608947753906, -0.8198534250259399, 0.3913957476615906,
-0.06415537744760513, -0.47934895753860474, -0.07986863702535629, 0.06957978010177612, -0.09961409866809845, 0.19840162992477417, 0.2601096034049988, -0.10872066766023636, -0.6719403266906738, -0.1975107342004776, 0.49504148960113525, -0.04123159870505333, -0.2006460428237915, -0.08377101272344589, 1.3268976211547852, -0.5197821259498596, 0.9539909958839417, -0.029643047600984573, 0.4369044899940491,
0.10589074343442917, 0.5861311554908752, 0.03200695663690567, -0.01074218563735485, -0.019320352002978325, -0.0032063242979347706, -0.04606621339917183, 0.015570764429867268, 0.4711175858974457, -0.9347279667854309, -0.37906786799430847, -0.25360986590385437, -0.2544417679309845, -0.34464231133461, 0.17282502353191376, -0.10680323094129562, -0.026618635281920433, 0.36792218685150146, 0.31510424613952637,
0.1846880167722702, 0.15933912992477417, 0.09601400047540665, 0.026087375357747078, 0.03627351298928261, 0.10464203357696533, 0.35620251297950745, -0.02573700062930584, -0.7860649824142456, -0.14240704476833344, -1.6682891845703125, -0.47005748748779297, -0.2350827008485794, -0.4219661355018616, 0.374954491853714, -0.13374371826648712, 0.0125661576166749, 0.5957321524620056, 0.4258442223072052,
-0.3210768699645996, 0.2863711714744568, -0.16869133710861206, -0.04317273199558258, 0.07734616100788116, -0.1306808888912201, 0.2924889624118805, 0.37673574686050415, -0.25591760873794556, 0.37992122769355774, -0.602533757686615, -0.1581869274377823, 0.07660894095897675, 0.04942364618182182, 0.2346244752407074, 0.25583168864250183, -0.3157251477241516, 0.6862477660179138, -0.4094812572002411,
0.01774294488132, -0.019767263904213905, -0.22364142537117004, 0.11334282159805298, -0.034737374633550644, -0.0311985295265913, 0.2887655198574066, 0.3736531436443329, -0.15423256158828735, -1.442097544670105, -0.6444746851921082, 0.287487655878067, -0.13162441551685333, -0.4044777750968933, 0.16934947669506073, 0.10602276027202606, 0.15323656797409058, 0.19814909994602203, -0.21703609824180603,
-0.06819796562194824, 0.6987643837928772, -0.0446375235915184, -0.10402633994817734, -0.1848694235086441, 0.18960139155387878, -0.017118267714977264, 0.07774742692708969, 0.2602090537548065, 0.1460786759853363, -0.5910025238990784, 0.61767578125, 0.340889036655426, 0.3129037022590637, 0.20070092380046844, -0.37857627868652344, 0.4914204776287079, -0.0692012757062912, 0.17107881605625153,
0.0743006095290184, -0.04523243010044098, 0.4191632866859436, 0.38812190294265747, 0.15171349048614502, 0.07668016850948334, -0.27468663454055786, -0.4130525290966034, -0.5002892017364502, -0.10970359295606613, 0.21282275021076202, 0.28603217005729675, -0.41638633608818054, 0.14728480577468872, -0.6537416577339172, -0.2913880944252014, -0.876101553440094, 0.7243699431419373, 0.3674554228782654,
-0.4734379053115845, -0.140229269862175, 0.4806306064128876, 0.0791332796216011, -0.059299178421497345, 0.04749118164181709, 0.028805606067180634, -0.2366957813501358, -0.02872169204056263, 0.5708679556846619, 0.5306960940361023, -0.6428107619285583, -0.1215181052684784, 0.10101824998855591, 0.3974781334400177, 0.03440770134329796, -0.008483411744236946, 0.04652918875217438, 0.06173501908779144,
-0.7259385585784912, -0.14402982592582703, -0.5351547002792358, 0.063870370388031, -0.16646994650363922, -0.0790545716881752, 0.09356750547885895, 0.19365346431732178, -0.09292201697826385, 0.27562540769577026, -0.3764210641384125, 0.9521313309669495, 0.30427223443984985, 0.16026324033737183, 0.43442457914352417, 0.26490098237991333, 0.18638558685779572, 0.17425036430358887, -0.21359674632549286,
-0.06381071358919144, 0.6988444328308105, 0.038518503308296204, -0.07402554154396057, 0.10929497331380844, 0.09888048470020294, -0.3630129098892212, 0.626020610332489, 0.05431327968835831, 0.37191569805145264, -0.4287147521972656, -0.19352087378501892, 0.3469807803630829, -0.09635564684867859, -0.029951132833957672, 0.21127131581306458, 0.16818632185459137, 0.055300962179899216, 0.3280407190322876,
0.1642635017633438, -0.07817671447992325, -0.38735559582710266, 0.001032576896250248, 0.028826851397752762, 0.05685339868068695, 0.14759494364261627, 0.043460432440042496, -0.3891605734825134, 0.1434379369020462, -0.7128961086273193, 0.42982569336891174, -0.09986889362335205, -0.7241706848144531, -0.2838643789291382, -0.24375797808170319, -0.25852397084236145, -0.18362826108932495, 0.25114700198173523
};

const float biases_fc0[] = {
-0.04149651527404785, 0.23101605474948883, -0.018918583169579506, 0.0165308378636837, 0.2017194628715515, 0.02787363901734352, -0.0763508677482605, -0.07355951517820358, 0.07553780823945999, -0.13499045372009277, 0.36407604813575745, 0.38799911737442017, 0.15928198397159576, -0.0028848627116531134, 0.04288700222969055, 0.055327702313661575, -0.09834791719913483, 0.04163433611392975, -0.008220861665904522, 0.10606325417757034, 0.02477119490504265, 0.0840141624212265, -0.09138193726539612, 0.17640672624111176, -0.03945550322532654, -0.011080920696258545, -0.017138630151748657, 0.05553961172699928, -0.03273647278547287, -0.01475128997117281, 0.02177945338189602, 0.07146904617547989
};

const float weights_fc1[] = {
-0.5729565024375916, -0.17958174645900726, -0.16446681320667267, 0.2531491816043854, 0.26356083154678345, 0.6473302841186523, -0.40321189165115356, 0.12536022067070007, -0.16560234129428864, -0.1130392998456955, 0.08078758418560028, 0.478688508272171, 0.4059988558292389, 0.538417398929596, 0.35118409991264343, 0.3166640102863312, -0.15391507744789124, -0.06371308118104935, -0.6123155951499939, 0.035398468375205994, -0.10985363274812698, -0.2635047435760498, 0.17752283811569214, 0.26176321506500244, 0.2792015075683594, -0.10008904337882996, 0.18009908497333527, 0.1940598040819168, 0.3213689923286438, -0.5167259573936462, 0.02384324185550213, -0.38315966725349426,
-0.11310089379549026, 0.13112157583236694, -0.36096781492233276, -0.26026439666748047, -0.3700438439846039, -0.11125810444355011, -0.21849608421325684, -0.13529326021671295, -0.2718614637851715, -0.11994440108537674, 0.22084705531597137, 0.3819839358329773, 0.2982858121395111, 0.06149428337812424, 0.17205029726028442, -0.4735090136528015, -0.9204604029655457, -0.0867040678858757, -0.4988056719303131, -0.04841328412294388, 0.2713901996612549, 0.4021264314651489, -0.35131701827049255, 0.48440802097320557, -0.2536396086215973, 0.13792920112609863, -0.07149595767259598, -0.12109258025884628, 0.16407981514930725, 0.10231728851795197, 0.3642309010028839, 0.20838485658168793,
0.2513696849346161, -0.23266664147377014, -0.12266778945922852, -0.07001997530460358, 0.019392961636185646, -0.0883231833577156, 0.3988246023654938, 0.0642143189907074, -0.013370356522500515, -0.14121676981449127, 0.40995651483535767, 0.3832632005214691, 0.024310294538736343, 0.06080702692270279, -0.3293273150920868, -0.10608259588479996, 0.4684048295021057, 0.5783001184463501, 0.331807404756546, 0.19048669934272766, 0.5617715716362, 0.3776027262210846, 0.044595349580049515, -0.23807795345783234, -0.14616170525550842, 0.45402395725250244, 0.0856558233499527, 0.5942501425743103, 0.22887952625751495, -0.21900710463523865, -0.49504992365837097, 0.06298133730888367,
0.17202511429786682, 0.5062434077262878, 0.3483910858631134, -0.0973857045173645, 0.48488420248031616, -0.2126063108444214, 0.3777630031108856, -0.11726221442222595, 0.029281308874487877, 0.029386384412646294, -0.04033824801445007, -0.3991759121417999, -0.11746731400489807, 0.13511300086975098, 0.22603972256183624, -0.40067440271377563, -0.14553500711917877, 0.732324481010437, -0.3251737654209137, -0.526738166809082, -0.24619227647781372, 0.11307425796985626, -0.1736452877521515, -0.3169238567352295, 0.11052051186561584, -0.8448435068130493, -0.052828628569841385, 0.015114549547433853, 0.337080717086792, 0.215184286236763, -0.19992968440055847, -0.911682665348053,
-0.05357605218887329, -0.3149418830871582, -0.04892295226454735, 0.5641834735870361, -0.0681108757853508, 0.119339220225811, -0.4645664095878601, -0.11164703965187073, -0.20566318929195404, -0.15895970165729523, -0.2815224826335907, -0.0916634276509285, -0.525608241558075, 0.2422940731048584, -0.1288786679506302, -0.23149389028549194, -0.03405604511499405, 0.22312335669994354, 0.126870259642601, 0.2205238938331604, 0.2600027918815613, -0.4894966781139374, -0.3166269063949585, 0.005780249368399382, -0.020278753712773323, 0.0326695591211319, -0.1920914649963379, -0.5548886656761169, -0.055617816746234894, 0.283063143491745, -0.061964139342308044, -0.03331262990832329,
-0.24493512511253357, -0.031806230545043945, 0.62977135181427, -0.09269209206104279, 0.4318886399269104, 0.18101516366004944, -0.2596687376499176, -0.28521856665611267, 0.2411125749349594, -0.027614697813987732, 0.5392654538154602, 0.34638363122940063, 0.3347965180873871, -0.09350836277008057, -0.2005963772535324, 0.1083870530128479, 0.0329454205930233, -0.16805212199687958, -0.16951203346252441, 0.3588620126247406, -0.08776924759149551, 0.48710891604423523, -0.6843096017837524, -0.0415283627808094, -0.28782007098197937, 0.006602717097848654, 0.4561450183391571, -0.16097164154052734, 0.23626808822155, 0.1790422946214676, 0.3266757130622864, 0.17282997071743011,
0.43421122431755066, 0.5054025053977966, 0.8848543167114258, -0.40237846970558167, -1.0844058990478516, -0.5062243938446045, -0.0815131887793541, 0.5287927985191345, -0.191750630736351, 0.23791097104549408, 0.3453180491924286, 0.45793697237968445, -0.2867388129234314, -0.1465757042169571, 0.4536067545413971, 0.2529335021972656, 0.3681580126285553, -0.44499561190605164, 0.41674068570137024, 0.3283768892288208, 0.08752819895744324, 0.43067124485969543, -0.35279008746147156, 0.07614399492740631, 0.024465562775731087, -0.13093550503253937, 0.22572942078113556, -0.2730477452278137, 0.027696257457137108, -0.16337132453918457, 0.1705576777458191, -0.3004818856716156,
-0.4642559289932251, 0.26199066638946533, -0.047032132744789124, 0.028824444860219955, 0.23603002727031708, 0.122348353266716, 0.26603904366493225, 0.25571614503860474, -0.4193037152290344, -0.567686140537262, -0.3291397988796234, -0.04085174947977066, -0.26797792315483093, -0.4262489378452301, 0.41015124320983887, 0.34589719772338867, 0.40224167704582214, -0.21792088449001312, 0.2408946305513382, 0.1535795032978058, -0.4867379665374756, 0.13687053322792053, -0.380098432302475, 0.14409516751766205, 0.05966921150684357, 0.35940879583358765, 0.1172097697854042, -0.11638772487640381, 0.16296538710594177, -0.17762154340744019, -0.15097859501838684, -0.3234163224697113,
-0.3049938380718231, -0.19204314053058624, -0.34518030285835266, -0.31436240673065186, -0.28492945432662964, 0.1321396678686142, 0.28311967849731445, 0.8411765694618225, -0.25650259852409363, -0.12924142181873322, 0.5799092650413513, -0.38289088010787964, -0.00785487238317728, -0.05793985724449158, -0.06960271298885345, 0.3353348970413208, -0.23747971653938293, -0.6504210233688354, -0.23399636149406433, -0.23555511236190796, -0.22903388738632202, 0.22952334582805634, -0.4142135977745056, -0.3599857687950134, -0.0002651197137311101, -0.004278772510588169, 0.6164547801017761, 0.27900364995002747, -0.4040891230106354, 1.0514522790908813, 0.20658043026924133, -0.01994333229959011,
0.7026921510696411, -0.35157114267349243, -0.17721597850322723, 0.1880326122045517, -0.14403614401817322, 0.3069244921207428, -0.24879883229732513, 0.008391084149479866, 0.02274145744740963, 0.4937469959259033, -0.30456846952438354, 0.021278008818626404, 0.5101573467254639, -0.3008600175380707, 0.2337055802345276, -0.03798150271177292, -0.08109361678361893, 0.33879491686820984, 0.5686019659042358, 0.007019302807748318, -0.3939570188522339, 0.580653190612793, -0.3616179823875427, -0.31775227189064026, 0.4756105840206146, 0.4503040015697479, 0.060672610998153687, -0.19003742933273315, 0.1675584316253662, 0.3054024577140808, -0.4946487247943878, -0.1972360461950302,
-0.1251324713230133, 0.9232729077339172, -0.16668592393398285, -0.158494770526886, -0.19103601574897766, -0.3136979341506958, -0.5256756544113159, 0.2876793444156647, 0.1985280066728592, 0.1258341521024704, 0.38342341780662537, 0.9347883462905884, -0.2005707323551178, -0.10266107320785522, -0.15910468995571136, -0.33050698041915894, -0.09067398309707642, 0.18082760274410248, 0.14319542050361633, -0.36669066548347473, -0.3941556513309479, 0.3445081114768982, -0.04692244157195091, 0.4930565655231476, 0.01757008396089077, -0.07619260251522064, 0.16366693377494812, 0.6003485321998596, 0.018342526629567146, 0.33681565523147583, -0.21793688833713531, -0.1127101480960846,
-0.7238339781761169, 0.2405569702386856, 0.20375767350196838, 0.25996536016464233, -0.32670891284942627, -0.083564892411232, -0.53351229429245, 0.10485116392374039, -0.16840119659900665, 0.06960318237543106, -0.08792722225189209, -0.4411827027797699, 0.22934590280056, 0.13034115731716156, 0.5628697276115417, 0.3615753650665283, -0.03122735768556595, 0.1831720471382141, -0.15497517585754395, -0.3348633348941803, -0.36403247714042664, 0.6402852535247803, 0.763885498046875, -0.29406195878982544, -1.0536118745803833, 0.8131504654884338, -0.41143035888671875, -0.14840935170650482, -0.2858036458492279, -0.21080096065998077, -0.5373823046684265, -0.4961543679237366,
0.03306306153535843, -0.09047156572341919, -0.4057052731513977, 0.4219253957271576, 0.7892844676971436, 0.06283333897590637, 0.3352962136268616, -0.6110161542892456, -0.20751485228538513, 0.05626031011343002, 0.8589746356010437, 0.44045737385749817, 0.3770873248577118, 0.3971874713897705, 0.09518076479434967, 0.24368686974048615, -0.006360599305480719, -0.18184378743171692, 0.12283847481012344, 0.34327054023742676, 0.19330880045890808, 0.2598907947540283, -0.45651260018348694, 0.3113027811050415, 0.1718159317970276, 0.14298507571220398, -0.11051736027002335, -0.46347784996032715, -0.24094511568546295, 0.41033050417900085, 0.32604411244392395, -0.08528729528188705,
-0.04550185427069664, -0.20576761662960052, -0.23374047875404358, -0.3707122802734375, -0.022489745169878006, 0.014828789979219437, -0.06851418316364288, -0.1123938113451004, -0.17287319898605347, 0.6016944050788879, -0.3660220503807068, 0.30533120036125183, -0.1976751834154129, -0.29787009954452515, -0.008030473254621029, -0.14225271344184875, -0.027550190687179565, -0.09716608375310898, 0.42485150694847107, 0.06486721336841583, -0.0187935009598732, 0.05617523565888405, 0.05454064905643463, 0.12917041778564453, -0.5352557897567749, -0.31505200266838074, -0.19039101898670197, -0.15682710707187653, 0.20300011336803436, -0.416431188583374, -0.1585201919078827, -0.17471098899841309,
0.5873282551765442, 0.21100254356861115, 0.1712542176246643, -0.04648701101541519, 0.6354470252990723, 0.18447914719581604, 0.3857906758785248, -0.046219855546951294, -0.7460670471191406, 0.01508356537669897, 0.37851637601852417, 0.09659230709075928, 0.7347599864006042, -0.2373911589384079, -0.39708849787712097, -0.2040024995803833, -0.08386116474866867, -0.4061448872089386, 0.10224980115890503, 0.3379490375518799, 0.6012516617774963, -0.03638807311654091, 0.1576029658317566, -0.13025525212287903, -0.4234125018119812, -0.15111349523067474, 0.4571228325366974, -0.5840237736701965, -0.014044016599655151, 0.10891339927911758, -0.08427288383245468, -0.4161357581615448,
-0.04043631628155708, 0.6201398968696594, -0.3445932865142822, -0.5630252957344055, -0.06352323293685913, -0.05589185655117035, 0.2214871644973755, -0.1305699497461319, 0.18027225136756897, 0.24377325177192688, 0.007917667739093304, -0.20087654888629913, 0.22440868616104126, -0.061272017657756805, -0.07508665323257446, -0.7561109662055969, 0.3601939380168915, -0.3166397511959076, -0.2511792480945587, 0.43879833817481995, 0.8021607398986816, 0.21658103168010712, 0.19413965940475464, 0.023640379309654236, -0.009920098818838596, -0.2030450403690338, -0.15405236184597015, 0.1664690226316452, 0.40190377831459045, -0.12108100205659866, 0.49053287506103516, -0.34556442499160767,
0.6535580158233643, -0.17384187877178192, -0.33176925778388977, -0.42994120717048645, 0.36532062292099, 0.0269212294369936, -0.2700057923793793, 0.11496630311012268, 0.004259912762790918, -0.0364992618560791, -0.49460935592651367, 0.002871996257454157, -0.28765615820884705, 0.3293977975845337, -0.48726022243499756, 0.149023175239563, 0.17339937388896942, -0.31944242119789124, -0.34293538331985474, -0.04135647416114807, -0.2062147706747055, 0.6359294056892395, -0.13010375201702118, -0.023054610937833786, -0.07242630422115326, 0.08036527037620544, -0.5527194142341614, 0.04691296070814133, -0.28813937306404114, -0.33910226821899414, 0.13094139099121094, -0.28125715255737305,
-0.4065296947956085, 0.1797787845134735, 0.08746813237667084, -0.463483989238739, -0.17743024230003357, 0.23773646354675293, 0.2449316382408142, -0.3806794285774231, -0.24889367818832397, 0.3844256103038788, 0.42512941360473633, -0.5987535715103149, -0.045915428549051285, 0.2074146866798401, -0.009506476111710072, -0.4850238263607025, -0.23123981058597565, 0.1894114464521408, -0.13142289221286774, -0.053975872695446014, -0.6347537636756897, 0.017787035554647446, -0.4608014225959778, -0.3225286900997162, -0.040841925889253616, -0.30241772532463074, 0.4167194664478302, 0.18585175275802612, -0.6839849352836609, 0.09243427217006683, -0.03963322564959526, 0.12388550490140915,
0.08699729293584824, -0.1969771385192871, 0.05620904266834259, -0.045213378965854645, 0.028294594958424568, -0.6048118472099304, -0.262380450963974, -0.3202804625034332, -0.10439132899045944, -0.1916409283876419, -0.04866165667772293, 0.012798694893717766, 0.17684528231620789, 0.36172959208488464, 0.08278119564056396, 0.3474388122558594, -0.4058765470981598, -0.6996747255325317, 0.15702120959758759, 0.0079776830971241, -0.03075377643108368, -0.053762923926115036, -0.22572481632232666, -0.46198853850364685, 0.09728038311004639, 0.2357339709997177, 0.478115051984787, -0.2236514389514923, 0.0023948890157043934, 0.3698374927043915, -0.19203157722949982, -0.3796215057373047,
0.21094174683094025, -0.05422893539071083, -0.24324803054332733, -0.1295693963766098, -0.17756767570972443, 0.053565818816423416, -0.34491661190986633, 0.12111639976501465, -0.3714499771595001, -0.12160008400678635, -0.2226428985595703, -0.3968335688114166, -0.03767991438508034, 0.03725611791014671, 0.5804420709609985, -0.2643135190010071, 0.35707178711891174, -0.535027027130127, -0.004765636753290892, 0.006053315009921789, 0.2505207359790802, 0.4065636694431305, 0.03683677315711975, 0.09288064390420914, -0.2691168785095215, -0.5406243205070496, 0.08956126868724823, 0.2050146907567978, -0.1150723546743393, 0.004929801449179649, -0.25250905752182007, 0.5709238052368164,
0.2111988663673401, 0.11749666929244995, 0.1933550387620926, 0.04679013788700104, 0.13572055101394653, 0.43785586953163147, -0.555367112159729, -0.16573935747146606, -0.6925956606864929, -0.3301495611667633, -0.055910032242536545, -0.2776159644126892, -0.02906339056789875, -0.02796657383441925, -0.12025793641805649, 0.6609097123146057, 0.01195446401834488, 0.09360837191343307, 0.12955431640148163, 0.32340797781944275, -0.3168327510356903, -0.4031015634536743, -0.016819123178720474, 0.31011903285980225, 0.6453251838684082, 0.30621984601020813, -0.4271285831928253, 0.5121414661407471, 0.015978218987584114, 0.11608296632766724, 0.18623396754264832, -0.04654286429286003,
0.21887943148612976, 0.14176835119724274, -0.05560176447033882, 0.04996412992477417, -0.5855401158332825, 0.20711015164852142, 0.12810219824314117, -0.11461327970027924, 0.3711276948451996, -0.46067529916763306, -0.559782862663269, 0.16759130358695984, 0.022254562005400658, 0.29135406017303467, 0.035060424357652664, 0.04388224333524704, 0.18257580697536469, 0.316719114780426, -0.15957403182983398, -0.07883939146995544, -0.33733469247817993, -0.21291328966617584, 0.32719284296035767, 0.5254986882209778, -0.28218650817871094, -0.2364819496870041, 0.5280198454856873, 0.44417670369148254, -0.34105661511421204, 0.1213238313794136, 0.21594159305095673, -0.12160057574510574,
-0.4151723086833954, -0.16309508681297302, 0.2832919955253601, -0.2649712860584259, 0.339664489030838, 0.2477312982082367, 0.2340640276670456, 0.1819138526916504, -0.1647544801235199, 0.1493632197380066, -0.0853441059589386, -0.24249570071697235, 0.03096059150993824, 0.6433641910552979, -0.2512795627117157, 0.026298321783542633, -0.21034903824329376, -0.08872824162244797, 0.5623737573623657, -0.33964040875434875, -0.026674838736653328, -0.3231681287288666, -0.33483895659446716, 0.4676741361618042, 0.13978838920593262, 0.2278297394514084, 0.27758094668388367, -0.18090948462486267, -0.12383127212524414, 0.07485397160053253, 0.3616262674331665, 0.34936949610710144,
-0.22382208704948425, 0.3546940088272095, -0.0382295623421669, 0.09955529868602753, -0.04073082283139229, -0.3674539029598236, -0.23006395995616913, 0.08342871814966202, 0.41584333777427673, 0.17552714049816132, 0.12523053586483002, -0.21537162363529205, 0.4021039307117462, -0.269829660654068, -0.3285967707633972, -0.22981353104114532, -0.061140403151512146, 0.11840936541557312, -0.10052312165498734, 0.25986748933792114, 0.5261955261230469, 0.19131886959075928, -0.3682885766029358, 0.4078405499458313, -0.1215214803814888, -0.2249942421913147, 0.41135743260383606, 0.24690881371498108, -0.4455629587173462, -0.3403989374637604, 0.09724990278482437, -0.15903516113758087,
-0.3850176930427551, -0.3178773522377014, 0.07495623826980591, -0.2820570766925812, 0.1952151358127594, -0.49868282675743103, 0.07638148963451385, 0.005551713518798351, -0.340676873922348, -0.16369891166687012, 0.3171140253543854, -0.23589088022708893, -0.006377998273819685, 0.1323447972536087, -0.013958009891211987, 0.00950636062771082, 0.5310701131820679, -0.20693343877792358, -0.1633007675409317, 0.16359689831733704, -0.475615531206131, -0.3236020803451538, 0.4365070164203644, -0.20284786820411682, -0.10731382668018341, -0.8545945286750793, 0.19827893376350403, -0.00980862695723772, -0.027675559744238853, -0.48956072330474854, 0.8449869155883789, -0.17801223695278168,
-0.4191282093524933, 0.3773510456085205, -0.11644674092531204, -0.45934781432151794, 0.3052007555961609, 0.3068486750125885, -0.5098780393600464, 0.15282198786735535, 0.2753201127052307, -0.5604792237281799, 0.29553860425949097, 0.9405500888824463, 0.5501778721809387, -0.09440252929925919, -0.019033871591091156, 0.2368539571762085, -0.6837295889854431, 0.3091125786304474, 0.12252863496541977, 0.5117263793945312, -0.4350038468837738, 0.01941324956715107, -0.02732425183057785, 0.39657267928123474, 0.18814817070960999, -0.14381034672260284, -0.35989344120025635, -0.02957860380411148, -0.3795320391654968, -0.015278668142855167, -0.31198376417160034, 0.14510886371135712,
-0.195619136095047, -0.2431715428829193, 0.37581977248191833, 0.11909730732440948, -0.2354377955198288, 0.18244849145412445, 0.4762144386768341, -0.14364488422870636, -0.14480571448802948, 0.3435481786727905, -0.6242440342903137, 0.35205239057540894, -0.16133932769298553, 0.03847986459732056, 0.19713455438613892, 0.10388024151325226, -0.1551230400800705, -0.2503942847251892, 0.10381096601486206, -0.02001192979514599, -0.030493710190057755, 0.9352052211761475, 0.4440932869911194, 0.33150771260261536, 0.7929907441139221, -0.12220928817987442, 0.3977014422416687, -0.19370487332344055, 0.44302964210510254, 0.22690019011497498, 0.1266767978668213, -0.39904794096946716,
-0.7440992593765259, 0.20677578449249268, -0.3573259711265564, -0.1883503645658493, -0.08284224569797516, 0.04398262873291969, 0.3544595241546631, 0.027563156560063362, -0.33529219031333923, 0.28043490648269653, -0.5526207685470581, 0.2823064923286438, 0.15019051730632782, -0.250713586807251, -0.22395867109298706, 0.25419625639915466, 0.5503110289573669, 0.058337170630693436, -0.004570205695927143, -0.12857556343078613, 0.30150267481803894, -0.13464981317520142, -0.2065967321395874, -0.3274746537208557, 0.05912754312157631, -0.3622758686542511, -0.028222111985087395, -0.10557922720909119, 0.025529496371746063, 0.5824754238128662, 0.03435872122645378, 0.0075338794849812984,
0.23008963465690613, 0.22727210819721222, 0.5613906383514404, 0.41679659485816956, 0.12563727796077728, -0.3591690957546234, 0.33670756220817566, 0.5738542079925537, 0.04355258494615555, 0.14376609027385712, -0.459903359413147, 0.09461328387260437, 0.4331341087818146, 0.2697198987007141, -0.23706147074699402, -0.28235191106796265, -0.033693768084049225, 0.4762979745864868, -0.024988016113638878, 0.46770766377449036, 0.16780757904052734, -0.03236784040927887, 0.32061225175857544, -0.22342464327812195, 0.39865952730178833, 0.2812952399253845, 0.07083611935377121, 0.11936023086309433, 0.003170301904901862, 0.4082372784614563, 0.3711928129196167, 0.062483590096235275,
0.3984973430633545, -0.45654359459877014, -0.7153908014297485, -0.25254443287849426, 0.679003894329071, -0.34309253096580505, 0.003218984231352806, 0.20995701849460602, -0.22430424392223358, 0.6229353547096252, 0.15032924711704254, -0.10500271618366241, -0.18226905167102814, -0.2724898159503937, 0.23476530611515045, -0.2155594527721405, 0.42851588129997253, 0.05368420481681824, -0.1367862969636917, -0.0016746267210692167, -0.03212316334247589, -0.5017450451850891, 0.6532599329948425, 0.9626117944717407, 0.21117274463176727, 0.9347370266914368, 0.4208255410194397, -0.2864510715007782, -0.7259247303009033, 0.08832810074090958, 0.5453391671180725, 0.003961057402193546,
-0.25372135639190674, -0.008175705559551716, 0.5755218863487244, 0.23183532059192657, 0.4887896776199341, 0.14072474837303162, -0.32252687215805054, -0.32399800419807434, 0.10287130624055862, -0.05672093853354454, -0.08272312581539154, 0.38532060384750366, 0.4717635214328766, -0.5176143050193787, 0.038056302815675735, -0.20008280873298645, 0.0862540602684021, -0.4341976046562195, 0.3908281624317169, -0.466097354888916, 0.2176436185836792, -0.00289926421828568, -0.5489329099655151, -0.4005911350250244, 0.039904624223709106, 0.35644203424453735, -0.2926465570926666, 0.13806438446044922, -0.3361648917198181, 0.0010488427942618728, 0.045109041035175323, -0.3138372600078583,
-0.42467185854911804, -0.567072868347168, 0.3658851385116577, -0.46590760350227356, 0.0829043984413147, -0.005904122721403837, 0.3045002818107605, -0.002651501912623644, 0.07383134216070175, 0.0571383461356163, 0.12161668390035629, -0.0520416684448719, -0.14362198114395142, -0.007873188704252243, -0.24014408886432648, 0.01112787239253521, 0.19116352498531342, -0.22703807055950165, -0.03904186189174652, 0.09046845138072968, -0.18580389022827148, -0.4345281720161438, -0.022395124658942223, 0.8707431554794312, 0.2989346981048584, -0.10956227779388428, 0.10372042655944824, -0.20644836127758026, 0.11631950736045837, 0.31347084045410156, -0.0866788774728775, 0.06728872656822205
};

const float biases_fc1[] = {
0.06585363298654556, 0.09864453226327896, 0.05772756412625313, -0.05127996206283569, -0.023667294532060623, 0.12702631950378418, 0.003932866267859936, 0.0021182687487453222, -0.06403405219316483, -0.05725204199552536, 0.14765924215316772, -0.0638807862997055, 0.16341367363929749, -0.025345027446746826, 0.033036962151527405, -0.013129223138093948, -0.01613745093345642, -0.028723787516355515, 0.0004610751639120281, 0.0067905220203101635, 0.017678270116448402, -0.011286802589893341, -0.047226276248693466, 0.04774532467126846, -0.0524577721953392, 0.23710229992866516, -0.10049109905958176, -0.05688082054257393, -0.0964583158493042, -0.04369282349944115, 0.057197246700525284, -0.0536162368953228
};

const float weights_fc2[] = {
-0.3530128002166748, 0.02534010447561741, 0.07966966927051544, -0.011174114421010017, -0.04044773802161217, 0.1694054901599884, 0.7353737950325012, -0.005305049940943718, 0.07910289615392685, -0.15043014287948608, 0.4853498935699463, 0.07747453451156616, -0.3614879548549652, -0.07301557809114456, -0.21147550642490387, 0.02079070918262005, -0.062152475118637085, 0.053976934403181076, 0.031094076111912727, 0.0064584072679281235, -0.2760051488876343, 0.02801281027495861, -0.11620163917541504, 0.14855913817882538, -0.10190846771001816, -0.06396860629320145, 0.04688936471939087, 0.02060784213244915, 0.08751057833433151, -0.18695227801799774, -0.04319673776626587, -0.0258339773863554,
0.22284118831157684, 0.07784043997526169, 0.026888195425271988, 0.1593414694070816, 0.14774654805660248, -0.184884175658226, -0.4769655764102936, -0.13230934739112854, 0.02408479154109955, -0.02702646143734455, 0.2086581289768219, 0.16376017034053802, -0.2514793872833252, -0.1756610870361328, -0.5949274897575378, -0.3562108278274536, -0.02069462090730667, 0.03515378758311272, -0.133209228515625, -0.03666631504893303, 0.1522490233182907, 0.42786407470703125, 0.03678517788648605, -0.0595872662961483, -0.011915924958884716, 0.238653302192688, -0.15839682519435883, -0.15761207044124603, 0.11623995006084442, 0.025800444185733795, -0.10602560639381409, -0.025524264201521873,
-0.32372504472732544, 0.20055197179317474, -0.013326160609722137, -0.14728014171123505, 0.15160498023033142, 0.23328234255313873, -0.20466601848602295, -0.3829742670059204, 0.19224509596824646, 0.016053155064582825, -0.23470285534858704, -0.13411793112754822, 0.21394339203834534, -0.11448036879301071, 0.30740833282470703, 0.1711055487394333, -0.09623973816633224, 0.21738304197788239, 0.12029799818992615, -0.21015653014183044, -0.3977243900299072, -0.23348061740398407, 0.13038165867328644, 0.31224218010902405, -0.04717965051531792, -0.24828901886940002, -0.20823349058628082, 0.04408041387796402, 0.029441656544804573, 0.013350480236113071, 0.2465236335992813, -0.06994667649269104,
0.04000122472643852, -0.22182953357696533, -0.25695332884788513, -0.2933403253555298, 0.07596038281917572, 0.10658323019742966, -0.02607298269867897, 0.17141175270080566, -0.01047542504966259, 0.2298939973115921, -0.2700210213661194, -0.013148629106581211, 0.32155996561050415, -0.07082569599151611, 0.10275568813085556, -0.5719704627990723, -0.02280086651444435, -0.26248541474342346, 0.32487359642982483, -0.1490943282842636, 0.3686845302581787, -0.1505177915096283, 0.1705923229455948, -0.3851332366466522, -0.08207350224256516, 0.10655996948480606, 0.15276221930980682, -0.05656738951802254, 0.03689843416213989, 0.13332772254943848, 0.3252302408218384, 0.18168912827968597
};

const float biases_fc2[] = {
0.011066503822803497, 0.008379285223782063, -0.0013538217172026634, -0.0027272594161331654
};

void nn_forward(const float* input, float* output) {
    const float* fc0_output = input;
    float fc1_output[32];
    nn_linear(weights_fc0, biases_fc0, fc0_output, 19, 32, fc1_output);
    nn_elu(fc1_output, 32);
    float fc2_output[32];
    nn_linear(weights_fc1, biases_fc1, fc1_output, 32, 32, fc2_output);
    nn_elu(fc2_output, 32);
    float* fc3_output = output;
    nn_linear(weights_fc2, biases_fc2, fc2_output, 32, 4, fc3_output);
    nn_elu(fc3_output, 4);
}