// meteor75 with domain randomization: https://wandb.ai/epedley/puffer_raptor/runs/0qmujtkv
#include "neural_network.h"
#include "nn_helpers.h"

const float weights_fc0[] = {
-0.27047061920166016, 0.3665880262851715, 0.18327762186527252, -0.08743110299110413, -0.024161797016859055, -0.3125484883785248, -0.041823893785476685, 0.06696078926324844, 0.14474795758724213, 0.8907462954521179, -0.913751482963562, 0.2862265706062317, 0.24315400421619415, -0.12933485209941864, -0.31023603677749634, 0.03742381930351257, 0.028702253475785255, -0.04740491509437561, -0.06654217094182968,
-0.5963549613952637, -0.04336922988295555, 0.04848024994134903, -0.0471600741147995, -0.06676997989416122, -0.13937006890773773, -0.29643306136131287, -0.4519526958465576, -0.7062282562255859, 0.3842492699623108, 0.4911670982837677, 0.054726384580135345, -0.45337042212486267, 0.49091628193855286, -0.22009973227977753, -0.08774209022521973, 0.34966227412223816, 0.32465171813964844, 0.813083291053772,
0.44214388728141785, 0.16382792592048645, -0.5810548067092896, 0.006031870376318693, -0.030865434557199478, -0.40377455949783325, 0.10390978306531906, 0.03549310937523842, -0.10247739404439926, 0.6686683893203735, 0.5260036587715149, 0.3999248445034027, 0.0964338481426239, 0.2907908856868744, 0.6987278461456299, 0.02096566930413246, -0.014418075792491436, 0.19927577674388885, -0.4601248502731323,
-0.08988345414400101, 0.4227301776409149, -0.1365373581647873, -0.3559166491031647, 0.3211962580680847, 0.22460855543613434, 0.08648046851158142, 0.3623506426811218, 0.027778690680861473, 0.08610287308692932, 0.5656480193138123, 0.25187745690345764, 0.4481905400753021, -0.04495995491743088, -0.12629914283752441, 0.4703587591648102, 0.01609797589480877, 0.4412209689617157, -0.1093367263674736,
0.05416838079690933, 0.12086663395166397, 0.12545302510261536, -0.0006091304239816964, -0.013457679189741611, -0.23135536909103394, 0.260387659072876, 0.7308419942855835, -0.6984678506851196, 0.030691523104906082, -0.36973926424980164, -0.3074328899383545, 0.3283737003803253, 0.43577054142951965, -0.29899469017982483, 0.45487192273139954, -0.11743555217981339, 0.0664437860250473, -0.5891764163970947,
-0.039935506880283356, 0.01608521118760109, -0.0025123863015323877, 0.027508815750479698, 0.08537918329238892, 0.22549016773700714, 0.6729133725166321, -0.1070028617978096, -0.6895238161087036, 0.22222205996513367, -0.026815762743353844, -0.4225820302963257, 0.497522234916687, -0.30007973313331604, -0.4131169319152832, 0.07822037488222122, -0.1074482798576355, 0.029809221625328064, -0.35772570967674255,
-1.0831857919692993, 0.33373716473579407, 0.1599162518978119, 0.05354195833206177, -0.027723420411348343, 0.08399435877799988, -0.12395890057086945, 0.2773702144622803, 0.30071794986724854, 1.1232830286026, -0.8521881699562073, -0.5954011678695679, -0.1058172658085823, 0.05691896006464958, -0.007065129466354847, -0.13981011509895325, -0.03183383867144585, 0.13272570073604584, 0.07683839648962021,
0.18300162255764008, -0.20391005277633667, -0.30821138620376587, 0.13108240067958832, -0.03174429386854172, 0.07878246158361435, 0.06768868118524551, -0.24611690640449524, 0.23762179911136627, 0.12405980378389359, -0.8044007420539856, 0.05633527785539627, -0.12992841005325317, 0.2237568199634552, 0.44253459572792053, -0.2074350118637085, -0.5081554055213928, -0.009486611932516098, 0.6719663739204407,
-0.11871426552534103, 0.037176042795181274, -0.4236133396625519, 0.04972432181239128, 0.00018536239804234356, 0.21840867400169373, 0.09329068660736084, 0.08725950121879578, -0.3451496362686157, 0.2112557291984558, 0.029932573437690735, -0.0738464742898941, 0.16059979796409607, -0.22196194529533386, -0.2581809163093567, -0.40001630783081055, -0.170846626162529, 0.22406375408172607, 0.2383275330066681,
-0.054149970412254333, -0.22120587527751923, -0.3180806636810303, -0.17589756846427917, 0.0075993286445736885, 0.07550938427448273, -0.4825195372104645, 0.2425549477338791, 0.436483234167099, 0.10922469198703766, -0.5681036114692688, -0.21026472747325897, 0.13025173544883728, 0.017577290534973145, 0.16934478282928467, -0.4262986183166504, 0.15958210825920105, -0.7498626708984375, 0.2989391088485718,
0.01883918046951294, -0.0021627084352076054, -0.1445765346288681, 0.0604245662689209, -0.026612717658281326, -0.11716609448194504, -0.12969817221164703, 0.009476961567997932, -1.0473133325576782, 0.02400745265185833, -0.5961015820503235, 0.46332815289497375, 0.11102192103862762, 0.08130507916212082, -0.15228627622127533, 0.12779338657855988, 0.5759959816932678, -0.005806578788906336, 0.588039755821228,
-0.25104278326034546, 0.23749147355556488, 0.02331193909049034, -0.01872205175459385, 0.012857507914304733, 0.06760837137699127, -0.30883321166038513, -0.3832125961780548, -1.557863712310791, 0.18735209107398987, -0.34794166684150696, -0.6524502635002136, -0.19525867700576782, 0.3123089373111725, 0.5262501239776611, -0.2604934573173523, -0.3006024956703186, 0.15615694224834442, -0.2832932472229004,
0.01372472196817398, 0.2028825730085373, -0.032792627811431885, -0.14448967576026917, -0.03224346041679382, 0.12479075789451599, 0.3547658324241638, 0.5575094819068909, -1.1459804773330688, -0.3403163552284241, -0.06872481852769852, 0.14327621459960938, 0.3119868338108063, -0.22122369706630707, -0.20959950983524323, 0.21703849732875824, 0.3383340835571289, -0.520247757434845, -0.1658545434474945,
0.02210054360330105, 0.1888735145330429, -0.17794954776763916, 0.040025122463703156, 0.22778768837451935, 0.13481011986732483, 0.058573439717292786, -0.4698065221309662, -0.009946045465767384, 0.15421125292778015, -0.15744583308696747, 0.4429042637348175, -0.3284834325313568, -0.629237711429596, -0.31965306401252747, 0.5303687453269958, 0.11137327551841736, -0.04364609345793724, -0.1105661615729332,
0.18180879950523376, -0.31107184290885925, 0.32559487223625183, 0.29513731598854065, 0.3942809998989105, -0.09097550064325333, 0.8808902502059937, -0.5838961601257324, 0.11290505528450012, -0.5141854286193848, 0.2369019091129303, -0.21839366853237152, -0.2475958913564682, -0.23622018098831177, 0.40251410007476807, -0.03769786283373833, 0.21489326655864716, 0.398331880569458, 0.5415639877319336,
0.13805286586284637, 0.10007559508085251, -0.027869416400790215, 0.0019309547496959567, -0.01209306064993143, -0.3501494228839874, 0.39638227224349976, 0.028294308111071587, -0.1957779973745346, -0.5434448719024658, -0.020793074741959572, -0.1284199208021164, -0.17552796006202698, -0.7736882567405701, 0.7543971538543701, 0.10008019208908081, 0.1143808662891388, 0.37323492765426636, -0.030120253562927246,
0.21708239614963531, -0.07882240414619446, 0.514707088470459, -0.009136602282524109, -0.003990221302956343, -0.021318253129720688, 0.30688226222991943, -0.08691056072711945, 0.3435083329677582, -0.7583393454551697, -0.6432449817657471, -0.3439101278781891, 0.2717815041542053, 0.2720984220504761, -0.2599084675312042, -0.46573635935783386, 0.2135477066040039, -0.15262214839458466, 0.05331636965274811,
-0.25301915407180786, -0.15509143471717834, -0.34002211689949036, 0.1932782530784607, -0.2958095669746399, 0.05911214277148247, 0.23704960942268372, -0.25163576006889343, -0.4615986943244934, 0.13673782348632812, 0.5204227566719055, -0.008685634471476078, -0.1773788034915924, -0.376395046710968, -1.219393014907837, -0.0038464555982500315, -0.5934328436851501, 0.11322804540395737, 0.6041882634162903,
-0.31189918518066406, -0.19590146839618683, -0.16543136537075043, 0.16863085329532623, 0.07336623966693878, -0.5017759799957275, -0.09263172745704651, 0.11384576559066772, -0.07663281261920929, -0.3311874270439148, -0.050650764256715775, -0.23674625158309937, 0.1486150473356247, -0.19110113382339478, 0.21937133371829987, -0.14979930222034454, -0.024281064048409462, -0.370419442653656, -0.435691237449646,
0.06479398906230927, 0.35607078671455383, 0.06149778887629509, 0.00965755246579647, -0.014591868966817856, -0.19256064295768738, 0.3139660954475403, 0.6778424978256226, -0.5626299381256104, 0.1059529036283493, -0.2013607621192932, -0.03203487768769264, 0.17804323136806488, -0.08168819546699524, 0.17857448756694794, -0.11077235639095306, -0.03976058587431908, -0.23141184449195862, 0.19195839762687683,
-0.19154411554336548, 0.20743566751480103, 0.3057113587856293, 0.1679682582616806, -0.20242634415626526, 0.1902703046798706, -0.4555549621582031, 0.22374173998832703, -0.07095320522785187, 0.2913045287132263, -0.56303471326828, -0.5571701526641846, 0.48109376430511475, 0.3243600130081177, -0.22949746251106262, 0.024528225883841515, 0.8062774538993835, -0.5917118787765503, 0.23274926841259003,
-0.2250053882598877, -0.10069334506988525, -0.06912768632173538, 0.028669578954577446, -0.10897944122552872, -0.012432211078703403, -0.026258552446961403, 0.11565225571393967, -0.6070446968078613, -0.40684032440185547, 0.7395146489143372, 0.017859088256955147, -0.12645874917507172, -0.060153279453516006, 0.5839337706565857, -0.30905163288116455, 0.7574746012687683, -0.10390325635671616, 0.6466808319091797,
0.5936934351921082, 0.6042319536209106, 0.07271840423345566, 0.055179398506879807, 0.05988055467605591, 0.05772029981017113, 0.08010129630565643, -0.08513575792312622, 0.3873240053653717, -0.5891004800796509, -0.25011780858039856, -0.2879939079284668, -0.15848208963871002, -0.20636841654777527, -0.1168137937784195, -0.39404937624931335, -0.23242874443531036, 0.1977592557668686, 0.13858340680599213,
0.24634966254234314, 0.31122997403144836, 0.07505013793706894, -0.007514772471040487, 0.1100768968462944, 0.02194499783217907, 0.3216862082481384, 0.19811715185642242, -0.6689460873603821, -0.2467375248670578, -0.8889355659484863, 0.30875787138938904, -0.11761603504419327, -0.25721248984336853, 0.19230301678180695, 0.38263770937919617, -0.026843516156077385, 0.6901339888572693, 0.6044138669967651,
0.14380063116550446, 0.1814582496881485, 0.08868933469057083, -0.025743525475263596, 0.06273230910301208, -0.12722039222717285, 0.3276865780353546, 0.1724361926317215, -0.17954538762569427, 0.572352945804596, -0.5907418727874756, -0.2141013890504837, -0.20844820141792297, 0.02503330446779728, 0.47109055519104004, 0.44219642877578735, -0.1636580526828766, 0.5797174572944641, -0.45622870326042175,
-0.561282753944397, 0.43097689747810364, -0.31699877977371216, 0.03367147222161293, -0.04999849945306778, -0.10252858698368073, 0.01726476661860943, 0.3048975467681885, -0.22895778715610504, -1.7411270141601562, -0.574238121509552, 0.43813827633857727, -0.22113719582557678, 0.0027399298269301653, 0.06890688836574554, 0.05503537133336067, -0.027426332235336304, 0.13344749808311462, -0.10800431668758392,
-0.05501186102628708, 0.9884080290794373, -0.12323056161403656, -0.1869930922985077, -0.2581137418746948, -0.055953823029994965, -0.09119603037834167, -0.02696797624230385, 0.3147036135196686, 0.11986608803272247, -0.288472443819046, 0.3328201174736023, 0.299038290977478, 0.1611657589673996, 0.03540967404842377, -0.25349169969558716, 0.5654962658882141, -0.17394837737083435, 0.2181124985218048,
-0.04173702374100685, -0.0514875203371048, 0.24627014994621277, 0.5752701759338379, 0.3619878888130188, 0.06547770649194717, -0.5752225518226624, -0.22704920172691345, -0.47025370597839355, 0.027698827907443047, 0.13460679352283478, 0.41637957096099854, -0.3170226514339447, 0.31630444526672363, -0.5503419041633606, -0.28312209248542786, -0.6462298035621643, 0.5668200254440308, 0.22784708440303802,
-0.5544604063034058, -0.18412205576896667, 0.6897509694099426, 0.07644352316856384, -0.05560888350009918, -0.12310517579317093, 0.14968626201152802, -0.0495927520096302, 0.1518709659576416, 0.5181612968444824, 0.5929322242736816, -0.3787277042865753, -0.18875940144062042, -0.020078346133232117, 0.45732906460762024, 0.06883347779512405, 0.08943678438663483, 0.15327146649360657, 0.26811039447784424,
-0.5407727360725403, -0.27991339564323425, -0.27251166105270386, -0.034616176038980484, 0.030376339331269264, 0.06303993612527847, 0.12145864218473434, 0.06608941406011581, -0.10423846542835236, 0.3452412188053131, -0.28461459279060364, 0.815619945526123, 0.25582659244537354, 0.00785327423363924, 0.4253876805305481, 0.12442754954099655, 0.2606603801250458, 0.14016325771808624, -0.09431543946266174,
-0.1257631778717041, 0.49578535556793213, -0.15418680012226105, 0.07526666671037674, 0.17255482077598572, -0.050347842276096344, -0.07371168583631516, 0.43880173563957214, 0.20339377224445343, 0.2523626685142517, -0.42724260687828064, 0.009519903920590878, 0.14518587291240692, -0.11497755348682404, -0.15298910439014435, 0.4684133231639862, 0.2255055457353592, -0.19719946384429932, 0.16038502752780914,
0.4057064950466156, -0.1685052067041397, -0.010564827360212803, 0.056430038064718246, 0.035168569535017014, 0.018768295645713806, 0.12478285282850266, -0.34464749693870544, -0.28616881370544434, 0.11915022879838943, -0.5973278880119324, 0.48631948232650757, -0.13979414105415344, -0.7637815475463867, -0.348362535238266, -0.46402472257614136, -0.035124268382787704, -0.012175068259239197, 0.2340524047613144
};

const float biases_fc0[] = {
-0.05017094314098358, 0.2138504981994629, -0.026351943612098694, 0.012004759162664413, 0.18125925958156586, 0.03951263800263405, -0.07939032465219498, -0.07131247222423553, 0.06595682352781296, -0.12263138592243195, 0.3346903920173645, 0.36909350752830505, 0.16585691273212433, -0.001965536270290613, 0.03490380570292473, 0.05320665240287781, -0.11942598223686218, 0.029698068276047707, -0.013757642358541489, 0.09871380031108856, 0.010810235515236855, 0.08483348041772842, -0.11182944476604462, 0.18491032719612122, -0.0323316715657711, -0.035451024770736694, -0.033608391880989075, 0.04291399568319321, -0.03255684673786163, -0.0018839144613593817, -0.002772589446976781, 0.049204230308532715
};

const float weights_fc1[] = {
-0.3176875412464142, -0.1175679862499237, -0.2819975018501282, 0.2908500134944916, 0.34805965423583984, 0.45783135294914246, -0.22937802970409393, 0.1633753925561905, -0.1218954399228096, -0.1412724256515503, 0.2735995352268219, 0.35011059045791626, 0.5008012056350708, 0.48841020464897156, 0.34820982813835144, 0.2385512739419937, 0.019677111878991127, 0.07823861390352249, -0.3958970010280609, -0.06078341230750084, 0.07873909920454025, -0.31211021542549133, 0.0959642305970192, 0.20433884859085083, 0.27160853147506714, -0.06245144456624985, 0.10679033398628235, 0.17930611968040466, 0.27554088830947876, -0.3825160562992096, -0.005679607857018709, -0.28145769238471985,
-0.0865936130285263, 0.25212475657463074, -0.4485667943954468, -0.149147167801857, -0.2749524414539337, -0.11054960638284683, -0.1433308869600296, -0.2700156271457672, -0.2700136601924896, -0.27415505051612854, 0.16681471467018127, 0.3437345325946808, 0.41072651743888855, 0.19583554565906525, 0.17029772698879242, -0.41421085596084595, -0.7382977604866028, 0.19109517335891724, -0.4927310347557068, -0.09489188343286514, 0.16036798059940338, 0.24680480360984802, -0.24224120378494263, 0.3534947335720062, -0.38019630312919617, 0.27379682660102844, -0.2138020098209381, -0.07260735332965851, 0.03330692648887634, -0.03129963204264641, 0.33770543336868286, 0.11328127235174179,
0.22420696914196014, -0.383100688457489, -0.032626450061798096, -0.06515200436115265, 0.06379131227731705, -0.10686027258634567, 0.24155591428279877, 0.047414712607860565, -0.005559004843235016, -0.1662665456533432, 0.4221765697002411, 0.41068318486213684, 0.03649032115936279, -0.1219385489821434, -0.32136669754981995, -0.14527083933353424, 0.47071558237075806, 0.6577810645103455, 0.2883569896221161, 0.1608709990978241, 0.4833069145679474, 0.30311745405197144, 0.11811746656894684, -0.2003953456878662, 0.05077275633811951, 0.41968005895614624, 0.11549554020166397, 0.7167965769767761, 0.256102591753006, -0.11361833661794662, -0.5118860006332397, 0.07402148842811584,
0.17265628278255463, 0.3441370129585266, 0.22400560975074768, 0.08282600343227386, 0.3080380856990814, -0.12411034107208252, 0.2205480933189392, -0.050197821110486984, 0.033121224492788315, -0.07704229652881622, -0.12229318171739578, -0.4031480848789215, -0.11259407550096512, 0.08174996823072433, 0.31794339418411255, -0.183166041970253, -0.26845622062683105, 0.6308907866477966, -0.30803704261779785, -0.3543260395526886, -0.21191094815731049, 0.05577220767736435, -0.1866827756166458, -0.16486959159374237, 0.2411995381116867, -1.1918123960494995, -0.07485556602478027, -0.026423880830407143, 0.25676584243774414, 0.023404397070407867, -0.2746146619319916, -0.71658855676651,
-0.014278266578912735, -0.3935232162475586, 0.1238153949379921, 0.4234180748462677, -0.11664468050003052, 0.15290775895118713, -0.4602881968021393, -0.13965876400470734, -0.20459435880184174, -0.1103699803352356, -0.12111008167266846, -0.09151054918766022, -0.5683731436729431, 0.2436787486076355, -0.15202252566814423, -0.36485907435417175, 0.05787435919046402, 0.31526562571525574, 0.042986150830984116, 0.20409958064556122, 0.24450787901878357, -0.4714573919773102, -0.2216804474592209, 0.024698888882994652, 0.05007806420326233, -0.04274005815386772, -0.2992709279060364, -0.5800544023513794, -0.08607649058103561, 0.19073426723480225, -0.18649013340473175, 0.06263630837202072,
-0.11286646127700806, 0.06925638020038605, 0.6447460055351257, -0.08058582246303558, 0.3249351978302002, 0.270175963640213, -0.2865758538246155, -0.22934982180595398, 0.25392839312553406, -0.07169501483440399, 0.461867094039917, 0.26003167033195496, 0.24820923805236816, -0.1507609337568283, -0.20042996108531952, 0.3282968997955322, 0.04873542860150337, -0.062322236597537994, -0.2528870701789856, 0.3510766327381134, -0.2123676836490631, 0.463466078042984, -0.6282150745391846, 0.041463665664196014, -0.3459247350692749, -0.05644882097840309, 0.44416970014572144, -0.030354823917150497, 0.31464195251464844, 0.07505305856466293, 0.3931909501552582, 0.12255854159593582,
0.4306305944919586, 0.3168816864490509, 0.7195700407028198, -0.28726625442504883, -0.7868284583091736, -0.3799975514411926, -0.09945975244045258, 0.5353272557258606, -0.13094563782215118, 0.1866600215435028, 0.32435932755470276, 0.3499238193035126, -0.2522010803222656, -0.01072545163333416, 0.4471897780895233, 0.24733997881412506, 0.23523570597171783, -0.25401371717453003, 0.37230604887008667, 0.30415043234825134, 0.11689183861017227, 0.31568440794944763, -0.350198358297348, -0.019564861431717873, -0.023276111111044884, -0.11575060337781906, 0.1004423201084137, -0.32707083225250244, 0.04242099076509476, -0.0510951392352581, 0.2690703868865967, -0.20168200135231018,
-0.5563642382621765, 0.3002041280269623, -0.06682225316762924, 0.03412540256977081, 0.2818347215652466, 0.14041200280189514, 0.3026759624481201, 0.29967132210731506, -0.2145216017961502, -0.5823307037353516, -0.42430537939071655, 0.020010951906442642, -0.26428189873695374, -0.5954016447067261, 0.44760462641716003, 0.32140013575553894, 0.399482786655426, -0.14049643278121948, 0.24562853574752808, 0.15439772605895996, -0.5649900436401367, 0.04490089416503906, -0.4631398618221283, 0.1897514909505844, 0.15048576891422272, 0.35046297311782837, 0.0528128407895565, -0.036935221403837204, 0.20319227874279022, -0.16776345670223236, -0.2023065686225891, -0.27516138553619385,
0.04942552000284195, -0.19139698147773743, -0.470249205827713, -0.30823400616645813, -0.2078346163034439, 0.11005531251430511, 0.3569212853908539, 0.9997641444206238, 0.07805068790912628, 0.14327546954154968, 0.4912495017051697, -0.07124131172895432, -0.030682120472192764, -0.17056207358837128, 0.026548201218247414, 0.08695610612630844, -0.2585952579975128, -0.5091816186904907, -0.07580268383026123, -0.3602167069911957, 0.010629240423440933, 0.14903894066810608, -0.30681100487709045, -0.3277815878391266, 0.07439209520816803, -0.07208548486232758, 0.26643985509872437, 0.10679717361927032, -0.46112316846847534, 0.8272380828857422, 0.17361123859882355, -0.0659450888633728,
0.6492097973823547, -0.21554681658744812, -0.2373310774564743, 0.21298947930335999, -0.0013856375589966774, 0.14378486573696136, -0.3335796892642975, -0.025828391313552856, 0.02459852211177349, 0.40682488679885864, -0.27051031589508057, -0.05707984417676926, 0.5220806002616882, -0.08763135969638824, 0.2257687747478485, -0.11993572115898132, 0.0013855107827112079, 0.2574058771133423, 0.3853610157966614, -0.10429956763982773, -0.32844293117523193, 0.5789828300476074, -0.1775401085615158, -0.1686740219593048, 0.30609098076820374, 0.33426153659820557, 0.08958717435598373, -0.11003611981868744, 0.09750638902187347, -0.0019746841862797737, -0.26228663325309753, -0.415484219789505,
-0.016658427193760872, 0.964332103729248, -0.20781239867210388, -0.07444989681243896, 0.10389699041843414, -0.42446598410606384, -0.48368844389915466, 0.27922892570495605, 0.035155050456523895, 0.19430552423000336, 0.48554491996765137, 0.83400559425354, -0.34715360403060913, -0.09694533795118332, -0.058276139199733734, -0.34684786200523376, -0.1781882345676422, 0.15569700300693512, 0.0899403765797615, -0.2909143567085266, -0.3780835270881653, 0.2696996331214905, -0.07942356914281845, 0.40096718072891235, -0.016593949869275093, -0.025725694373250008, 0.13559338450431824, 0.5346208214759827, 0.020458916202187538, 0.46401524543762207, -0.27181366086006165, -0.13295023143291473,
-0.7544698119163513, 0.14305707812309265, 0.27567046880722046, 0.16064636409282684, -0.3420473039150238, -0.15396934747695923, -0.4421042799949646, -0.09409856051206589, -0.1818392127752304, 0.1097303256392479, 0.05255722627043724, -0.40306639671325684, 0.35902488231658936, 0.07178833335638046, 0.5377671122550964, 0.4008312225341797, 0.2974504828453064, 0.2332756668329239, 0.027134642004966736, -0.3900817036628723, -0.4061095714569092, 0.6758938431739807, 0.6671736240386963, -0.42714694142341614, -1.0654197931289673, 0.821844220161438, -0.2770657241344452, -0.07954957336187363, -0.24700278043746948, -0.10314339399337769, -0.46362054347991943, -0.4235382080078125,
0.046066511422395706, 0.007381650153547525, -0.347939670085907, 0.5125406384468079, 0.5842176079750061, -0.011789189651608467, 0.36322665214538574, -0.6512255668640137, -0.12756705284118652, 0.10099947452545166, 0.709240198135376, 0.4073951542377472, 0.35994952917099, 0.4930543601512909, 0.09472091495990753, 0.22556209564208984, 0.10483228415250778, -0.20622850954532623, 0.005476747173815966, 0.3508157432079315, 0.14279842376708984, 0.3079083263874054, -0.381270170211792, 0.3410462737083435, 0.09319758415222168, 0.048468708992004395, -0.08528926968574524, -0.10402033478021622, -0.2589681148529053, 0.35571062564849854, 0.2522346079349518, -0.09869848936796188,
-0.09700316190719604, -0.27892670035362244, -0.3894522190093994, -0.2690654397010803, -0.026487497612833977, -0.04369869828224182, 0.017005648463964462, -0.0001401950285071507, -0.24737267196178436, 0.5502235293388367, -0.29437944293022156, 0.18470948934555054, -0.2746714949607849, -0.08172214031219482, 0.006316783372312784, -0.04758419841527939, -0.09198597818613052, -0.21764767169952393, 0.3998989760875702, 0.23937386274337769, -0.11187288910150528, -0.04200214892625809, 0.0278183463960886, 0.09845659136772156, -0.5442686080932617, -0.31393706798553467, -0.07966591417789459, -0.12655319273471832, 0.11564097553491592, -0.19244621694087982, -0.11937212198972702, -0.36056220531463623,
0.6958696842193604, 0.2634409964084625, 0.26273563504219055, -0.025661472231149673, 0.4595562815666199, 0.2358776479959488, 0.40245968103408813, 0.02250613272190094, -0.6984988451004028, -0.04944543540477753, 0.30362147092819214, 0.22720661759376526, 0.6694282293319702, -0.1358443945646286, -0.3490128815174103, -0.148977592587471, -0.12585045397281647, -0.3552645742893219, -0.008902440778911114, 0.09010127931833267, 0.5099411010742188, 0.0026375222951173782, 0.12305581569671631, -0.2046276181936264, -0.3238203227519989, -0.17995741963386536, 0.48893386125564575, -0.5804252028465271, -0.013335739262402058, 0.09351442754268646, -0.19266904890537262, -0.295856773853302,
0.05503864958882332, 0.5568657517433167, -0.37453311681747437, -0.3421759307384491, -0.03716350346803665, 0.05556223914027214, 0.1679392158985138, -0.13095134496688843, 0.10937291383743286, 0.25236377120018005, 0.017453161999583244, -0.11781805008649826, 0.19885241985321045, 0.04376080632209778, -0.04659711942076683, -0.6821934580802917, 0.29639673233032227, -0.35580575466156006, -0.04459363967180252, 0.48642897605895996, 0.8055981397628784, 0.22909776866436005, 0.155727356672287, -0.14096732437610626, 0.03217586129903793, -0.10715276002883911, -0.12335942685604095, 0.07119239121675491, 0.3988172709941864, 0.02071995660662651, 0.5150418877601624, -0.23444144427776337,
0.5780181288719177, -0.2732432782649994, -0.3712889552116394, -0.3616843819618225, 0.3163638114929199, 0.022738872095942497, -0.09698475152254105, 0.16831190884113312, 0.07458701729774475, -0.09038877487182617, -0.537749171257019, 0.024635806679725647, -0.2450425922870636, 0.29689276218414307, -0.4558572769165039, 0.2024136781692505, 0.18567845225334167, -0.30074596405029297, -0.35351550579071045, -0.1718219369649887, -0.1852811574935913, 0.6471771597862244, -0.16329562664031982, -0.018571127206087112, -0.07499350607395172, -0.02264164574444294, -0.6101328730583191, -0.020707499235868454, -0.41832849383354187, -0.2646394371986389, 0.1279686540365219, -0.2839455008506775,
-0.2458447813987732, 0.19309140741825104, 0.08547332137823105, -0.3445345461368561, -0.20596683025360107, 0.536347508430481, 0.4104168117046356, -0.5180315971374512, -0.048358116298913956, 0.43752264976501465, 0.41593530774116516, -0.44233158230781555, -0.04933079332113266, 0.2713150084018707, -0.11109635978937149, -0.5275881290435791, -0.0983910858631134, 0.41337814927101135, -0.16291654109954834, 0.07632524520158768, -0.5044707655906677, -0.03776831179857254, -0.28456681966781616, -0.5192465782165527, -0.08704393357038498, -0.395113080739975, 0.40600138902664185, 0.28631460666656494, -0.5969656705856323, -0.2578125, -0.10932031273841858, 0.23603437840938568,
0.04464034363627434, -0.20648251473903656, 0.03998985514044762, -0.06771782785654068, -0.010120183229446411, -0.6326228380203247, -0.3807803690433502, -0.3323858082294464, -0.045362140983343124, -0.2021404206752777, -0.12916864454746246, -0.021401768550276756, 0.21749278903007507, 0.38321390748023987, 0.11427284777164459, 0.35892871022224426, -0.4899826645851135, -0.5592498183250427, 0.19113747775554657, -0.007273489143699408, -0.055785179138183594, -0.020742429420351982, -0.2065381556749344, -0.4429227113723755, 0.1209024041891098, 0.18957588076591492, 0.5197947025299072, -0.1688661128282547, 0.05085507780313492, 0.38255131244659424, -0.12035685032606125, -0.39269858598709106,
0.17591187357902527, -0.1650397777557373, -0.08105165511369705, -0.11507779359817505, -0.09784334897994995, 0.06885430216789246, -0.26924818754196167, 0.146022766828537, -0.4147516191005707, -0.0718628466129303, -0.140821635723114, -0.3724689483642578, -0.05449308082461357, 0.06379485130310059, 0.6877676248550415, -0.34814560413360596, 0.3140166401863098, -0.5320248603820801, 0.04166929051280022, -0.034191057085990906, 0.23514091968536377, 0.41587895154953003, 0.10204209387302399, 0.0742221400141716, -0.14087113738059998, -0.425181120634079, 0.15702596306800842, 0.15913300216197968, -0.1565908044576645, 0.03909476473927498, -0.3244573473930359, 0.7241863012313843,
0.21273493766784668, -0.09393814951181412, 0.28089848160743713, 0.09260198473930359, 0.19517585635185242, 0.31370770931243896, -0.5268277525901794, -0.084462471306324, -0.6193071007728577, -0.30048954486846924, 0.0920616090297699, -0.3472178876399994, 0.08630874752998352, -0.005965219810605049, 0.054811351001262665, 0.38506245613098145, -0.02245626226067543, 0.15886187553405762, 0.058516260236501694, 0.25921890139579773, -0.2101368010044098, -0.13051429390907288, -0.1675150990486145, 0.17026986181735992, 0.5666480660438538, 0.34365224838256836, -0.2957017421722412, 0.428311288356781, -0.11892063915729523, 0.29356786608695984, 0.15391243994235992, -0.05760766565799713,
0.16454385221004486, -0.025264721363782883, 0.018685633316636086, 0.025073187425732613, -0.5036835670471191, 0.3253198564052582, 0.1394319385290146, -0.27291277050971985, 0.4682164490222931, -0.44097980856895447, -0.5381467342376709, 0.12403354793787003, -0.02552878111600876, 0.22720745205879211, 0.09058205783367157, -0.050873901695013046, 0.11358777433633804, 0.25906357169151306, -0.21603107452392578, -0.03301597759127617, -0.20915624499320984, -0.22583620250225067, 0.24582439661026, 0.4736202657222748, -0.31114616990089417, -0.04430275410413742, 0.44387468695640564, 0.40623924136161804, -0.3954334557056427, 0.22833935916423798, 0.15433211624622345, -0.222296342253685,
-0.3846853971481323, 0.022899596020579338, 0.1154530942440033, -0.29835081100463867, 0.34311026334762573, 0.17557433247566223, 0.1244518905878067, 0.1545533835887909, -0.1327253133058548, 0.07409671694040298, -0.06039949133992195, -0.3304916322231293, 0.1784605234861374, 0.8270469307899475, -0.3392394483089447, -0.05348268523812294, -0.1699874848127365, -0.06694217026233673, 0.5492352843284607, -0.30228015780448914, 0.004713452886790037, -0.39574530720710754, -0.4141814410686493, 0.3723028600215912, 0.048838693648576736, 0.35521674156188965, 0.40881913900375366, -0.13547074794769287, -0.051193829625844955, 0.034605011343955994, 0.4619445502758026, 0.2804962694644928,
-0.27734673023223877, 0.18385618925094604, 0.016466863453388214, 0.2022904008626938, 0.09374867379665375, -0.3186173737049103, -0.19908760488033295, 0.06730696558952332, 0.3535773754119873, 0.16252166032791138, 0.10570922493934631, -0.20960284769535065, 0.34787172079086304, -0.22350816428661346, -0.3810696601867676, -0.1024438664317131, -0.1213308796286583, 0.17027470469474792, 0.02356807328760624, 0.17686253786087036, 0.3799196183681488, 0.2747645676136017, -0.36453381180763245, 0.4850691556930542, -0.11919699609279633, -0.1448022574186325, 0.5401612520217896, 0.21330338716506958, -0.4514632225036621, -0.15616358816623688, 0.12426825612783432, -0.33808639645576477,
-0.397688090801239, -0.33879417181015015, 0.07449716329574585, -0.32228705286979675, 0.13457101583480835, -0.5088127851486206, 0.12402384728193283, 0.12177842110395432, -0.24870756268501282, -0.2050093710422516, 0.07631697505712509, -0.2768171727657318, 0.21577130258083344, -0.08863429725170135, -0.20378190279006958, -0.3656269311904907, 0.5613011717796326, 0.13264299929141998, 0.16480278968811035, -0.0782797783613205, -0.4741595387458801, -0.20122061669826508, 0.44109901785850525, -0.3651827871799469, -0.08193665742874146, -0.5481811165809631, -0.14061526954174042, -0.24990132451057434, -0.07064208388328552, -0.26130595803260803, 0.4737832546234131, 0.1366674304008484,
-0.4912073314189911, 0.3066316843032837, -0.042787883430719376, -0.5087404251098633, 0.3094746768474579, 0.3710288405418396, -0.5989789962768555, 0.04322248324751854, 0.29625415802001953, -0.5559099316596985, 0.26493239402770996, 0.9280434846878052, 0.5865483283996582, 0.025274595245718956, 0.07426507771015167, 0.2906482517719269, -0.7523017525672913, 0.2455894500017166, 0.19120867550373077, 0.5249776244163513, -0.44253405928611755, 0.09834026545286179, -0.0015981593169271946, 0.3202150762081146, 0.1568719893693924, -0.2406180202960968, -0.3961057662963867, -0.2751125991344452, -0.374988317489624, -0.09039623290300369, -0.3641872704029083, 0.21515515446662903,
-0.2334514558315277, -0.09936382621526718, 0.21933092176914215, 0.09302568435668945, -0.12772846221923828, 0.033554498106241226, 0.262859970331192, -0.20657972991466522, -0.29452577233314514, 0.1958184689283371, -0.5077691078186035, 0.2539937496185303, -0.09753647446632385, 0.010724117048084736, 0.11673016846179962, 0.0873824954032898, -0.1880822777748108, -0.08066967129707336, -0.028270408511161804, 0.12687410414218903, 0.07722396403551102, 0.7549207210540771, 0.516410231590271, 0.14464357495307922, 0.701480507850647, 0.09797027707099915, 0.4604504108428955, -0.06063959002494812, 0.31055957078933716, -0.08847102522850037, 0.27087482810020447, -0.6079574823379517,
-0.5330289006233215, 0.14681090414524078, -0.4009174406528473, -0.24126870930194855, -0.18864305317401886, -0.09251181036233902, 0.12896840274333954, -0.19769632816314697, -0.3152470886707306, 0.2701752781867981, -0.4918999671936035, 0.16081714630126953, 0.19152826070785522, -0.24908050894737244, -0.16194875538349152, 0.18683071434497833, 0.49316468834877014, -0.04578015208244324, -0.10018808394670486, -0.16033311188220978, 0.13645252585411072, 0.03549881651997566, -0.22749729454517365, -0.42417073249816895, 0.0015754906926304102, -0.02092752419412136, -0.0013484201626852155, 0.04062596336007118, -0.07948530465364456, 0.6204093098640442, -0.004423428792506456, -0.170627623796463,
0.4248158037662506, 0.262760728597641, 0.7701971530914307, 0.4286857843399048, 0.13346940279006958, -0.3682313561439514, 0.4883071780204773, 0.4787854552268982, -0.08240863680839539, 0.14333505928516388, -0.37470248341560364, -0.11750738322734833, 0.28187572956085205, 0.38829001784324646, -0.21813230216503143, -0.3854232430458069, -0.029777664691209793, 0.440216600894928, -0.1066468358039856, 0.3606795072555542, -0.12094119191169739, 0.08369551599025726, 0.23929086327552795, -0.19319826364517212, 0.2152816653251648, 0.2057737112045288, 0.15702582895755768, 0.3537253737449646, 0.1366712749004364, 0.5242939591407776, 0.24919067323207855, 0.19423937797546387,
0.3235689103603363, -0.6318389177322388, -0.5018278360366821, -0.16333943605422974, 0.5350378751754761, -0.14754781126976013, 0.04334568232297897, 0.37502214312553406, -0.09707866609096527, 0.5840530395507812, 0.2731020748615265, -0.1862843632698059, -0.06462890654802322, -0.19658392667770386, 0.2517135441303253, 0.08981310576200485, 0.40936020016670227, 0.19972825050354004, -0.049377020448446274, 0.274852991104126, -0.054505906999111176, -0.5669816732406616, 0.5871050953865051, 0.8399412035942078, 0.11121060699224472, 0.8742052316665649, 0.5353389978408813, -0.22712185978889465, -0.8383854031562805, 0.04448472708463669, 0.3112074136734009, 0.2824576497077942,
-0.0457766056060791, -0.14450910687446594, 0.6424462795257568, 0.12375140935182571, 0.5120661854743958, 0.06959950178861618, -0.39965349435806274, -0.21506962180137634, -0.0188599843531847, 0.06417509913444519, 0.06774777919054031, 0.44061562418937683, 0.39530861377716064, -0.727540135383606, -0.08088403195142746, -0.4757539927959442, 0.0893249437212944, -0.46761178970336914, 0.18076956272125244, -0.36925044655799866, 0.3342755436897278, -0.17499886453151703, -0.6529873609542847, -0.25811856985092163, 0.06043339520692825, 0.23753632605075836, -0.1638953536748886, 0.34217509627342224, -0.5893875956535339, -0.05379639193415642, 0.15544861555099487, -0.36975252628326416,
-0.249125137925148, -0.6300972700119019, 0.30020812153816223, -0.4618753492832184, -0.06262226402759552, -0.10761581361293793, 0.17499209940433502, -0.02056775987148285, -0.16368341445922852, -0.04867346212267876, 0.0644170343875885, -0.04188676178455353, -0.07422914355993271, -0.05220581218600273, -0.2763943374156952, 0.07087697088718414, 0.11321267485618591, -0.5111280083656311, -0.10455074161291122, 0.19628915190696716, -0.08101744204759598, -0.3223709166049957, -0.07272465527057648, 0.9279710054397583, 0.30749377608299255, -0.15367481112480164, 0.025551604107022285, -0.18427419662475586, 0.18128718435764313, 0.284665048122406, -0.2853572368621826, -0.006174796726554632
};

const float biases_fc1[] = {
0.06505672633647919, 0.09183632582426071, 0.04336753115057945, -0.04732271656394005, -0.02102426253259182, 0.10979489982128143, 0.00032415060559287667, 0.0009283430990763009, -0.04886963590979576, -0.04524276778101921, 0.13486738502979279, -0.06016480177640915, 0.14247484505176544, -0.02293827012181282, 0.029626695439219475, -0.015476359985768795, -0.015198087319731712, -0.026939453557133675, -0.0004174662462901324, 0.004671407397836447, 0.019923938438296318, -0.010567057877779007, -0.04216010123491287, 0.043489255011081696, -0.04597868397831917, 0.22236734628677368, -0.08212898671627045, -0.04858553037047386, -0.08470257371664047, -0.04632027819752693, 0.04946452006697655, -0.037946123629808426
};

const float weights_fc2[] = {
-0.33029648661613464, -0.07427036017179489, 0.04617826268076897, 0.05135933682322502, -0.05332610756158829, 0.20367786288261414, 0.4848593771457672, 0.035317160189151764, 0.04894481971859932, -0.17962345480918884, 0.3649462163448334, 0.10367000848054886, -0.2111068218946457, -0.02655952051281929, -0.1486983299255371, -0.027765238657593727, -0.02072089910507202, 0.09678265452384949, -0.009304309263825417, -0.011988857761025429, -0.10524681955575943, -0.043529678136110306, -0.14512740075588226, 0.04284469410777092, -0.06344878673553467, -0.02595551870763302, 0.012308632023632526, -0.0012501851888373494, 0.20567777752876282, -0.09955479204654694, -0.15100300312042236, -0.05750031769275665,
0.1315096765756607, 0.13449662923812866, 0.02469082549214363, 0.13890425860881805, 0.156725212931633, -0.13294801115989685, -0.43021711707115173, -0.002029339550063014, -0.005982014816254377, 0.033659428358078, 0.09591493755578995, 0.2435176968574524, -0.14688019454479218, -0.1091887429356575, -0.41030916571617126, -0.35846176743507385, -0.01997608318924904, 0.10323905944824219, -0.12848298251628876, -0.020767828449606895, 0.06657354533672333, 0.29200392961502075, -0.012255811132490635, -0.012164381332695484, 0.03459963575005531, 0.19965718686580658, -0.21033890545368195, -0.10524263978004456, 0.11823448538780212, 0.05861480161547661, -0.0940522849559784, -0.062138136476278305,
-0.13070249557495117, 0.13940224051475525, -0.059632278978824615, -0.14113175868988037, 0.12709879875183105, 0.13426750898361206, -0.045463528484106064, -0.4382224977016449, 0.23053376376628876, -0.008658478036522865, -0.07259673625230789, -0.01641313172876835, 0.15966257452964783, -0.02525617927312851, 0.21396927535533905, 0.21845278143882751, -0.02909466065466404, 0.29648077487945557, 0.05536187067627907, -0.1575114130973816, -0.20533806085586548, -0.052822332829236984, 0.16324162483215332, 0.26687538623809814, 0.037319738417863846, -0.2137669324874878, -0.17028328776359558, 0.02801474556326866, 0.07075973600149155, 0.03991469368338585, 0.15138979256153107, -0.03426934406161308,
0.06755046546459198, -0.14527516067028046, -0.2563919425010681, -0.26934486627578735, 0.04145243763923645, 0.11074370890855789, 0.052777912467718124, 0.07777885347604752, 0.0016514041926711798, 0.14973530173301697, -0.22418422996997833, 0.025548839941620827, 0.14703358709812164, -0.03450300917029381, -0.02558562532067299, -0.37676671147346497, 0.023398540914058685, -0.17907635867595673, 0.3234166204929352, -0.11864177137613297, 0.377859503030777, -0.03322731330990791, 0.2566969096660614, -0.07073210924863815, 0.044941872358322144, 0.08471134305000305, 0.09918513894081116, -0.06327664107084274, 0.03733360767364502, 0.14052706956863403, 0.21316096186637878, 0.22744950652122498
};

const float biases_fc2[] = {
0.005589878186583519, 0.006817479617893696, -0.0016824916237965226, -0.0011869281297549605
};

void nn_forward(const float* input, float* output) {
    const float* fc0_output = input;
    float fc1_output[32];
    nn_linear(weights_fc0, biases_fc0, fc0_output, 19, 32, fc1_output);
    nn_elu(fc1_output, 32);
    float fc2_output[32];
    nn_linear(weights_fc1, biases_fc1, fc1_output, 32, 32, fc2_output);
    nn_elu(fc2_output, 32);
    float* fc3_output = output;
    nn_linear(weights_fc2, biases_fc2, fc2_output, 32, 4, fc3_output);
    nn_elu(fc3_output, 4);
}