#include "neural_network.h"
#include "nn_helpers.h"

const float weights_fc0[] = {
0.30700454115867615, 0.2966108024120331, -0.4170096516609192, -0.6452569365501404, -0.5985950231552124, -0.17250068485736847, 0.3228358030319214, 0.023474542424082756, 0.033256739377975464, -0.037091657519340515, 0.028103088960051537, 0.4847002625465393,
-0.5298570394515991, -0.38518255949020386, 0.49001452326774597, 0.08107676357030869, -0.18573065102100372, 0.21874983608722687, -0.077450692653656, -0.02944917231798172, -0.22494620084762573, 0.8633826375007629, 0.8000394105911255, -0.9373006820678711,
0.765703022480011, 0.3077554702758789, -0.23391155898571014, -0.22353297472000122, 0.2663831412792206, -0.049420032650232315, -0.0192022193223238, 0.44136908650398254, -0.13174889981746674, -0.3693960905075073, -0.835530698299408, 0.2153446078300476,
-0.021550500765442848, 0.4858953654766083, -0.5172486901283264, 0.11625883728265762, -0.20725014805793762, -0.16912414133548737, -0.15351898968219757, 0.19853144884109497, -0.07163047790527344, 0.27163368463516235, -0.9325792789459229, 0.15179535746574402,
-0.03818049654364586, -0.3404785692691803, -0.1915074586868286, 0.4131263792514801, 0.3587976396083832, -0.2713206112384796, -0.18362297117710114, -0.13189779222011566, -0.06840793788433075, -0.06599000096321106, 0.22714149951934814, -0.001895280322059989,
-0.21984313428401947, -0.7149389982223511, -0.10146870464086533, -0.010662809945642948, -0.18140120804309845, 0.02174459956586361, -0.2900771498680115, -0.7113868594169617, -0.1752980798482895, 0.35803255438804626, 0.6876189112663269, 0.00593524519354105,
-1.1712844371795654, -0.6645339727401733, 0.14020416140556335, -0.11262132227420807, 0.050982505083084106, 0.20800165832042694, -0.12589851021766663, -0.21216031908988953, 0.8912851810455322, 0.30492421984672546, 0.2337971180677414, -0.20895962417125702,
0.3119969069957733, 0.23313161730766296, -0.06685445457696915, -0.5460551977157593, 0.8012037873268127, -0.060952041298151016, 0.10888060182332993, 0.12720875442028046, -0.08831366151571274, -0.09884607791900635, -0.18286803364753723, -0.1854410171508789,
0.11254389584064484, 0.5484258532524109, -0.016258830204606056, -0.29439759254455566, -0.3208257555961609, -0.20420703291893005, -0.15693162381649017, 0.08294523507356644, -0.5549549460411072, -0.1064189225435257, -0.24789254367351532, 0.7137631177902222,
0.6350166201591492, 0.29483547806739807, 0.16007624566555023, -0.09856942296028137, 0.23201248049736023, -0.21766477823257446, 0.6641635298728943, 0.047846145927906036, -0.16604889929294586, -0.23391307890415192, 0.08842059224843979, -0.27594804763793945,
-0.6792771816253662, -0.3539261817932129, 0.05593221262097359, 0.13167701661586761, -0.7754368782043457, -0.16702662408351898, 0.011839455924928188, 0.2228076159954071, 0.6034862995147705, 0.03769664838910103, -0.0762188509106636, 0.004279077053070068,
-0.19077862799167633, 0.16969244182109833, 0.05784142017364502, -0.07580907642841339, -0.1370411068201065, 0.1505933701992035, -0.24697813391685486, 0.17044854164123535, -0.545042097568512, 0.057519830763339996, 0.1940344274044037, -0.7019837498664856,
0.3505062460899353, -0.5998523235321045, -0.19693392515182495, 0.14866438508033752, 0.12343019247055054, -0.22886449098587036, -8.789927960606292e-05, 0.14316920936107635, -0.006856751162558794, -2.8488454818725586, -0.20715868473052979, 0.4394586980342865,
0.24486371874809265, -0.018254050984978676, 0.30482304096221924, -0.12662453949451447, -0.037963442504405975, 0.22385121881961823, -0.027939362451434135, 0.5535038113594055, -0.024877339601516724, -0.7725918889045715, 0.02081390842795372, -0.7766663432121277,
-0.41314464807510376, 2.1648764610290527, 0.0977352112531662, -0.4583415687084198, 0.03643370419740677, 0.133557990193367, -0.3347431719303131, -0.04411068186163902, 0.7724460959434509, 0.8367014527320862, 1.3910905122756958, 0.4437747001647949,
-0.2761985659599304, -0.24735109508037567, 0.14660826325416565, 0.07014871388673782, -0.04672807827591896, 0.07721494138240814, 0.06347205489873886, 0.058652956038713455, -0.017847687005996704, 0.6269177794456482, 1.9051504135131836, -0.963299036026001,
0.41459015011787415, -0.236544668674469, 0.5488451719284058, 0.13473674654960632, 0.33681952953338623, -0.3252589702606201, 0.20444031059741974, -0.1482449769973755, 0.608437180519104, 0.34679746627807617, -0.3314485251903534, 0.01472819596529007,
-0.34195053577423096, 0.16786783933639526, -0.4005885124206543, 0.07449435442686081, -0.02447998709976673, 0.28013262152671814, 0.1928081065416336, 0.0074500758200883865, -0.04436887055635452, 0.5398311614990234, -0.28283852338790894, 1.1940467357635498,
0.2833016514778137, -0.3641306161880493, -0.3632013499736786, 0.589550256729126, 0.5653933882713318, -0.04280239716172218, 0.2716895639896393, 0.08584964275360107, -0.12242487818002701, -0.26257258653640747, 0.1856919676065445, 0.3946461081504822,
0.5561357736587524, -0.12570910155773163, 0.49681392312049866, 0.2167193591594696, 0.4083291292190552, 0.0594361238181591, 0.13555507361888885, 0.11467940360307693, -0.08511026948690414, -1.0853053331375122, 0.32345521450042725, -0.916825532913208,
-0.3535625636577606, 0.040180180221796036, -0.38631129264831543, 0.6195194721221924, -0.5188959240913391, 0.14895299077033997, -0.09526398032903671, 0.29260924458503723, 0.08159416168928146, 0.06879851222038269, 0.10386586934328079, 0.25361260771751404,
-0.2681618928909302, 0.35491105914115906, 0.40346530079841614, -0.38120734691619873, -0.47433042526245117, -0.26997610926628113, 0.0819607749581337, 0.1395513415336609, -0.25106027722358704, 0.5172406435012817, -0.182970330119133, -0.9368668794631958,
-0.243092343211174, -0.041169848293066025, 0.07361691445112228, -0.11397115141153336, -0.22730746865272522, -0.38008546829223633, -0.1015588641166687, -0.4711812138557434, -0.5358644723892212, -0.31826815009117126, -0.1907760500907898, 0.16748586297035217,
-0.39144375920295715, 0.5881938338279724, 0.8322309255599976, -0.13635964691638947, -0.4070192873477936, 0.004276207182556391, -0.21492387354373932, 0.26716935634613037, 0.6379661560058594, 0.23116536438465118, -0.2941386103630066, -0.9000927805900574,
-0.14744113385677338, -0.6573778986930847, 0.11539197713136673, 1.0740448236465454, -0.3978360593318939, -0.05724307522177696, 0.012943655252456665, -0.35794439911842346, 0.03046947531402111, 0.1243894174695015, 0.5786978006362915, -0.1856667548418045,
0.4608592391014099, -0.4219262897968292, -0.1412840485572815, 0.08750329166650772, 0.05053294822573662, 0.10655635595321655, 0.021086953580379486, 0.02208647131919861, -0.4115583002567291, -1.6253001689910889, 1.9100035429000854, 0.4226524233818054,
0.0005455745267681777, 0.03011762723326683, 0.0900687426328659, -0.12121079862117767, -0.07682770490646362, -0.009754959493875504, 0.19117486476898193, -0.29117870330810547, -0.9242514967918396, 0.39841726422309875, 1.0384780168533325, 0.20811322331428528,
0.6645943522453308, -0.585625946521759, -0.22635608911514282, 0.07417285442352295, 0.28052231669425964, 0.3640963137149811, 0.481576144695282, -0.2816925346851349, -0.33182477951049805, -0.7172170281410217, 0.5911797881126404, -0.11805155128240585,
-0.10272125899791718, 0.39227065443992615, -0.05535294860601425, -0.21864217519760132, 0.15922436118125916, 0.3772842586040497, -0.246061772108078, 0.41100239753723145, -0.26692479848861694, -0.1195409893989563, 0.05671244114637375, 0.15628749132156372,
0.15735812485218048, 0.5148491859436035, 0.15522418916225433, -0.006497600581496954, 0.006582686677575111, 0.30292758345603943, -0.0022248346358537674, -0.1041203960776329, -0.13698641955852509, -0.41483399271965027, -1.4562984704971313, -0.770237922668457,
0.2439878284931183, -0.5118505358695984, 0.2730737030506134, 0.10600977391004562, 0.020648503676056862, -0.010517195798456669, -0.15833234786987305, 0.10764540731906891, 0.049280621111392975, 3.8910343647003174, -1.1507588624954224, -0.08097397536039352,
-0.6428862810134888, 0.24775773286819458, -0.6238939166069031, -0.5282340049743652, -0.17575927078723907, -0.2744951844215393, -0.1570369005203247, 0.0742388367652893, -0.17633052170276642, 0.7770361304283142, -0.035216718912124634, 0.17034190893173218
};

const float biases_fc0[] = {
-0.21780967712402344, -0.468466192483902, -0.03276389092206955, 0.024564780294895172, -0.07137257605791092, -0.3806988298892975, -0.239079549908638, -0.20865249633789062, 0.16288363933563232, -0.08542834222316742, 0.19559744000434875, -0.37438124418258667, 0.27583345770835876, -0.33970147371292114, -0.20684993267059326, -0.2568437159061432, 0.3311341404914856, 0.09966088086366653, -0.03190157935023308, -0.2743293046951294, -0.20753878355026245, -0.2796453535556793, -0.08361215144395828, -0.025921057909727097, -0.21478034555912018, 0.07369901239871979, -0.2026078999042511, -0.3684003949165344, -0.5128135085105896, -0.20688816905021667, -0.25258761644363403, 0.01746157556772232
};

const float weights_fc1[] = {
0.6207638382911682, 0.7715510129928589, 0.34252244234085083, 0.260187566280365, 0.6167002320289612, 1.004259705543518, 0.18352554738521576, 0.3513663113117218, -0.015018821693956852, 0.9671002626419067, -0.07494134455919266, -0.30086764693260193, -0.13598795235157013, 0.036514125764369965, -0.03663812205195427, -0.517396867275238, 0.2800506353378296, 0.2643723487854004, 0.11375303566455841, 0.17799842357635498, 0.6692675352096558, 0.16268539428710938, 0.11596609652042389, 0.5500950813293457, 0.3836175799369812, 0.010592689737677574, -0.44371116161346436, 0.6598272919654846, 1.3332586288452148, 0.14668501913547516, -0.20657847821712494, 0.6085836887359619,
-0.3639190196990967, -0.2209605723619461, -0.046470534056425095, 0.2849489748477936, 0.0776510089635849, 0.1125950738787651, 0.1980973482131958, 0.2962819039821625, -0.15075494349002838, 0.10371705144643784, -0.3565000593662262, -0.4985363781452179, 0.2459479719400406, -0.029165972024202347, 0.013067362830042839, -0.07406892627477646, -0.004321816843003035, -0.1558244228363037, 0.3614709675312042, -0.08314553648233414, 0.12386839091777802, -0.4272933304309845, -0.19316212832927704, -0.4090701639652252, 0.24662552773952484, -0.11882305890321732, -0.05388117581605911, 0.20850910246372223, -0.009289453737437725, -0.14733704924583435, 0.14798739552497864, 0.13269951939582825,
-0.3065412938594818, -0.3784235417842865, -0.48174652457237244, -0.4807102084159851, -0.3052612841129303, -0.8598158955574036, -0.29201003909111023, -0.05635584145784378, -0.3417735695838928, -0.5902731418609619, -0.017146309837698936, 0.17477375268936157, -0.366779088973999, -0.5399631857872009, -0.06812135875225067, 0.26463451981544495, -0.485366553068161, -0.1743191033601761, -0.21078312397003174, -0.23243220150470734, -0.32891082763671875, 0.1029677465558052, -0.40150922536849976, -0.23141048848628998, -0.4060518741607666, -0.6182032823562622, -0.3331204950809479, -0.5251213908195496, -0.6359520554542542, 0.13509631156921387, -0.8618651032447815, -0.3923966884613037,
0.05662098526954651, 0.499723881483078, -0.008289093151688576, -0.3852636516094208, 0.13771678507328033, -0.06181337684392929, 0.1270122528076172, 0.9759542942047119, 0.06232897937297821, 0.12814590334892273, -0.7170093059539795, -0.18642136454582214, 0.06711950153112411, 0.15693295001983643, 0.13518670201301575, -0.18137238919734955, 0.06379161775112152, 0.2146865278482437, -0.18407654762268066, -0.2789033055305481, -0.47023123502731323, 0.003279797499999404, 0.2039022445678711, 0.03535458445549011, -1.0875325202941895, 0.06223138049244881, 0.14285068213939667, -0.07234001159667969, 0.3339596688747406, 0.19692561030387878, 0.05512286722660065, 0.22698909044265747,
-0.18573930859565735, 0.30071473121643066, -0.36465269327163696, -0.2395382970571518, 0.06664958596229553, -0.19407154619693756, -0.15200743079185486, -0.022586632519960403, -0.30051928758621216, -0.6382872462272644, -0.1032436266541481, 0.04132099449634552, -0.09889243543148041, -0.06032862514257431, -0.49914705753326416, 0.05497146025300026, -0.2048443853855133, -0.4780110716819763, -0.14367122948169708, -0.3014439344406128, -0.05937608331441879, -0.2938791513442993, -0.10733340680599213, -0.21603606641292572, -0.18068188428878784, -0.18781690299510956, -0.3564431667327881, -0.14859482645988464, -0.12654098868370056, -0.8160768151283264, 0.13033880293369293, 0.13894771039485931,
0.40484267473220825, -0.2927171587944031, 0.02879304438829422, 0.16689766943454742, 0.07606957852840424, 0.09220690280199051, 0.23173114657402039, -0.07575368136167526, 0.2377985268831253, -0.10644292831420898, 0.0993817150592804, -0.5083447098731995, 0.3405618369579315, -0.08156751096248627, 0.33000048995018005, 0.22485941648483276, 0.2291857749223709, 0.23787930607795715, 0.29004067182540894, -0.4103054404258728, -0.020573394373059273, -0.5426849722862244, 0.022071797400712967, 0.10967978090047836, -0.12173143774271011, 0.1402854472398758, -0.03794199973344803, 0.44784510135650635, -0.17997272312641144, -0.2941461503505707, 0.16893866658210754, 0.27567532658576965,
-0.32876133918762207, -0.6856563687324524, -0.11088044941425323, -0.6413009166717529, -0.1726975440979004, -0.06616421043872833, -0.21212945878505707, -0.18309324979782104, 0.21482430398464203, 0.2326480746269226, -0.19605615735054016, 0.6408654451370239, -0.15443795919418335, -0.07274097204208374, -0.11470463126897812, 0.5480825304985046, -0.340829461812973, -0.6658592224121094, -0.0980893224477768, 0.3986908495426178, -0.08631452172994614, -0.13366438448429108, -0.1415230929851532, -0.0420328751206398, -0.23515929281711578, -0.007656767498701811, -0.5717534422874451, -0.2894560694694519, -0.010015257634222507, -0.2290835827589035, -1.3552368879318237, -0.4556455910205841,
-0.26842328906059265, 0.14547103643417358, 0.05090756341814995, -0.007969426922500134, 0.02596091851592064, 0.04183419421315193, -0.3102899491786957, 0.03846386447548866, -0.12787002325057983, -0.5756210684776306, -0.2976588308811188, 0.26901230216026306, 0.020552504807710648, 0.12453733384609222, 0.04799218103289604, 0.21979598701000214, -0.9425300359725952, 0.30479633808135986, 0.001935406937263906, -0.39220476150512695, 0.4483167827129364, -0.3417753577232361, -0.21052056550979614, -0.40441077947616577, -0.087627112865448, 0.01761295460164547, -0.08731656521558762, -0.5059688687324524, 0.23083153367042542, -0.2762272357940674, 0.113675557076931, 0.5773435831069946,
0.059503063559532166, -0.6377915143966675, -0.022487491369247437, -0.04490089789032936, -0.17403045296669006, -0.31532254815101624, -0.006216153968125582, 0.40364763140678406, -0.5131803154945374, 0.058249473571777344, 0.36521509289741516, 0.17607039213180542, -0.18344330787658691, 0.05927339941263199, 0.055299267172813416, -0.5058466196060181, -0.0050974576734006405, -0.48936402797698975, -0.2105233371257782, 0.5769948363304138, -0.3177255094051361, 0.0337815098464489, -0.0462174117565155, 0.10500448942184448, -0.39861202239990234, -0.37671995162963867, -0.6102002859115601, -0.2224912792444229, 0.016022026538848877, 0.2099095582962036, 0.06737630069255829, -0.6349027752876282,
0.2976275384426117, 0.382801353931427, -0.09565804153680801, 0.1339535266160965, -0.42044612765312195, 0.27809056639671326, 0.2116876244544983, 0.08845723420381546, 0.19638612866401672, 0.1234942153096199, 0.48802611231803894, 0.09501203894615173, -0.0280742384493351, 0.19234010577201843, -0.04891378805041313, -0.07574865967035294, -0.21453118324279785, 0.10567432641983032, -0.48858150839805603, 0.04036497324705124, -0.26664990186691284, 0.5695386528968811, 0.08234646171331406, 0.29835814237594604, -0.21728329360485077, 0.21650885045528412, 0.3901769816875458, -0.27493470907211304, 0.1115361824631691, 0.047955263406038284, -0.02694140374660492, 0.5595763921737671,
-0.33594805002212524, 0.35734260082244873, 0.007438069675117731, -0.0018423738656565547, 0.48840683698654175, -0.0508720837533474, -0.07707616686820984, 0.0927921012043953, -0.3485840857028961, 0.10580860078334808, -0.42998504638671875, -0.5809455513954163, 0.09790003299713135, 0.006894574034959078, 0.16410058736801147, 0.23789037764072418, 0.36456114053726196, 0.5443094968795776, 0.37011459469795227, 0.621355414390564, -0.45676398277282715, 0.2631779909133911, 0.21960869431495667, -0.00017327080422546715, 0.548841655254364, 0.1014372780919075, 0.11006368696689606, -0.3999188542366028, -0.031923312693834305, 0.2068871706724167, -0.035009678453207016, -0.2625672221183777,
-0.22014962136745453, 0.44378000497817993, 0.06294777989387512, -0.2517755627632141, -0.09235391765832901, -0.1313837319612503, -0.14191699028015137, -0.31778088212013245, -0.40036898851394653, -0.03782949596643448, 0.34121090173721313, 0.34475770592689514, -0.43327754735946655, 0.7428499460220337, -0.01594747230410576, 0.44088199734687805, 0.13646040856838226, -0.31628239154815674, -0.2798011302947998, 0.2565803825855255, -0.042670223861932755, 0.29156434535980225, -0.22889724373817444, 0.13057094812393188, 0.08784222602844238, -0.2451622039079666, -0.27849411964416504, -0.12990425527095795, 0.05733399838209152, -0.02251528576016426, 0.16834425926208496, 0.09863568097352982,
0.06408409029245377, -0.38311171531677246, -0.1966841220855713, 0.15300807356834412, -0.2568507790565491, -0.13383778929710388, -0.0834842100739479, 0.007269083056598902, -0.45804160833358765, -0.07566270232200623, -0.34016746282577515, 0.469725638628006, -1.0753902196884155, 0.09188341349363327, -0.020558729767799377, -0.05179346725344658, -0.2557857632637024, -0.02348185144364834, -0.1941455900669098, -0.10854537039995193, -0.04372776672244072, -0.060105033218860626, -0.3187519907951355, -0.10284733027219772, 0.12847809493541718, -0.4358876645565033, 0.1967267096042633, 0.22163048386573792, 0.02170073613524437, -0.030468758195638657, -0.15543371438980103, -0.060620278120040894,
0.0688457116484642, 0.31350672245025635, -0.17009805142879486, -0.08833281695842743, 0.01511680893599987, 0.08884188532829285, -0.03479083999991417, -0.54609215259552, 0.09421408176422119, -0.4722590446472168, 0.42294931411743164, -0.30832502245903015, 0.04811491444706917, -0.37128472328186035, 0.028068728744983673, 0.2399754673242569, -0.2979581952095032, 0.1111224964261055, -0.3322383463382721, -0.3742559850215912, 0.23892883956432343, 0.2661331295967102, 0.21176311373710632, 0.07520837336778641, 0.8970909118652344, 0.04328246787190437, -0.04706573486328125, -0.1819269359111786, 0.006709521636366844, -0.08328761160373688, 0.14417009055614471, -0.41822782158851624,
0.1167142242193222, -0.5635388493537903, -0.18901920318603516, -0.17054475843906403, 0.033973850309848785, -0.2115674912929535, -0.102788545191288, 0.07217627763748169, -0.284170001745224, -0.1777031570672989, 0.09514733403921127, 0.19931045174598694, 0.07004517316818237, 0.04525868222117424, 0.010869367979466915, -0.2333286553621292, -0.19621090590953827, -0.4863910675048828, 0.00433105044066906, -0.05893949046730995, -0.03567661717534065, 0.15073803067207336, -0.005053509958088398, -0.28720536828041077, 0.07632167637348175, -1.0093389749526978, -0.18353018164634705, -0.08275435119867325, -0.34826231002807617, -0.4862266182899475, 0.07010992616415024, -0.12112343311309814,
-0.004326100926846266, -0.4048663079738617, -0.04516543820500374, -0.0018085521878674626, 0.14473357796669006, 0.02922576479613781, -0.34283992648124695, -0.04734795540571213, 0.02102741226553917, 0.010475670918822289, -0.19685369729995728, 0.07141494750976562, -0.1530456691980362, -0.41501563787460327, -0.0837467685341835, 0.19406567513942719, 0.16281411051750183, 0.1077951192855835, -0.043395884335041046, -0.05739226192235947, -0.2998007535934448, 0.2949311137199402, -0.06865086406469345, 0.056863561272621155, -0.2991846203804016, 0.11058970540761948, 0.03720646724104881, -0.11927946656942368, 0.15854677557945251, -0.2818240821361542, -0.15659907460212708, -0.23090021312236786,
0.018034864217042923, 0.18723353743553162, 0.5520683526992798, 0.10244209319353104, 0.422628253698349, 0.14384174346923828, -0.2546844780445099, 0.4880838692188263, 0.1580195426940918, 0.0526142455637455, -0.24571892619132996, 0.14703674614429474, -0.5979258418083191, 0.3260141909122467, -0.46837738156318665, 0.06915421783924103, -0.09697623550891876, -0.4493635296821594, 0.2770790159702301, 0.679436981678009, 0.19603072106838226, 0.049320608377456665, 0.07960062474012375, 0.4861803948879242, -0.10119251906871796, -0.44019815325737, -0.31362950801849365, -0.14859847724437714, -0.11772482097148895, -0.6768892407417297, -0.44622665643692017, 0.08030988276004791,
0.33535411953926086, 0.2229420244693756, -0.003872065804898739, -0.14188355207443237, -0.25650259852409363, -0.0020180554129183292, -0.22435425221920013, -0.19484610855579376, 0.2812221050262451, -0.21810372173786163, 0.05690516531467438, -0.2506577670574188, -0.17740842700004578, -0.10147490352392197, 0.15623189508914948, -0.025277450680732727, -0.3610265851020813, -0.07332181185483932, -0.607964277267456, -0.6474260687828064, -0.008626860566437244, 0.04094143211841583, 0.3760548532009125, 0.09596861153841019, -0.5245705842971802, -0.13102678954601288, -0.16187520325183868, -0.23279541730880737, 0.22043181955814362, 0.28060615062713623, 0.17549245059490204, -0.14388100802898407,
0.15549975633621216, -0.1444483995437622, -0.028425388038158417, 0.17275221645832062, -0.12066108733415604, 0.08737703412771225, -0.29407718777656555, -0.10438462346792221, -0.24543136358261108, -0.06300783157348633, -0.26371443271636963, -0.45736202597618103, -0.27059629559516907, -0.028731070458889008, -0.46793460845947266, -1.268127202987671, -0.2582114636898041, -0.6194207072257996, -0.31570324301719666, -0.2246519774198532, -0.047366753220558167, -0.006146294996142387, 0.08209666609764099, -0.054758328944444656, 0.21482548117637634, -0.43032628297805786, -0.23600277304649353, 0.0926637127995491, -0.07985569536685944, -0.29616352915763855, -0.3469597101211548, -0.34589579701423645,
-0.30002424120903015, -0.24305449426174164, -0.03446010500192642, -0.023524053394794464, -0.4047297537326813, -0.17919641733169556, -0.06843780726194382, -0.22675983607769012, -0.0775798037648201, -0.10613568872213364, -0.013272702693939209, -0.1428566724061966, 0.1418461799621582, 0.19936516880989075, -0.38399389386177063, -0.20884095132350922, -0.0035140053369104862, 0.5104271173477173, -0.373313307762146, 0.2363501340150833, -0.3381401598453522, 0.21652765572071075, -0.2498069554567337, -0.07553281635046005, -0.061469916254282, 0.08753360062837601, -0.20096702873706818, -0.0438871905207634, -0.2581269443035126, 0.4601735472679138, -0.06363432854413986, -0.3161856532096863,
-0.2231714427471161, 0.41205236315727234, 0.011961071752011776, 0.2997047007083893, -0.14894281327724457, -0.07604270428419113, 0.08562982082366943, 0.23423591256141663, -0.5731894373893738, 0.28690066933631897, 0.12064731121063232, 0.002715236274525523, 0.17837582528591156, 0.11484646797180176, -0.13135027885437012, 0.7680951356887817, -0.48325949907302856, -0.2183973640203476, -0.36342164874076843, 0.17128783464431763, -0.06267521530389786, 0.31443890929222107, 0.09059301018714905, -0.23099607229232788, 0.05565454438328743, 0.04659165069460869, -0.05730895698070526, -0.3433554768562317, 0.12145844846963882, 0.624767005443573, 0.2176315039396286, -0.26784276962280273,
0.5207686424255371, -0.4023951292037964, 0.350876122713089, -0.13109898567199707, -0.007229117676615715, 0.5879254341125488, 0.3688262403011322, 0.2846546471118927, 0.18185798823833466, -0.18195322155952454, -0.010260473936796188, -0.3610047399997711, 0.10746098309755325, 0.1846017837524414, 0.04748933017253876, -0.13996438682079315, 0.12137539684772491, 0.16058649122714996, -0.2566961944103241, -0.255572110414505, -0.4226430356502533, 0.1627928614616394, -0.22283226251602173, 0.045077815651893616, -0.41289272904396057, 0.05174387991428375, 0.18923258781433105, 0.0123659148812294, 0.36944106221199036, -0.22769871354103088, -0.15427808463573456, 0.6935811638832092,
-0.21934811770915985, 0.24401120841503143, 0.2920668125152588, 0.3885175585746765, -0.07699509710073471, 0.2532752454280853, 0.05374331399798393, 0.060062333941459656, -0.08689182996749878, -0.3953232169151306, -0.01404998917132616, 0.11695631593465805, 0.003320262534543872, -0.190721333026886, -0.04738486558198929, 0.2870016396045685, 0.0305807963013649, -0.04960508644580841, 0.05367249622941017, 0.3175768256187439, -0.14353439211845398, 0.5453563928604126, -0.21730200946331024, 0.08673157542943954, 0.07989782094955444, 0.14820638298988342, -0.32079097628593445, 0.012819561176002026, 0.17634683847427368, 0.21495208144187927, 0.18524488806724548, -0.07050695270299911,
-0.12739239633083344, 0.1410750448703766, -0.5516197085380554, -0.06056749075651169, 0.04105421528220177, -0.18029069900512695, -0.007758439052850008, -0.11802655458450317, -0.5851913094520569, -0.4536534547805786, -0.1249365583062172, 0.17961378395557404, -0.7939584851264954, -0.14306659996509552, -0.18886613845825195, -0.11782944202423096, -0.23234237730503082, -0.16023780405521393, -0.05554927885532379, -0.5822534561157227, -0.2344343215227127, 0.3969411551952362, -0.223995640873909, -0.1186240091919899, 0.057749222964048386, -0.9417790770530701, 0.1311493068933487, 0.22024953365325928, -0.18396873772144318, -0.22180840373039246, -0.05070823058485985, 0.026068687438964844,
-0.008673240430653095, -0.6350333094596863, -1.189263939857483, -1.240296483039856, -0.10792326927185059, -0.0015682779485359788, -1.2668439149856567, 0.2052539587020874, -0.09730812162160873, 0.12555070221424103, -0.527940034866333, 0.8819876313209534, -1.3909707069396973, 0.19415101408958435, -1.3084319829940796, -0.6359178423881531, -1.3088815212249756, -0.2055705338716507, -0.09226639568805695, 0.8926550149917603, 0.39796099066734314, 0.34868544340133667, -0.46124890446662903, -0.6564565896987915, 0.059795279055833817, -0.9536068439483643, 0.13347110152244568, -0.6585546135902405, 0.1604694128036499, -1.2514251470565796, -2.0669100284576416, -0.5042145848274231,
0.127323716878891, -0.05404052883386612, -0.12583346664905548, -0.3881448805332184, -0.16991040110588074, -0.3251430094242096, -0.023683372884988785, 0.09887402504682541, -0.0710483118891716, -0.43991366028785706, -0.21144413948059082, 0.3769089877605438, -0.7150418162345886, 0.10999919474124908, -0.27503451704978943, -0.340496689081192, -0.1981695294380188, -0.8666022419929504, -0.25398877263069153, -0.12853305041790009, 0.04769835248589516, -0.37231045961380005, -0.15508565306663513, -0.020693426951766014, -0.03584708273410797, -0.3591788709163666, -0.5038192868232727, 0.05611059442162514, -0.7170434594154358, -0.4029879570007324, -1.3118999004364014, -0.5185282826423645,
0.0661715492606163, 0.18151333928108215, -0.3139761984348297, -0.3563585579395294, 0.06948002427816391, 0.26664814352989197, 0.19226156175136566, -0.14600910246372223, -0.37875083088874817, 0.038524944335222244, 0.12024460732936859, 0.22356432676315308, -0.4248342514038086, -0.09984114021062851, -0.3035443127155304, -0.020610833540558815, -0.11732464283704758, -0.029038459062576294, 0.008870572783052921, -0.027535228058695793, 0.45939749479293823, -0.5964024662971497, -0.22948025166988373, -0.4146815538406372, 0.4190143346786499, -0.1168680489063263, -0.534458577632904, -0.06505922228097916, -0.14424194395542145, -0.6730398535728455, -0.4515698254108429, -0.06509165465831757,
-0.22136685252189636, -0.8046562075614929, -0.04418875649571419, -0.07595062255859375, -0.2606198191642761, -0.514324963092804, -0.5898387432098389, -0.1182594820857048, -0.09516098350286484, -0.4697425067424774, -0.19537483155727386, 0.35207653045654297, -0.4548650085926056, -0.15608766674995422, -0.1128140538930893, -1.0404337644577026, -0.34730949997901917, -0.7420299053192139, -0.24557767808437347, 0.28868111968040466, -0.1058582067489624, -0.03189367055892944, 0.28626424074172974, -0.09345342963933945, -0.2511579096317291, -0.4913652539253235, -0.11462857574224472, -0.3897288143634796, -0.11417049914598465, 0.12407362461090088, -0.4320608377456665, -0.5838399529457092,
0.00983259454369545, 0.23848193883895874, 0.3097740411758423, 0.330743670463562, 0.16649660468101501, -0.4299688935279846, -0.062143921852111816, 0.1391122043132782, -0.12597107887268066, -0.13445639610290527, 0.024280335754156113, -0.1034550666809082, -0.5927681922912598, -0.38078269362449646, -0.07727834582328796, -0.2025737315416336, -0.30248889327049255, -0.20975862443447113, -0.12888170778751373, -0.5439496636390686, -0.032452575862407684, 0.4226478040218353, 0.02559298649430275, -0.03613359481096268, -0.11550416797399521, -0.7780040502548218, 0.007023372687399387, -0.4720163941383362, 0.06907100230455399, 0.045900795608758926, 0.02668020874261856, -0.2553847134113312,
0.0972302034497261, -0.2790084481239319, -0.045682165771722794, -0.17840272188186646, -0.17355594038963318, 0.20214635133743286, -0.08955610543489456, 0.24158208072185516, -0.25485554337501526, -0.21925319731235504, -0.19704851508140564, -0.10529624670743942, 0.04521988332271576, -0.06182083114981651, 0.010428987443447113, -0.3440963625907898, -0.33947595953941345, -0.48776882886886597, -0.1383819282054901, -0.4489290714263916, -0.31693851947784424, -0.3319094479084015, 0.19895343482494354, -0.738130509853363, -0.03784653916954994, -0.024095747619867325, 0.03212738037109375, -0.3572642207145691, 0.028336631134152412, -0.34574630856513977, -0.27210354804992676, -0.011171987280249596,
-0.2163088172674179, 0.12181117385625839, -0.22170966863632202, -0.3119690418243408, -0.2881723642349243, -0.6441609859466553, -0.6009458303451538, 0.026347381994128227, -0.10511527955532074, -0.16504144668579102, -0.27991214394569397, 0.1897646188735962, -0.25556033849716187, 0.004973152652382851, -0.39153626561164856, 0.2501395344734192, -0.5768165588378906, -0.8676496744155884, 0.0781765803694725, 0.12543600797653198, -0.3465787172317505, 0.012851491570472717, -0.4527966380119324, -0.5735158920288086, -0.2085486203432083, -0.17340770363807678, 0.22571943700313568, -0.18281877040863037, -0.44672802090644836, -0.7352626919746399, -0.5340626239776611, -0.01802196353673935,
0.16079197824001312, 0.3215678632259369, -0.2413835972547531, -0.3443011939525604, -0.3807924687862396, 0.08760940283536911, 0.2118862271308899, 0.01856648176908493, -0.24874356389045715, -0.29119953513145447, -0.26080256700515747, 0.16479559242725372, -0.1791558712720871, 0.19395411014556885, 0.18452440202236176, -0.06576434522867203, -0.17280349135398865, -0.04033089056611061, -0.13864529132843018, 0.4753267765045166, 0.2024661898612976, -0.3617579936981201, -0.3907115161418915, 0.1573234647512436, -0.01714799553155899, -0.0018316359492018819, -0.41007593274116516, 0.5227765440940857, 0.1563633531332016, 0.3464955687522888, 0.2736175060272217, 0.09348831325769424
};

const float biases_fc1[] = {
-1.508657455444336, -0.10727626830339432, -0.5994032025337219, -0.24266406893730164, -0.4691302180290222, 0.03865261375904083, -0.17711444199085236, -0.12473595142364502, -0.12563076615333557, -0.2272329330444336, -0.05860557034611702, -0.22163768112659454, -0.007469325326383114, -0.4387071132659912, -0.22918415069580078, 0.04448255896568298, -0.17482183873653412, -0.14586210250854492, -0.17190957069396973, -0.021670620888471603, 0.0029335811268538237, -0.22006748616695404, 0.06205759570002556, -0.3677257001399994, -0.4148324429988861, -0.36911383271217346, -0.051592838019132614, -0.20640750229358673, -0.08512432128190994, -0.1161767989397049, -0.3502386808395386, -0.005197044927626848
};

const float weights_fc2[] = {
-0.042771779000759125, 0.20564739406108856, -0.12884654104709625, -0.015788568183779716, 0.04983154684305191, -0.00541157741099596, -0.06410174816846848, 0.22025421261787415, -0.09678323566913605, -0.3976767659187317, 0.12984699010849, -0.08084321767091751, 0.002824991475790739, -0.00951964408159256, -0.035374559462070465, -0.057899292558431625, -0.046830229461193085, -0.1928858608007431, -0.008302070200443268, 0.004419243428856134, -0.0060143363662064075, -0.126156747341156, -0.056100957095623016, -0.2159467339515686, -0.13000626862049103, 0.062348198145627975, 0.04085482656955719, 0.11961008608341217, -0.13602565228939056, 0.13422414660453796, 0.08988133817911148, 0.04714387655258179,
-0.10172078013420105, 0.024768821895122528, -0.040839582681655884, -0.3962899446487427, 0.03551863133907318, 0.1334611475467682, 0.11994174867868423, -0.04861840233206749, -0.2638920247554779, -0.03573395311832428, 0.022539759054780006, -0.07999395579099655, 0.007032459136098623, 0.24398992955684662, 0.00122830702457577, 0.0489884652197361, 0.03706967085599899, 0.10352373123168945, -0.11908736079931259, -0.08915086835622787, -0.018026862293481827, -0.13038426637649536, -0.043580312281847, 0.17212644219398499, 0.006744791753590107, -0.03860049694776535, 0.13018614053726196, -0.18265710771083832, 0.08300498127937317, 0.02523810975253582, 0.018521834164857864, -0.07744360715150833,
-0.11850551515817642, -0.1398615688085556, -0.01270394679158926, 0.016275638714432716, 0.04589961841702461, 0.130104199051857, -0.11514216661453247, 0.045101866126060486, -0.00893692672252655, -0.017691880464553833, -0.35769563913345337, 0.012490191496908665, 0.04649519547820091, 0.17539264261722565, -0.010307532735168934, -0.05858949199318886, -0.12652814388275146, 0.1954697221517563, 0.05624395236372948, 0.02279246598482132, 0.011317417956888676, 0.16894856095314026, -0.047282349318265915, 0.09504030644893646, -0.025679899379611015, 0.03001212142407894, 0.029514441266655922, 0.06787323951721191, 0.11149615049362183, 0.015990333631634712, -0.172946959733963, 0.07088768482208252,
-0.20513173937797546, 0.1553979218006134, -0.007620394229888916, 0.12015492469072342, -0.08195511251688004, 0.12257811427116394, 0.09063592553138733, 0.013091563247144222, 0.0862170159816742, -0.10189826786518097, -0.05245368182659149, -0.1836964637041092, -0.023608766496181488, -0.38726356625556946, -0.051689598709344864, 0.046395715326070786, 0.05551590025424957, 0.04711485281586647, -0.0033748266287148, -0.07092510163784027, -0.05220868065953255, 0.16365879774093628, -0.0410735085606575, -0.03632328286767006, 0.03622880205512047, -0.021097522228956223, -0.08352775871753693, 0.13860568404197693, 0.07988381385803223, 0.12628114223480225, -0.1311163604259491, -0.09711163491010666
};

const float biases_fc2[] = {
0.30320706963539124, 0.16726136207580566, 0.28811079263687134, 0.15129029750823975
};

void nn_forward(const float* input, float* output) {
    const float* fc0_output = input;
    float fc1_output[32];
    nn_linear(weights_fc0, biases_fc0, fc0_output, 12, 32, fc1_output);
    nn_elu(fc1_output, 32);
    float fc2_output[32];
    nn_linear(weights_fc1, biases_fc1, fc1_output, 32, 32, fc2_output);
    nn_elu(fc2_output, 32);
    float* fc3_output = output;
    nn_linear(weights_fc2, biases_fc2, fc2_output, 32, 4, fc3_output);
    nn_elu(fc3_output, 4);
}