#include "neural_network.h"
#include "nn_helpers.h"

const float weights_fc0[] = {
-0.3646153211593628, 0.03369055688381195, 0.41083472967147827, -0.25201165676116943, 0.1793230175971985, -0.2358139306306839, -0.3566403090953827, 0.32204920053482056, 0.11919507384300232, 0.6066282391548157, -0.279110312461853, -0.10505948960781097, 0.1093352809548378, -0.08867979049682617, 0.045419272035360336, -0.1483384519815445, -0.00717528909444809, 0.225236177444458, -0.10206235200166702,
-0.24799802899360657, -0.09481275081634521, 0.07327800244092941, -0.047791738063097, -0.07982383668422699, -0.24450770020484924, -0.47527506947517395, -0.9196943640708923, -0.2914586067199707, 0.6037734746932983, 0.003927292767912149, 0.3455582857131958, -0.42808279395103455, 0.5632631182670593, -0.04179820418357849, -0.3276478052139282, 0.5552576780319214, 0.2604054808616638, 0.659253716468811,
0.2801438570022583, -0.009578819386661053, -0.793095588684082, 0.05232377350330353, 0.0452234111726284, -0.4261516034603119, 0.19029206037521362, -0.1371714323759079, -0.49355459213256836, -0.018533479422330856, 0.48733747005462646, 0.2438167929649353, 0.23552387952804565, 0.36909183859825134, 0.15610095858573914, -0.19604380428791046, -0.7361352443695068, 0.986913800239563, -0.5423904061317444,
0.3182635009288788, 0.16652080416679382, -0.09940318018198013, -0.09134120494127274, 0.3521222174167633, 0.21414203941822052, 0.16308894753456116, 0.3120841383934021, 0.04184862598776817, -0.13117948174476624, 0.46934160590171814, 0.12188299745321274, 0.5200884342193604, -0.18458615243434906, -0.41045820713043213, 0.5827955603599548, -0.5007966756820679, 0.35684093832969666, -0.11743341386318207,
-0.04248521104454994, 0.29340770840644836, 0.504202663898468, 0.0067806183360517025, 0.005289142485707998, -0.11614598333835602, 0.14233796298503876, 1.2329273223876953, -0.2527867257595062, -0.14905737340450287, -0.13132408261299133, 0.17282697558403015, 0.42565685510635376, -0.006250152364373207, -0.2523973882198334, 0.3987570106983185, 0.08539584279060364, 0.016239311546087265, -0.2091689109802246,
-0.4559366703033447, -0.39493435621261597, -0.08734798431396484, 0.03686746209859848, 0.007785526569932699, 0.0060811154544353485, 0.3521959185600281, 0.06893926113843918, -0.41896718740463257, 1.2177958488464355, 0.2901358902454376, -1.158207654953003, 0.28382158279418945, -0.8198737502098083, 0.07160604745149612, -0.05027023330330849, -0.23193977773189545, 0.5087739825248718, 0.004502559546381235,
-0.3925234079360962, -0.025704115629196167, -0.05043884366750717, 0.10587815940380096, -0.08277032524347305, 0.16086162626743317, -0.14082491397857666, 0.08670163154602051, 0.7426111102104187, 0.08104842156171799, 0.10150068998336792, -0.3425394296646118, -0.263375848531723, 0.30451667308807373, 0.2859772741794586, -0.5547711849212646, 0.30185770988464355, -0.44858789443969727, 0.38165897130966187,
-0.2551940679550171, 0.313150554895401, -0.1336725801229477, 0.021281538531184196, -0.03216693177819252, 0.0828876942396164, -0.4196680188179016, 0.7080012559890747, 0.38829734921455383, 0.06297547370195389, -1.5472208261489868, -0.3139083981513977, 0.05614737048745155, 0.040759552270174026, -0.22360637784004211, -0.2378035932779312, -0.4345554709434509, 0.3711789846420288, 0.29309770464897156,
-0.16304711997509003, -0.038733188062906265, -0.5204833745956421, 0.2107764035463333, -0.2016589343547821, 0.45453783869743347, 0.010130980983376503, -0.10117147862911224, -0.11613300442695618, -0.014851780608296394, -0.11484938114881516, 0.24774201214313507, -0.14058083295822144, -0.26408150792121887, -0.12120343744754791, -0.8922325372695923, -0.36806055903434753, 0.18872912228107452, 0.8610717058181763,
-0.3324063718318939, 0.19754233956336975, -0.22960467636585236, -0.14990486204624176, -0.07503179460763931, -0.0829932764172554, -0.8350615501403809, 0.029339725151658058, 0.2317255139350891, 0.006332157179713249, -0.20327314734458923, -0.06914470344781876, -0.10507329553365707, -0.019686058163642883, 0.08872085064649582, -0.18657910823822021, 0.68506920337677, -0.7508034110069275, 0.14439713954925537,
-0.3391697108745575, 0.3738904297351837, -0.3820691406726837, 0.021778499707579613, -0.04004504531621933, 0.00093478785129264, -0.49772822856903076, 0.6553289294242859, -0.6229616403579712, 0.37218159437179565, -0.8403199315071106, 0.4426773488521576, 0.2518998980522156, 0.731637179851532, 0.01758030243217945, -0.1585557758808136, 0.23969772458076477, 0.06976088881492615, 0.35920682549476624,
-0.09477250277996063, 0.08966202288866043, 0.14838629961013794, 0.021969646215438843, -0.013155238702893257, -0.07740969955921173, -0.1203799620270729, 0.03393290191888809, -1.278320074081421, -0.16549508273601532, -1.0789240598678589, -0.6952240467071533, 0.24443432688713074, 0.16115698218345642, 0.08634085953235626, 0.194250226020813, 0.27468258142471313, -0.08459071815013885, -0.30577442049980164,
0.15564636886119843, 0.24935702979564667, -0.023751895874738693, -0.19044768810272217, -0.053844962269067764, -0.004819497931748629, 0.4707874655723572, 0.21449844539165497, -1.1297584772109985, -0.688448965549469, 0.06284327805042267, 0.0008561969152651727, 0.18566913902759552, -0.1621496081352234, -0.36325401067733765, -0.46501898765563965, 0.12938997149467468, -0.4400900602340698, -0.05330882966518402,
0.07120928168296814, 0.20134614408016205, -0.5024641752243042, -0.05064433068037033, 0.008121822960674763, 0.12998691201210022, -0.19421720504760742, -0.2703261077404022, -1.1522252559661865, 0.13518793880939484, -0.027524320408701897, 1.110180377960205, -0.06479153782129288, -0.4685398042201996, -0.1022990271449089, 0.5451151728630066, 0.47456619143486023, -0.46062079071998596, -0.42116785049438477,
0.08799963444471359, 0.01690376177430153, 0.25733935832977295, 0.2627032399177551, 0.3723137378692627, -0.23581697046756744, 0.5489987730979919, -0.4377862811088562, 0.49790945649147034, -0.5260841846466064, 0.04933498427271843, 0.12730856239795685, -0.2228180170059204, -0.26932093501091003, -0.06104440987110138, -0.3070312440395355, 0.25496092438697815, 0.15066838264465332, 0.41859471797943115,
0.3829837739467621, 0.2563779950141907, 0.1960710734128952, -0.04422725364565849, 0.09054335206747055, -0.34080544114112854, 0.3036331832408905, 0.46541425585746765, 0.01193001214414835, 0.010796907357871532, -0.41118860244750977, 0.12224791198968887, 0.18752068281173706, -0.10856007784605026, 0.2842104434967041, -0.6573976278305054, 0.3366917073726654, -0.010672391392290592, 0.2106170803308487,
0.4205470383167267, 0.21771706640720367, 0.16685077548027039, -0.007219220977276564, -0.017201807349920273, -0.2028384804725647, 0.9421517252922058, 0.3796922564506531, 0.6733009815216064, -1.1013234853744507, -0.5126267075538635, -0.5385593771934509, 0.4414064288139343, -0.14385810494422913, 0.05384096875786781, -0.09643111377954483, 0.37770259380340576, 0.1634090095758438, 0.13219766318798065,
-0.10624580830335617, -0.22797992825508118, -0.23039650917053223, 0.12641401588916779, -0.126756951212883, 0.30118536949157715, 0.0783078745007515, -0.3994580805301666, -0.7142893671989441, 0.11574951559305191, 0.11401825398206711, 0.22245852649211884, 0.22264216840267181, -0.09589339047670364, -1.029829502105713, -0.2837529182434082, -0.4463646411895752, -0.14141316711902618, 0.8093991875648499,
-0.09297018498182297, -0.16846661269664764, 0.15306846797466278, 0.1269201636314392, 0.05546078458428383, -0.04340723901987076, -0.21088632941246033, -0.09799806773662567, 0.06617192178964615, -0.3192231357097626, 0.28361445665359497, -0.49281081557273865, -0.11219027638435364, -0.5793637633323669, -0.010412376374006271, 0.15302781760692596, -0.3197382688522339, 0.326073557138443, -0.14794860780239105,
0.03789540007710457, 0.2542792558670044, -0.3965007960796356, 0.026715224608778954, 0.05449588596820831, -0.12283267080783844, 0.08932343870401382, 0.5754736065864563, -0.8856112957000732, -0.061283037066459656, 0.054650336503982544, 0.4991799294948578, -0.06609366089105606, 0.07486764341592789, 0.053107697516679764, -0.300615131855011, -0.51923006772995, -0.2243165522813797, 0.03259335085749626,
-0.09184520691633224, -0.0025338269770145416, 0.3732638955116272, 0.10352585464715958, -0.08227236568927765, 0.21000255644321442, -0.5079026222229004, 0.22762607038021088, 0.08675459027290344, 0.21873578429222107, -0.4340696632862091, -0.67230623960495, 0.3342869281768799, 0.1629817634820938, -0.08218719065189362, -0.005361380521208048, 0.23464475572109222, 0.09904783219099045, 0.2478356510400772,
0.11330320686101913, -0.06361521035432816, 0.18477456271648407, -0.01203366182744503, 0.019677257165312767, 0.07707450538873672, 0.10652273893356323, 0.26199105381965637, -0.5719056129455566, -0.38779181241989136, 1.3917005062103271, -0.8451389670372009, -0.03476559370756149, 0.073235422372818, -0.04852426052093506, -0.4955955147743225, 0.38214176893234253, -0.16601407527923584, 0.7864604592323303,
-0.157952219247818, 0.5588338375091553, 0.13652455806732178, 0.010739109478890896, 0.08362849056720734, 0.155624121427536, 0.19608370959758759, -0.09767365455627441, 0.7219263911247253, 0.2716819643974304, -0.3126644492149353, -0.31428954005241394, 0.06348548829555511, 0.0871618390083313, -0.026896454393863678, -0.028852203860878944, -0.32937610149383545, 0.17176683247089386, -0.004047910217195749,
0.16210848093032837, 0.2814454734325409, 0.10763587802648544, 0.1412283480167389, 0.22442905604839325, 0.044892434030771255, 0.4216208755970001, 0.023047808557748795, -0.5459389090538025, -0.2206701636314392, -0.4890783131122589, 0.008590524084866047, -0.13921259343624115, 0.016001254320144653, 0.3296968638896942, 0.11217419058084488, -0.7128394246101379, 1.1903272867202759, 0.4842802882194519,
-0.2961115837097168, -0.07762007415294647, -0.26200568675994873, -0.00540899857878685, 0.04970376193523407, 0.06900039315223694, -0.42374947667121887, 0.39795947074890137, 0.1882270872592926, 1.1451326608657837, -0.663044810295105, -0.4468245506286621, 0.2532920241355896, 0.295701265335083, -0.008493698202073574, 0.19157646596431732, 0.4415110945701599, 0.03001275099813938, -0.3086365759372711,
-0.034106675535440445, 0.15054047107696533, -0.3949430584907532, -0.011114779859781265, -0.08876187354326248, 0.18829339742660522, 0.8478477001190186, 0.3593890368938446, -0.3649998605251312, -1.4501047134399414, -0.32928723096847534, 0.18093980848789215, -0.037255022674798965, -0.05714026838541031, -0.20223619043827057, 0.1717560589313507, 0.335744708776474, 0.1519329845905304, -0.3501138687133789,
0.1561218649148941, 0.3894284963607788, -0.3263868987560272, -0.05873167887330055, -0.15124088525772095, -0.0062386286444962025, -0.13747309148311615, 0.30401375889778137, 0.42521342635154724, 0.4761141240596771, -0.10794524103403091, -0.003943996503949165, 0.6193867325782776, 0.2023780792951584, -0.10828504711389542, -0.4270589053630829, 0.6712311506271362, -0.43533024191856384, 0.09777487069368362,
-0.10574743151664734, 0.06265014410018921, 0.3625756502151489, 0.42672964930534363, 0.3430944085121155, -0.14815637469291687, -0.8069105744361877, 0.01680128276348114, -0.21168990433216095, 0.42053502798080444, -0.07642388343811035, 0.36796286702156067, -0.36612212657928467, 0.23616278171539307, -0.12163666635751724, -0.6039673089981079, -0.33631467819213867, 0.7249919176101685, 0.08216022700071335,
-0.2773054838180542, 0.19013716280460358, 0.41489601135253906, -0.05796555429697037, 0.02078309841454029, -0.010904783383011818, -0.2534762918949127, -0.06742227077484131, 0.6392050385475159, 0.12513644993305206, -0.006522970739752054, -0.3302466571331024, -0.09697117656469345, 0.23757381737232208, 0.3632206916809082, -0.06743466109037399, 0.09412764757871628, 0.5451821684837341, -0.0245945006608963,
-0.12583130598068237, -0.1193055659532547, -0.24018363654613495, -0.0031382369343191385, 0.0006080298335291445, -0.10747133940458298, 0.11374055594205856, 0.06147170066833496, 0.3094388544559479, 0.6640387773513794, -0.38003048300743103, 0.8939878940582275, 0.30603206157684326, 0.01635150983929634, 0.12162709981203079, 0.13705192506313324, 0.25884172320365906, -0.1627718210220337, -0.1607026606798172,
0.037888672202825546, 0.28958481550216675, 0.2435930073261261, 0.07403942197561264, 0.01198792364448309, -0.25077536702156067, -0.2628999352455139, 0.4143703877925873, -0.047056980431079865, 0.10340461879968643, -0.23053333163261414, -0.5098475813865662, -0.20430220663547516, 0.062196996062994, -0.6811041831970215, 0.10891608148813248, -0.3295018970966339, 0.01273156888782978, 0.29715394973754883,
0.2609272003173828, -0.2848180830478668, 0.13047964870929718, -0.056142620742321014, -0.2649455666542053, 0.0728096291422844, 0.060551635921001434, -0.1577196568250656, -0.6119661331176758, -0.1054399311542511, -0.020137842744588852, 0.14104445278644562, 0.07003803551197052, -0.7147843837738037, 0.14113599061965942, -0.759384274482727, 0.2373923361301422, -0.3508387506008148, 0.05173824727535248
};

const float biases_fc0[] = {
-0.02439548633992672, 0.013236906379461288, 0.011504296213388443, 0.008959194645285606, 0.02846662886440754, 0.03472520038485527, -0.021390877664089203, -0.021020779386162758, -0.0032377559691667557, -0.0026861787773668766, 0.05126390978693962, 0.08071500808000565, 0.03803618252277374, 0.05349411070346832, -0.0022771162912249565, -0.01102383341640234, -0.02506846748292446, 0.027566829696297646, -0.0008133890223689377, 0.0008731629350222647, -0.028468165546655655, 0.044749025255441666, -0.02163361757993698, 0.024592729285359383, -0.009552152827382088, 0.005190433468669653, -0.014888355508446693, -0.0038699961733072996, -0.024140262976288795, -0.019166791811585426, -0.015741093084216118, 0.0004742532910313457
};

const float weights_fc1[] = {
-0.19140954315662384, -0.30595940351486206, -0.18420855700969696, 0.08062451332807541, 0.4069225490093231, 0.4611550569534302, -0.5357862114906311, 0.1410406231880188, -0.28004181385040283, 0.05532669275999069, 0.3889956474304199, 0.6528260111808777, 0.4133675992488861, 0.7463144063949585, 0.1647198498249054, 0.0865611806511879, -0.10097207874059677, -0.22399497032165527, -0.4234437346458435, -0.11723972111940384, 0.1280672252178192, -0.3781581521034241, -0.04064484313130379, 0.07365992665290833, 0.33481189608573914, 0.203187495470047, 0.1778498739004135, 0.08584877848625183, 0.12018395215272903, -0.4013374447822571, 0.04620962217450142, -0.27255362272262573,
-0.08456414192914963, -0.13617217540740967, -0.15544898808002472, -0.15980090200901031, -0.25212129950523376, 0.28578880429267883, 0.005649122875183821, -0.2133062332868576, -0.3868834972381592, -0.020812034606933594, -0.14996953308582306, 0.22527089715003967, 0.4525960683822632, -0.054847054183483124, 0.21829667687416077, -0.41288086771965027, -0.3665519654750824, 0.15580931305885315, -0.4069550037384033, -0.2125510722398758, 0.03374917805194855, 0.6566593647003174, -0.04364621266722679, 0.31645554304122925, -0.1776876449584961, 0.4483295977115631, -0.21758925914764404, -0.11364568024873734, 0.3431199789047241, -0.31375735998153687, 0.3209938108921051, 0.0899222195148468,
0.3189507722854614, -0.5331984758377075, -0.20754146575927734, 0.06102651357650757, 0.13576483726501465, -0.07644079625606537, 0.2709601819515228, 0.16594064235687256, 0.14368148148059845, -0.19467458128929138, 0.4909837245941162, 0.06849867105484009, 0.10976039618253708, -0.06061817333102226, -0.1837058961391449, -0.06084932014346123, 0.35048988461494446, 0.4207402467727661, 0.27032822370529175, 0.19682304561138153, 0.6513826251029968, 0.5524646639823914, 0.03322330489754677, -0.261606365442276, 0.12721656262874603, 0.06521932780742645, 0.28877007961273193, 0.3408608138561249, 0.11167403310537338, 0.10165678709745407, -0.24360647797584534, 0.0717485249042511,
0.33057400584220886, 0.5500781536102295, 0.23063445091247559, -0.05945222079753876, 0.2968478202819824, 0.05299672111868858, 0.278484046459198, -0.16145038604736328, 0.5114086866378784, 0.32542651891708374, 9.339578355138656e-06, -0.43895459175109863, -0.08413776010274887, 0.07261516898870468, 0.20897510647773743, -0.10231119394302368, -0.4046351909637451, 0.33512452244758606, -0.23950806260108948, -0.4158342778682709, -0.26430758833885193, 0.12673911452293396, 0.18024475872516632, -0.18485592305660248, 0.4757922887802124, -0.9453968405723572, 0.20315371453762054, 0.11257130652666092, 0.16303910315036774, -0.11084247380495071, -0.6390949487686157, -0.46176108717918396,
-0.18981283903121948, -0.5438003540039062, 0.23635751008987427, 0.7057741284370422, -0.1003192588686943, 0.4288003742694855, -0.4893716871738434, 0.08220932632684708, -0.044212523847818375, -0.3995952904224396, -0.033017467707395554, 0.22640460729599, -0.31333738565444946, 0.4396554231643677, -0.44767338037490845, -0.632451593875885, -0.02241135947406292, 0.29058539867401123, 0.03553640842437744, 0.3529192805290222, -0.07613882422447205, -0.27547016739845276, -0.33271950483322144, 0.1693565845489502, -0.0891808569431305, 0.18215015530586243, -0.23066957294940948, -0.5173469185829163, -0.15901106595993042, 0.23771114647388458, -0.19783984124660492, -0.17696838080883026,
0.33459794521331787, -0.2211613953113556, 0.5446973443031311, -0.014424732886254787, 0.43040862679481506, 0.3965587913990021, -0.2302256077528, 0.24678701162338257, 0.41140371561050415, -0.2282860428094864, -0.027063438668847084, 0.2207242250442505, 0.28963330388069153, -0.36478567123413086, -0.2525877356529236, 0.528693675994873, 0.16312746703624725, 0.09814820438623428, -0.16070915758609772, 0.35560011863708496, -0.11358145624399185, 0.7567952275276184, -0.49494099617004395, -0.02700262889266014, -0.25404101610183716, -0.1623481810092926, 0.5552841424942017, -0.032167766243219376, 0.3370589315891266, 0.016110099852085114, 0.24459584057331085, 0.40678510069847107,
0.2852131426334381, 0.46576663851737976, 0.659294068813324, -0.4002349376678467, -0.6203040480613708, -0.14329448342323303, -0.2139998972415924, 0.41468435525894165, 0.14019706845283508, 0.2124534398317337, 0.4294429123401642, 0.13491307199001312, -0.20325198769569397, 0.07968339323997498, 0.4033271372318268, 0.22491498291492462, 0.3472690284252167, 0.06710001826286316, 0.009283646009862423, 0.14933067560195923, -0.10888070613145828, 0.017139263451099396, -0.4321751594543457, 0.10150056332349777, 0.05142272636294365, 0.0005904396530240774, 0.020428163930773735, -0.238307386636734, -0.14215436577796936, -0.14019691944122314, -0.04125482589006424, -0.3755095303058624,
-0.5599415898323059, 0.13715146481990814, -0.2321562021970749, -0.015134885907173157, 0.1608613282442093, 0.03241307660937309, 0.3596300184726715, -0.23253336548805237, -0.27999287843704224, -0.36448177695274353, -0.4150697886943817, -0.09958464652299881, -0.14947658777236938, -0.5353531837463379, 0.32065099477767944, 0.07507903128862381, 0.2969769537448883, -0.32447460293769836, 0.0076875342056155205, 0.04846542328596115, -0.3905732035636902, 0.19899851083755493, -0.43505436182022095, -0.0011635978007689118, -0.20466192066669464, 0.6653510332107544, -0.0037173153832554817, -0.3294830322265625, -0.2205861508846283, -0.02512914314866066, 0.0036780405789613724, -0.09261403977870941,
-0.10730191320180893, -0.2771706283092499, -0.1959933340549469, -0.17067202925682068, -0.1562214344739914, 0.43406766653060913, 0.198544442653656, 0.8010616898536682, -0.23427295684814453, 0.31907719373703003, 0.35118767619132996, 0.13136914372444153, 0.14812292158603668, -0.25502142310142517, -0.08404607325792313, 0.014650140888988972, -0.31632834672927856, -0.23637717962265015, -0.17330656945705414, 0.08105557411909103, 0.42611247301101685, -0.41887298226356506, -0.12957479059696198, -0.24315816164016724, 0.29521891474723816, -0.3047257959842682, -0.1002340018749237, 0.14434783160686493, -0.11807269603013992, 0.3847438097000122, 0.6070150136947632, -0.35433149337768555,
0.3914860785007477, -0.24327890574932098, -0.2787070572376251, 0.23984959721565247, -0.28397172689437866, 0.2946529686450958, -0.0800987035036087, -0.18953771889209747, 0.22501152753829956, 0.5436424016952515, -0.30566874146461487, -0.06713361293077469, 0.631960928440094, -0.04417106509208679, 0.22440701723098755, -0.17198511958122253, -0.04276205599308014, 0.4241980314254761, -0.015560358762741089, 0.21152937412261963, -0.29894518852233887, 0.549528956413269, -0.15589359402656555, -0.25473496317863464, 0.04896123334765434, 0.019053973257541656, 0.3115011155605316, -0.1708023101091385, 0.15178559720516205, -0.04754018038511276, -0.2005692422389984, -0.2865813374519348,
0.03250964730978012, 0.7272924184799194, -0.2625882029533386, 0.09049704670906067, 0.43554964661598206, -0.006968295201659203, -0.4025929272174835, -0.09648197144269943, -0.3201961815357208, 0.004954810254275799, 0.5642690062522888, 0.7960165739059448, -0.376352995634079, 0.09165159612894058, -0.3138297200202942, -0.23344384133815765, -0.4537482261657715, -0.09882368892431259, 0.17831167578697205, -0.5477997064590454, -0.15909814834594727, 0.1964813619852066, 0.016934480518102646, 0.18701718747615814, -0.08125260472297668, -0.08820974826812744, 0.198735311627388, 0.38678082823753357, 0.4128054678440094, 0.6044601798057556, 0.013117761351168156, -0.09461071342229843,
-0.466035932302475, 0.0016209809109568596, -0.09198000282049179, -0.12261612713336945, -0.26889312267303467, 0.016031358391046524, -0.19156023859977722, 0.01333016250282526, -0.001848341547884047, -0.2423533797264099, -0.47531628608703613, -0.44889140129089355, 0.16132941842079163, 0.16725945472717285, 0.17830607295036316, 0.3382701277732849, 0.26508620381355286, 0.036016374826431274, 0.025986259803175926, -0.27368903160095215, -0.5137031674385071, 0.18586087226867676, 0.6891419887542725, 0.12731565535068512, -1.0818604230880737, 0.866051197052002, -0.3783225119113922, -0.11548472195863724, -0.3802269697189331, 0.2347869724035263, -0.28116974234580994, -0.2995540201663971,
-0.12059982866048813, 0.060335952788591385, -0.5052037835121155, 0.608066976070404, 0.6544101238250732, -0.5459775924682617, 0.36752256751060486, -0.43649595975875854, -0.07404422760009766, 0.24722710251808167, 0.816575288772583, 0.046266160905361176, 0.2526252865791321, 0.4335238039493561, 0.4385204315185547, 0.4318096935749054, 0.35525351762771606, 0.14249885082244873, -0.1413821280002594, 0.13091841340065002, 0.026744404807686806, 0.44281139969825745, -0.17032621800899506, 0.43453142046928406, -0.09023880958557129, -0.016635466367006302, 0.0978536382317543, -0.07543142884969711, -0.575761616230011, 0.2892438471317291, 0.5043337345123291, 0.11721822619438171,
-0.21475571393966675, -0.3273583948612213, -0.051184654235839844, -0.06982965767383575, -0.033811282366514206, 0.06503862142562866, 0.09398806840181351, -0.1296183168888092, -0.39391809701919556, 0.5262696146965027, -0.4431852698326111, 0.2164381891489029, -0.04218263924121857, -0.1430327445268631, -0.06953833997249603, 0.15298102796077728, -0.04248036816716194, -0.13645468652248383, 0.2441248893737793, 0.35280969738960266, -0.013249464333057404, -0.016288885846734047, 0.08980152010917664, 0.2160758525133133, -0.2531927824020386, -0.11700844019651413, -0.08550829440355301, 0.12524595856666565, 0.22129791975021362, -0.14313645660877228, -0.16382211446762085, -0.29590341448783875,
0.6455777287483215, 0.1996433287858963, 0.34648483991622925, 0.11762470752000809, 0.4027096629142761, 0.2821963131427765, 0.2930811047554016, 0.025502974167466164, -0.604873538017273, -0.22021962702274323, -0.02637941762804985, 0.05270213633775711, 0.523953378200531, -0.06503783911466599, -0.3058173358440399, -0.08615170419216156, -0.08954516798257828, -0.12676462531089783, -0.09750964492559433, 0.18276812136173248, -0.04309884458780289, -0.047233134508132935, 0.24260252714157104, -0.12684284150600433, -0.2418919801712036, -0.11007886379957199, 0.25997206568717957, -0.5298593640327454, 0.10461393743753433, 0.009153392165899277, -0.23505382239818573, -0.39173391461372375,
-0.08646655082702637, 0.34402209520339966, -0.1697988212108612, -0.26273077726364136, -0.08915381133556366, -0.09082749485969543, -0.10737209767103195, -0.17895258963108063, 0.1775239109992981, 0.10198754072189331, -0.07760190218687057, -0.3235568702220917, 0.2511524558067322, -0.2636791169643402, -0.020127562806010246, -0.23078207671642303, 0.3661903440952301, -0.4607265889644623, -0.10468462854623795, 0.10080234706401825, 0.6286629438400269, -0.027468135580420494, 0.5163143873214722, -0.06182508543133736, 0.2181270718574524, -0.0703684538602829, -0.17152909934520721, -0.03636503592133522, 0.18852247297763824, -0.1852828860282898, 0.28070810437202454, -0.3418973684310913,
0.4860861599445343, -0.2048017978668213, -0.05621426925063133, -0.3034633994102478, 0.3943011462688446, 0.34011244773864746, -0.021123144775629044, 0.23977278172969818, 0.24194012582302094, -0.03609317168593407, -0.4036414921283722, 0.5291708111763, 0.010502654127776623, 0.5440855622291565, -0.37821492552757263, 0.28087499737739563, 0.24072648584842682, -0.17330139875411987, -0.526989221572876, 0.05850750580430031, -0.1588481366634369, 0.7280327677726746, -0.17081214487552643, -0.1972588449716568, 0.17280614376068115, 0.11321673542261124, -0.38302376866340637, -0.0618111826479435, -0.3535931706428528, -0.006172754801809788, -0.24912410974502563, -0.20210734009742737,
-0.29685723781585693, 0.4643810987472534, -0.035488829016685486, -0.4783046543598175, -0.25665855407714844, 0.21327584981918335, 0.24778829514980316, -0.33920782804489136, -0.17358243465423584, 0.7074680924415588, 0.6001753211021423, 0.08751153200864792, -0.06015031039714813, 0.3905082941055298, -0.2396213859319687, -0.4808978736400604, -0.2500414550304413, 0.04556530714035034, -0.33167344331741333, 0.20561963319778442, -0.33902743458747864, 0.1950518786907196, -0.5917094945907593, -0.7153084874153137, 0.2788407802581787, -0.11449368298053741, 0.2379552721977234, 0.1848495602607727, -0.5542453527450562, -0.18835760653018951, -0.1850334256887436, 0.002069741953164339,
-0.08909890800714493, -0.09537042677402496, -0.03240327164530754, 0.010015599429607391, 0.01422102376818657, -0.5978231430053711, -0.49092674255371094, -0.19456298649311066, -0.20126646757125854, 0.007182755041867495, -0.15121455490589142, 0.16319353878498077, 0.1756991297006607, 0.6575984954833984, 0.015734082087874413, 0.28073084354400635, -0.358715683221817, -0.6022788882255554, 0.15241700410842896, 0.058368247002363205, 0.015003317967057228, 0.02079717069864273, -0.32850655913352966, -0.6325998306274414, 0.29282429814338684, 0.014416036196053028, 0.37029409408569336, -0.26764363050460815, -0.1790599375963211, 0.34071335196495056, -0.2520744800567627, -0.1678503006696701,
0.21591857075691223, 0.15683454275131226, -0.4577438235282898, -0.13938044011592865, -0.14734968543052673, 0.0630282387137413, -0.5638189315795898, 0.06343915313482285, -0.4600076377391815, -0.13825446367263794, -0.3022901713848114, -0.38501718640327454, -0.2005334198474884, 0.3039237856864929, 0.7138967514038086, -0.2045688033103943, 0.34366390109062195, -0.4488394856452942, 0.16493017971515656, -0.0672505721449852, 0.12643170356750488, 0.37870970368385315, 0.14461858570575714, 0.313997358083725, -0.09090668708086014, -0.38120272755622864, -0.05636072903871536, 0.20847342908382416, -0.13315634429454803, -0.13006402552127838, -0.10275468975305557, 0.5499395728111267,
0.2607461214065552, -0.0594015046954155, 0.5235214233398438, 0.0926927700638771, 0.04910651966929436, 0.2953487038612366, -0.7404809594154358, -0.012750080786645412, -0.7797766923904419, -0.0988205149769783, 0.1491410732269287, -0.4478776454925537, -0.0699344202876091, 0.13156452775001526, -0.1701776087284088, 0.2676381766796112, 0.11879069358110428, 0.13278819620609283, 0.07837304472923279, 0.4737258553504944, -0.4078909158706665, -0.14621087908744812, -0.17626523971557617, 0.3560364544391632, 0.4193213880062103, 0.2794432044029236, -0.46905627846717834, 0.6653125882148743, -0.04733544588088989, 0.2644961476325989, 0.24681010842323303, -0.05395181104540825,
0.2407621592283249, 0.06860955059528351, -0.07683487981557846, -0.17971137166023254, -0.4667757451534271, 0.08884774893522263, 0.2759788930416107, -0.30264735221862793, 0.39297473430633545, -0.4989895820617676, -0.42213594913482666, 0.1134454756975174, 0.1393144428730011, 0.1812363862991333, 0.10732831805944443, 0.010791118256747723, 0.0822170153260231, 0.14402811229228973, 0.027674514800310135, -0.07854591310024261, -0.17312724888324738, -0.1006186380982399, 0.15631549060344696, 0.5611376762390137, -0.33130982518196106, -0.24777241051197052, 0.37564119696617126, 0.49634984135627747, -0.29993245005607605, 0.11643597483634949, 0.3692225515842438, -0.13656891882419586,
-0.17412571609020233, 0.14208631217479706, -0.03534054756164551, -0.4124956429004669, 0.007851867005228996, 0.25120264291763306, 0.053380757570266724, 0.19292977452278137, 0.16727623343467712, -0.08490701764822006, 0.08655385673046112, -0.4393238425254822, 0.17348352074623108, 0.4112480580806732, -0.13687576353549957, -0.14736142754554749, -0.0640118271112442, 0.31069689989089966, 0.4084530770778656, -0.3510381281375885, 0.11657847464084625, 0.006504689808934927, -0.3547916114330292, 0.3848424255847931, -0.11884167790412903, 0.37170010805130005, 0.14662346243858337, -0.09051298350095749, -0.0226423516869545, -0.027924049645662308, 0.14284692704677582, 0.11483808606863022,
-0.21442319452762604, 0.3701851963996887, -0.028184805065393448, 0.17389920353889465, -0.047016240656375885, -0.42378243803977966, -0.3265494406223297, 0.12207844853401184, 0.41566717624664307, 0.07194625586271286, -0.0790618434548378, -0.4880079925060272, 0.19442200660705566, -0.2334623783826828, -0.48804566264152527, 0.04508271440863609, 0.07643071562051773, 0.23562107980251312, -0.12121134996414185, 0.1678103506565094, 0.3228152394294739, 0.08621796220541, -0.2267640233039856, 0.7527012228965759, -0.20405592024326324, -0.17815592885017395, 0.26834428310394287, 0.07897291332483292, -0.5862902998924255, -0.4085855185985565, -0.06344432383775711, -0.39580053091049194,
0.041914425790309906, 0.2660127878189087, -0.4594069719314575, -0.14743879437446594, 0.15550322830677032, 0.18949712812900543, -0.0952865332365036, -0.05191326141357422, -0.3070182204246521, -0.12482040375471115, -0.14131517708301544, -0.31984251737594604, -0.2072698175907135, -0.08924200385808945, -0.018805110827088356, -0.1865774542093277, 0.7556444406509399, -0.03546012192964554, 0.34183621406555176, -0.3381497859954834, -0.17315588891506195, 0.11851777136325836, 0.22195887565612793, -0.024137185886502266, -0.12735874950885773, -0.1739683300256729, -0.13653701543807983, -0.18421773612499237, -0.18709510564804077, -0.11823096126317978, 0.6519023776054382, 0.06322189420461655,
-0.30248621106147766, 0.2296844720840454, 0.048890016973018646, -0.4036523699760437, 0.24906526505947113, 0.5550296902656555, -0.3603765070438385, -0.23986949026584625, 0.28407859802246094, -0.15541577339172363, 0.34273016452789307, 1.092525601387024, 0.3714434504508972, 0.2551436424255371, 0.1937118023633957, -0.06863944232463837, -0.9678701758384705, 0.23445628583431244, 0.31735262274742126, 0.5146756768226624, -0.49927735328674316, 0.11689699441194534, -0.126595601439476, 0.03277646377682686, -0.3795630633831024, -0.3085855543613434, -0.5767619609832764, -0.14325304329395294, -0.5377680659294128, -0.3507249057292938, -0.5559898614883423, 0.2649759352207184,
-0.2065737396478653, -0.07802402228116989, 0.024434497579932213, 0.04343026503920555, -0.22903096675872803, 0.5928306579589844, -0.00018955212726723403, -0.5076881051063538, -0.09628178924322128, -0.010517332702875137, -0.5955020785331726, 0.03440055623650551, -0.01899135299026966, -0.5267211198806763, -0.0037342081777751446, -0.10533566027879715, 0.15712592005729675, 0.03720245137810707, 0.3047697842121124, -0.2599947154521942, -0.0080756526440382, 0.4978647530078888, 0.4662502408027649, -0.10106157511472702, -0.023820718750357628, -0.7719025611877441, 0.3692501187324524, -0.2688281238079071, -0.4822602868080139, -0.012479033321142197, 0.36637043952941895, -0.3169322907924652,
-0.305174857378006, 0.07130714505910873, -0.14072993397712708, -0.14743106067180634, -0.052106380462646484, -0.07716748118400574, 0.04333895444869995, -0.4507130980491638, -0.3622976243495941, 0.23483487963676453, 0.02547421120107174, 0.20902203023433685, 0.22269819676876068, -0.15751925110816956, -0.1638759970664978, 0.37422892451286316, 0.5012372732162476, -0.11966034770011902, -0.06083320453763008, -0.054684292525053024, 0.33783042430877686, 0.11509492993354797, -0.26101797819137573, -0.30384913086891174, 0.10174622386693954, 0.07764887064695358, 0.1800130009651184, 0.03268441557884216, 0.061846110969781876, 0.369460791349411, -0.20862074196338654, 0.0662619024515152,
-0.057512134313583374, -0.08462872356176376, 0.6411231756210327, 0.37626218795776367, 0.27691879868507385, -0.714264988899231, 0.26874715089797974, 0.500167727470398, -0.08126728236675262, 0.2093704491853714, -0.16547280550003052, -0.09766129404306412, 0.3279326260089874, 0.660645067691803, 0.10050342231988907, -0.12854637205600739, -0.26778367161750793, 0.7185137271881104, -0.14851456880569458, 0.2129449099302292, -0.2542114853858948, -0.08931063860654831, 0.2887522280216217, -0.24658934772014618, -0.07168563455343246, -0.05607617273926735, 0.4003776013851166, 0.28620246052742004, 0.3749755918979645, 0.8537043929100037, -0.2199665606021881, 0.32705944776535034,
0.2929983139038086, -0.770784854888916, -0.20436567068099976, -0.13941088318824768, 0.6634970307350159, -0.17012503743171692, 0.24111419916152954, 0.36773088574409485, -0.06836148351430893, 0.40554577112197876, 0.28086137771606445, 0.15792518854141235, -0.20614096522331238, -0.14628392457962036, 0.1996617466211319, 0.3205640912055969, 0.20852667093276978, 0.0633862093091011, 0.03590919077396393, 0.17783764004707336, -0.1472480148077011, -0.5618377923965454, 0.09107259660959244, 0.5170275568962097, -0.2015695422887802, 0.852680504322052, 0.6160259246826172, -0.3506658971309662, -0.37274080514907837, 0.23933909833431244, 0.46794846653938293, 0.10766284912824631,
-0.30509650707244873, 0.028219297528266907, 0.7232282757759094, -0.05739752948284149, 0.2427457869052887, 0.1817639172077179, -0.3457247018814087, -0.8337889313697815, 0.09882085770368576, -0.1244724690914154, -0.25921449065208435, 0.5383756160736084, 0.39438197016716003, -0.4079822599887848, 0.13404181599617004, -0.33644813299179077, 0.08365331590175629, -0.151993528008461, 0.26194334030151367, -0.6793258786201477, 0.08880499005317688, -0.2864093482494354, -0.6188865900039673, 0.21048603951931, -0.16695992648601532, 0.45810869336128235, -0.23648156225681305, -0.040981799364089966, -0.13710398972034454, -0.8169411420822144, -0.29007047414779663, -0.29833582043647766,
-0.05915410444140434, -0.523938000202179, 0.4533284604549408, -0.48678678274154663, -0.05317700654268265, -0.04802519828081131, 0.25932633876800537, -0.2974359095096588, 0.06710200756788254, 0.3772594630718231, 0.1949497014284134, -0.2092788815498352, -0.27129632234573364, -0.03392742574214935, -0.2754102945327759, -0.06522392481565475, 0.01137561071664095, -0.8990761041641235, -0.03343518450856209, 0.16695013642311096, -0.16476920247077942, 0.10284391790628433, -0.048239342868328094, 0.9064677357673645, 0.08276823908090591, -0.16138803958892822, -0.08566015213727951, -0.20023557543754578, 0.7575256824493408, 0.0865030437707901, -0.5056967735290527, 0.04364098608493805
};

const float biases_fc1[] = {
0.019151538610458374, 0.01354190893471241, -0.0015635612653568387, -0.0001815996365621686, 0.017411833629012108, 0.00915705505758524, 0.005720870569348335, -0.00822643842548132, 0.0033500567078590393, 0.011887174099683762, 0.012804264202713966, -9.38762241275981e-06, 0.0154979657381773, -8.345045353053138e-05, -0.00265868054702878, -0.010341138578951359, 0.01033356599509716, 0.014284448698163033, 0.004528750665485859, -0.004673124756664038, 0.011001745238900185, -0.0009417184046469629, 0.009321430698037148, 0.0035642627626657486, 0.002459809184074402, 0.031524959951639175, 0.009928285144269466, 0.008323628455400467, -0.006462774705141783, -0.008871305733919144, 0.017448702827095985, 0.00191598164383322
};

const float weights_fc2[] = {
-0.21232140064239502, -0.057903558015823364, 0.002966011641547084, 0.11061592400074005, -0.23416480422019958, 0.21028277277946472, 0.23134784400463104, 0.02840586006641388, -0.07954459637403488, -0.0341704897582531, 0.05683359131217003, 0.12568099796772003, -0.026923924684524536, -0.16003425419330597, -0.13040569424629211, 0.020712779834866524, -0.06668306142091751, 0.22297435998916626, -0.09250540286302567, -0.023941943421959877, -0.06417191028594971, 0.027837485074996948, 0.0722971260547638, 0.11712589859962463, -0.23376618325710297, 0.12684352695941925, -0.11619008332490921, 0.11580298840999603, 0.04228972643613815, 0.03481579199433327, -0.09538188576698303, 0.12290548533201218,
-0.10340278595685959, -0.051110461354255676, -0.12523885071277618, 0.10548876225948334, 0.3302776515483856, -0.04262379929423332, 0.0053424895741045475, -0.0671229436993599, 0.047272421419620514, -0.004359522368758917, -0.03266797214746475, 0.1931057572364807, -0.09540284425020218, -0.03540216386318207, -0.10409418493509293, -0.06408452987670898, -0.16296756267547607, -0.24923764169216156, -0.19668635725975037, -0.057947490364313126, 0.1683635711669922, 0.2212660163640976, 0.09267150610685349, 0.16063189506530762, 0.004044640809297562, 0.13722172379493713, -0.02559586614370346, -0.32588183879852295, 0.08766350895166397, -0.00825558602809906, 0.03349815681576729, 0.03858208283782005,
0.09203176945447922, -0.011165639385581017, 0.07418196648359299, -0.0430552139878273, -0.06266066431999207, -0.01931818760931492, -0.01961725763976574, -0.06255384534597397, 0.06516671925783157, 0.07971088588237762, -0.018260395154356956, -0.011728664860129356, 0.2081836462020874, -0.13001923263072968, -0.008256509900093079, 0.05397545173764229, 0.06480201333761215, 0.47674840688705444, 0.2046518325805664, -0.15552297234535217, -0.23220142722129822, -0.21330730617046356, -0.024905553087592125, -0.017407892271876335, 0.03761947527527809, -0.09860150516033173, -0.01985098421573639, 0.12843476235866547, 0.03871560096740723, 0.013173501938581467, -0.1617855429649353, 0.02668851427733898,
0.2401185929775238, -0.10314672440290451, -0.18811944127082825, -0.06312242150306702, 0.29583740234375, -0.03878707438707352, -0.03292693570256233, 0.011766226962208748, -0.11682894825935364, -0.0027282442897558212, -0.026287546381354332, 0.055199455469846725, 0.024197932332754135, 0.0709981918334961, 0.13008001446723938, -0.11526259034872055, 0.03360915184020996, -0.10811039805412292, 0.33262503147125244, -0.05779416859149933, 0.24914740025997162, -0.11267372965812683, -0.05354916304349899, -0.12645190954208374, -0.08388316631317139, -0.17074453830718994, 0.05520574375987053, -0.04102478548884392, 0.10336657613515854, 0.004436066839843988, 0.11365851014852524, 0.15672671794891357
};

const float biases_fc2[] = {
0.0022106522228568792, 0.0038418674375861883, 0.0011940303957089782, 0.002797268331050873
};

void nn_forward(const float* input, float* output) {
    const float* fc0_output = input;
    float fc1_output[32];
    nn_linear(weights_fc0, biases_fc0, fc0_output, 19, 32, fc1_output);
    nn_elu(fc1_output, 32);
    float fc2_output[32];
    nn_linear(weights_fc1, biases_fc1, fc1_output, 32, 32, fc2_output);
    nn_elu(fc2_output, 32);
    float* fc3_output = output;
    nn_linear(weights_fc2, biases_fc2, fc2_output, 32, 4, fc3_output);
    nn_elu(fc3_output, 4);
}