#include "neural_network.h"
#include "nn_helpers.h"

const float weights_fc0[] = {
0.509038507938385, -0.24798870086669922, -1.477532982826233, -0.26193878054618835, -0.215334951877594, -0.022642718628048897, 0.535842776298523, -0.4006091058254242, 0.28591594099998474, -1.0385552644729614, -0.13401097059249878, 2.0132834911346436,
-0.16884760558605194, -0.4406440258026123, -0.3181212246417999, -0.04754752665758133, -0.09261972457170486, -0.15077438950538635, -1.4629342555999756, -1.494994878768921, -0.18346747756004333, 2.12202525138855, 0.6123213171958923, -0.3118419647216797,
-0.27165108919143677, -0.20925234258174896, -0.4551316499710083, -0.016025224700570107, -0.07705680280923843, 0.12406150996685028, -1.2661982774734497, -0.24043472111225128, 0.1459919959306717, -0.4115029275417328, -2.0824034214019775, -0.10459244251251221,
-0.3539072871208191, -0.9973299503326416, -0.886681318283081, 0.10845989733934402, 0.2235502004623413, 0.16509072482585907, -0.1481427103281021, -0.21307167410850525, 0.15590360760688782, 0.39179593324661255, 0.34727850556373596, 1.8685073852539062,
0.41547319293022156, 1.038072109222412, -0.7297344207763672, 0.11884945631027222, -0.06499698013067245, -0.3045743405818939, 0.6742745041847229, 1.5071096420288086, 0.36269453167915344, -0.36994296312332153, -0.19085700809955597, -0.016837425529956818,
-1.2965571880340576, -0.1213284432888031, -1.144255518913269, -0.005978452041745186, 0.05163250118494034, -0.18458683788776398, -0.9997168183326721, 0.5982919931411743, 0.16406050324440002, 0.8437957167625427, 1.5070394277572632, 1.700955867767334,
-0.9946458339691162, -0.5503825545310974, 1.0155913829803467, -0.024634383618831635, -0.058237843215465546, -0.017997734248638153, 0.12360724061727524, 0.3568134307861328, 0.4933890998363495, -0.5572927594184875, 0.6554933786392212, -1.076107144355774,
0.4252670109272003, -0.007116752676665783, -0.8092483878135681, -0.06212815269827843, 0.06414946913719177, 0.07363350689411163, -0.6566700339317322, -0.3832353949546814, -0.10411234200000763, -0.05414310842752457, 0.38132861256599426, -2.007347822189331,
-0.45672309398651123, 0.5308639407157898, 0.20602816343307495, -0.07853526622056961, -0.017878804355859756, 0.12656457722187042, -1.0747458934783936, -0.3221321403980255, 0.1335572898387909, -1.8793796300888062, 1.607336163520813, 0.5157744288444519,
1.2007900476455688, 0.9862838387489319, -0.4363267719745636, -0.3568628430366516, 0.562606692314148, 0.05356235429644585, 2.0888924598693848, 1.114371418952942, 0.10815834254026413, -1.7782726287841797, -1.9470471143722534, 0.25665101408958435,
0.035805243998765945, 0.12477186322212219, 0.5609464049339294, 0.012712039984762669, 0.058721285313367844, -0.053195320069789886, 0.5695649981498718, 0.2211194634437561, 0.2288837432861328, -0.3314721882343292, -0.09878276288509369, -2.4749975204467773,
-0.4875505566596985, 0.18017105758190155, -0.2766290605068207, -0.31075313687324524, -0.4129106402397156, 0.15359026193618774, -0.4224375784397125, 0.19552212953567505, -0.0505233034491539, 0.05330697074532509, -0.3648165166378021, 0.4001258611679077,
0.06698503345251083, -0.4554998278617859, 0.3646327257156372, 0.18428556621074677, 0.03491513431072235, -0.10640216618776321, 0.311823308467865, -0.6695857644081116, 0.2474229335784912, -1.6611337661743164, 1.1098772287368774, -0.46321696043014526,
0.3751941919326782, 1.1093806028366089, 0.7416760325431824, -0.010550118051469326, 0.116846963763237, -0.10101386159658432, 0.39921092987060547, 0.6026438474655151, 0.011916562914848328, -0.11240749061107635, 1.1551991701126099, -0.067813940346241,
0.11800108850002289, 0.29009777307510376, 0.6722832322120667, 0.03477063775062561, 0.14730460941791534, -0.13673092424869537, 0.8271886110305786, -0.061998821794986725, 0.1476629227399826, 0.15649929642677307, -1.9986716508865356, -2.455282211303711,
-0.09802540391683578, 0.036796677857637405, 0.5401288270950317, 0.06352943181991577, -0.13032008707523346, 0.22170963883399963, -1.1499903202056885, -1.1314470767974854, -0.009165591560304165, 1.2522706985473633, 1.014196515083313, -0.19083638489246368,
-0.3894508481025696, 0.7888244390487671, 0.4407789409160614, -0.11651884019374847, -0.06064732372760773, 0.38662123680114746, 1.357180118560791, -2.070559501647949, 0.2628362774848938, 0.23873387277126312, 0.19245405495166779, -0.02593100070953369,
-0.09153087437152863, 0.775581955909729, 0.8429266810417175, -0.08039849996566772, -0.0047330670058727264, -0.1043878048658371, -1.5969399213790894, 1.0724858045578003, 0.05452411621809006, 1.910386085510254, -2.036447525024414, -0.06611884385347366,
0.6486018896102905, -0.14233887195587158, -1.5699516534805298, 0.20692779123783112, 0.15359602868556976, 0.40066882967948914, 0.7309287786483765, -0.3977445363998413, -0.0048142424784600735, -0.25073251128196716, 0.28705069422721863, 2.010615348815918,
0.7862573266029358, -1.0340886116027832, 0.4503490924835205, 0.4207670986652374, 0.32421064376831055, 0.10491517931222916, 1.291772484779358, -1.0438916683197021, -0.05122016370296478, -0.8643378615379333, 1.2881134748458862, -0.7771824598312378,
-1.0454741716384888, -0.6485081315040588, -0.7257047891616821, 0.10972883552312851, -0.06640250980854034, 0.10119190812110901, 0.06357165426015854, -0.025158587843179703, -0.006683496758341789, -0.452863484621048, 0.12261641770601273, 0.29079315066337585,
0.7023497819900513, 0.08786030113697052, 0.3085474967956543, -0.36170753836631775, -0.43612635135650635, 0.068355992436409, 0.9278733134269714, 0.3908502459526062, 0.14063294231891632, 0.3284752368927002, -0.7627212405204773, 0.3866231143474579,
-0.18227025866508484, -0.353427916765213, 0.03437866270542145, 0.3873422145843506, -0.2614858150482178, -0.3130062222480774, 0.03856481984257698, -0.5553231835365295, -0.042213067412376404, 0.03675753250718117, 0.8710094094276428, 0.46374353766441345,
-1.0556535720825195, -0.1556067168712616, -0.14323756098747253, 0.07223823666572571, -0.06684111058712006, -0.1767602115869522, 2.395592212677002, 0.7354781627655029, 0.0174248144030571, -0.7980528473854065, -0.14061400294303894, 0.47473347187042236,
-0.7905340194702148, -0.5852327942848206, -0.31983447074890137, 0.36165866255760193, -0.5077923536300659, 0.35742443799972534, 0.5886562466621399, -0.8202714920043945, -0.034070294350385666, 0.9532586932182312, 0.2542758285999298, -0.3513351380825043,
1.1661992073059082, -1.31999671459198, 0.43823525309562683, 0.10356461256742477, 0.07748762518167496, -0.10596006363630295, 0.5289507508277893, -1.78928804397583, 0.15325525403022766, -0.9881003499031067, 1.350069522857666, 0.38058042526245117,
0.2543722689151764, 0.12114476412534714, 0.020554976537823677, 0.03386838361620903, -0.03935403376817703, 0.06678275018930435, -0.3646835386753082, -0.1349501758813858, -0.17430628836154938, -2.4148900508880615, -1.7062314748764038, -0.05901482328772545,
0.03862296789884567, -0.4137343466281891, -0.5087328553199768, -0.014062601141631603, 0.07560110092163086, 0.14093506336212158, 0.39279717206954956, -0.8160207867622375, 0.40136706829071045, -0.1879805326461792, 0.4571989178657532, 0.15343248844146729,
0.0995047464966774, 0.6936497688293457, -0.8842410445213318, 0.08095727860927582, -0.05813318118453026, -0.1135467141866684, 0.3843824863433838, 1.1374938488006592, -0.2573865056037903, 0.3760889768600464, -1.2607522010803223, 1.9838902950286865,
0.06454215198755264, 0.38257837295532227, 0.1279056817293167, -0.1536339968442917, 0.0247877798974514, -0.0542326495051384, -0.08942364156246185, 0.6123911738395691, 0.43850401043891907, -0.1552504301071167, -1.0319571495056152, -0.7509488463401794,
0.016882263123989105, -1.0675439834594727, 1.32244074344635, 0.008033433929085732, 0.015248037874698639, 0.14172768592834473, -0.849670946598053, 2.1287648677825928, 0.14601367712020874, 0.12474794685840607, -0.37026381492614746, -0.44098663330078125,
-0.8970478773117065, 0.09251296520233154, -0.4325052499771118, 0.026330886408686638, 0.06149335578083992, 0.13203303515911102, -1.2251170873641968, 0.4393397271633148, 0.2053626924753189, 0.9464963674545288, -0.4026215970516205, 0.3916179835796356
};

const float biases_fc0[] = {
0.049126576632261276, -0.25434085726737976, 0.15777488052845, 0.04533045366406441, -0.030063185840845108, -0.005071653053164482, 0.4103146195411682, -0.04811594635248184, 0.11706963181495667, 0.21621401607990265, 0.30601146817207336, -0.17966490983963013, 0.006585017777979374, -0.14981967210769653, 0.11970242112874985, 0.02843477576971054, 0.21892377734184265, -0.08023389428853989, 0.2266867458820343, 0.0809638500213623, 0.043837420642375946, -0.05417761579155922, -0.3462211787700653, -0.05747731029987335, 0.12166976183652878, 0.02274210751056671, -0.044140689074993134, -0.7326071262359619, -0.35833606123924255, -0.3797597885131836, 0.03758658841252327, 0.1261308193206787
};

const float weights_fc1[] = {
0.2506127953529358, 0.1888674944639206, 0.12003063410520554, -0.16380296647548676, 0.7406834363937378, -0.04419597610831261, 0.3265373110771179, -0.538626492023468, -0.34455448389053345, 0.1871708780527115, 0.005100613925606012, 0.011916357092559338, 0.47850173711776733, 0.14160266518592834, -0.22469554841518402, -0.12132112681865692, -0.22465600073337555, -0.2479889690876007, 0.06660568714141846, 0.04031599313020706, 0.18062274158000946, 0.007688538171350956, -0.1153012365102768, -0.5870926976203918, 0.10975014418363571, 0.23737452924251556, -0.07803339511156082, 1.1424552202224731, 0.06266121566295624, 0.6888941526412964, -0.3412173390388489, 0.8719817399978638,
-0.22637063264846802, -0.09241262823343277, -0.13121360540390015, 0.1858741194009781, 0.058024536818265915, 0.005651033017784357, -0.3812570869922638, 0.19880759716033936, 0.00875964667648077, 0.10675524920225143, -0.6127538084983826, -0.40675562620162964, 0.06024128571152687, -0.07750482857227325, -0.6000922322273254, 0.012715164572000504, -0.4454646706581116, -0.4425158202648163, 0.33120834827423096, 0.23595111072063446, -0.07717936486005783, -0.6340779662132263, 0.047750577330589294, -0.13008879125118256, -0.3706718385219574, 0.180826798081398, -0.037424176931381226, 0.15170496702194214, 0.45514437556266785, -0.06968466192483902, 0.09888698905706406, -0.24485082924365997,
-0.09123965352773666, 0.21925723552703857, 0.17309322953224182, -0.39919260144233704, -0.4837857484817505, 0.012888100929558277, 0.03624792769551277, -0.07908179610967636, 0.6112507581710815, -0.22789500653743744, 0.03173772618174553, 0.2890682816505432, -0.06891576945781708, -0.11359456181526184, 0.05598758906126022, 0.3460685908794403, 0.21061456203460693, 0.10381980985403061, -0.2616126239299774, 0.14514510333538055, 0.023761408403515816, 0.25839394330978394, -0.45301902294158936, -0.3138253688812256, 0.1424013376235962, -0.12886931002140045, 0.21787120401859283, -0.00930832326412201, -0.49505653977394104, 0.11299265176057816, 0.16483639180660248, -0.15670271217823029,
0.249196395277977, 0.3592540919780731, 0.06095995381474495, 0.20099064707756042, 0.0502636581659317, 0.26824092864990234, -0.040087632834911346, -0.032813817262649536, -0.05031311884522438, 0.2785646319389343, -0.32363659143447876, -0.045890845358371735, 0.010311746969819069, 0.23590117692947388, 0.1484895795583725, -0.5761189460754395, 0.2085268646478653, 0.07690515369176865, -0.2205968052148819, -0.2324107438325882, -0.28595927357673645, -0.051961302757263184, -0.24907156825065613, -0.15018250048160553, -1.2210009098052979, 0.1345709264278412, -0.19548502564430237, 0.1338406354188919, 0.19207577407360077, 0.18926601111888885, -0.254928320646286, -0.25725817680358887,
0.20752136409282684, -0.10673143714666367, -0.1772979199886322, -0.07072338461875916, 0.14103874564170837, 0.08229447156190872, 0.26701074838638306, -0.05092213302850723, 0.19689007103443146, 0.0889885351061821, 0.03214934468269348, 0.16719035804271698, 0.21658124029636383, 0.21153725683689117, -0.3300608694553375, 0.12047114968299866, 0.06598958373069763, -0.24145790934562683, 0.050409507006406784, 0.004169538151472807, 0.058749280869960785, -0.022358620539307594, -0.006333630066365004, 0.07014825940132141, 0.029580682516098022, 0.2846153974533081, -0.0403052419424057, 0.3659544289112091, -0.0975785031914711, 0.08077635616064072, 0.02571909688413143, -0.15132540464401245,
0.10466863960027695, -0.08687201887369156, -0.14034947752952576, -0.31445521116256714, 0.1909162402153015, -0.2996876835823059, -0.36903733015060425, -0.013032885268330574, -0.2555251121520996, -0.04401138424873352, 0.21034231781959534, -0.00016981677617877722, -0.00417261803522706, -0.02357201650738716, 0.7471495270729065, -0.13213905692100525, 0.3105888366699219, -0.289140522480011, 0.041883453726768494, -0.1552828848361969, -0.11609997600317001, -0.03209282085299492, 0.00656856456771493, 0.10380613803863525, 0.1370653212070465, 0.37636953592300415, -0.3306807577610016, 0.26630666851997375, -0.3096335232257843, 0.0027590428944677114, -0.5457609295845032, 0.14808957278728485,
-0.004193008411675692, -0.24186013638973236, -0.09585989266633987, -0.20831452310085297, -0.02947220578789711, -0.11696840077638626, 0.1445985734462738, -0.05071312561631203, 0.13544218242168427, 0.18087434768676758, -0.03520184010267258, 0.11890902370214462, 0.201370507478714, -0.2264377772808075, 0.05218794196844101, 0.027391929179430008, -0.35842186212539673, -0.7491108775138855, -0.13098999857902527, -0.0062441835179924965, 0.10622141510248184, 0.06986615806818008, 0.4465644061565399, -0.07447514683008194, -0.0539693720638752, -0.28770899772644043, 0.0037015615962445736, -0.04300673305988312, -0.5825295448303223, 0.006188552360981703, -0.35567355155944824, -0.16858187317848206,
-0.016516996547579765, 0.19718632102012634, -0.23214413225650787, 0.0236669909209013, -0.044937100261449814, -0.10757381469011307, 0.06889239698648453, 0.17741841077804565, -0.16578298807144165, -0.24833282828330994, 0.11080542951822281, -0.03224405646324158, 0.21816743910312653, -0.008464441634714603, 0.16759349405765533, 0.08890766650438309, 0.04652611166238785, -0.03411054238677025, -0.06996876746416092, 0.00585187179967761, -0.19288772344589233, -0.16523081064224243, 0.08215987682342529, -0.1327335387468338, -0.022346042096614838, -0.16439317166805267, -1.0361379384994507, 0.2905416488647461, -0.3755522072315216, 0.24514448642730713, 0.0468362420797348, -0.16550564765930176,
-0.15385572612285614, -0.326526939868927, -0.1901921033859253, -0.5432431697845459, 0.2693905234336853, -0.4627079665660858, 0.0380345955491066, 0.16949184238910675, -0.4320180416107178, 0.08605653047561646, 0.17003749310970306, 0.23085948824882507, -0.24249747395515442, -0.19008272886276245, 0.02969835326075554, -0.24019654095172882, -0.19827263057231903, 0.20657725632190704, -0.9896785020828247, -0.5498262047767639, -0.12551723420619965, -0.008235054090619087, -0.10478518903255463, 0.43898603320121765, -0.1563655585050583, -0.46781909465789795, -0.06400925666093826, 0.08108334243297577, -0.21026411652565002, 0.07017587870359421, 0.42800259590148926, -0.3775891661643982,
-0.02547888644039631, -0.0910392552614212, -0.0731629803776741, 0.01781460829079151, -0.22675779461860657, -0.0536678284406662, 0.026173535734415054, -0.058402445167303085, -0.11581286787986755, -0.0013115386245772243, 0.17388325929641724, 0.054683297872543335, -0.057910043746232986, -0.24104785919189453, 0.19081999361515045, -0.1122463271021843, -0.28686657547950745, 0.1401076763868332, -0.2382093071937561, 0.08725418150424957, -0.30628010630607605, 0.0026926416903734207, -0.2217356562614441, -0.3097623884677887, 0.20236548781394958, 0.3640671968460083, 0.30523550510406494, 0.09549261629581451, -0.10092879086732864, -0.012063361704349518, -0.13611024618148804, 0.20371007919311523,
0.05173875391483307, 0.42510607838630676, 0.03523487225174904, 0.14790944755077362, -0.0897882729768753, -0.3290017247200012, 0.08218472450971603, 0.06751563400030136, -0.11683113127946854, 0.041216738522052765, 0.1298079937696457, -0.19975608587265015, 0.23546861112117767, -0.14915628731250763, 0.1334509253501892, 0.017263012006878853, 0.024149436503648758, 0.10254544764757156, 0.2025412768125534, 0.11250630021095276, -0.06649770587682724, -0.4669826328754425, 0.2575210928916931, 0.08459598571062088, 0.02507772669196129, 0.5392578840255737, -0.1212630644440651, -0.02775881253182888, 0.16659745573997498, 0.14311403036117554, -0.13681399822235107, -0.06272175908088684,
-0.6707273721694946, 0.07211627066135406, -0.23832643032073975, -0.4268912971019745, -0.09672487527132034, -0.25718116760253906, 0.23212836682796478, -0.1283259391784668, -0.27203306555747986, -0.4163393974304199, 0.05462935194373131, -0.3950585424900055, -0.02834377810359001, 0.193101704120636, 0.057329364120960236, -0.021999871358275414, -0.010901272296905518, -0.09366365522146225, -0.6612470746040344, 0.28272566199302673, -0.3111693263053894, -0.4162291884422302, -0.19826258718967438, -0.052142124623060226, -0.22299490869045258, -0.19614657759666443, -0.36012575030326843, -0.20161305367946625, -0.6416371464729309, -0.24270522594451904, 0.14926351606845856, -0.19263868033885956,
-0.06723383814096451, -0.1533321887254715, 0.021362541243433952, 0.13069193065166473, 0.1489940732717514, -0.25376683473587036, 0.1459004431962967, 0.058834146708250046, -0.511625349521637, -0.32800784707069397, -0.19806598126888275, -0.10218487679958344, 0.13913077116012573, -0.012868440710008144, -0.3302674889564514, -0.4733222424983978, -0.03803787752985954, -0.6294403076171875, -0.002620781771838665, -0.21009975671768188, -0.27679088711738586, -0.3986661732196808, -0.3501948118209839, -0.11673709750175476, 0.01740892231464386, -0.4320814907550812, -0.27407777309417725, 0.08128033578395844, -0.3990273177623749, -0.2872207760810852, -0.09016290307044983, -0.1170642077922821,
-0.0603075809776783, -0.03226710483431816, -0.18611949682235718, -0.02141765132546425, 0.13328805565834045, -0.12219218909740448, 0.02772403135895729, 0.07149285078048706, 0.06631188839673996, -1.4678350687026978, -0.24419324100017548, 0.16643446683883667, -0.07380024343729019, -0.24895143508911133, -0.3610457479953766, -0.0064066024497151375, 0.2240273356437683, 0.04074503481388092, -0.10936239361763, -0.2763030230998993, 0.12527741491794586, -0.05495813116431236, 0.11581257730722427, 0.21727651357650757, 0.22774666547775269, -0.17228585481643677, -0.2542347311973572, 0.14893454313278198, 0.003996642306447029, -0.1267791986465454, 0.13209542632102966, -0.33278703689575195,
0.20208747684955597, 0.030357642099261284, 0.007736263331025839, -0.33703869581222534, -0.1610046625137329, -0.12220539897680283, -0.17844416201114655, -0.12692704796791077, 0.08287390321493149, -0.11160646378993988, -0.2773128151893616, 0.0806783065199852, -0.12304120510816574, -0.050330135971307755, -0.01840568333864212, 0.018395930528640747, 0.06287211179733276, -0.2273186892271042, -0.47468575835227966, -1.0967283248901367, -0.22630944848060608, 0.056794051080942154, -0.3663940131664276, -0.0566738098859787, 0.10880441218614578, -0.5948452353477478, 0.09067177772521973, 0.17476734519004822, 0.15908150374889374, -0.20238491892814636, -0.0032361794728785753, -0.05481071025133133,
-0.13878893852233887, -0.016380377113819122, 0.1049286350607872, -0.20579621195793152, 0.30568352341651917, -0.3332608938217163, 0.28361597657203674, 0.3175753653049469, -0.232655331492424, -0.34813830256462097, -0.10280914604663849, 0.0989227443933487, 0.06674620509147644, -0.06743454933166504, -0.1565193235874176, -0.07323650270700455, -0.05001634731888771, -0.1769638955593109, -0.35190704464912415, -0.22426696121692657, -0.09215553849935532, -0.06335592269897461, 0.09955572336912155, -0.2938765585422516, -0.1426648497581482, -0.12147237360477448, -0.5159931778907776, -0.11949117481708527, -0.3716171681880951, -0.08311153203248978, 0.3376844525337219, 0.3279583752155304,
-0.25408580899238586, -0.02125886082649231, 0.036924365907907486, -0.11668962240219116, 0.05719270929694176, -0.08204343914985657, -0.14130671322345734, 0.6531981229782104, 0.08269228041172028, -0.14428536593914032, 0.36673909425735474, -0.12374315410852432, 0.09421666711568832, -0.09963010251522064, 0.14472506940364838, -0.06935839354991913, 0.031028881669044495, 0.09920759499073029, -0.2606557309627533, 0.0819598138332367, -0.0727396011352539, 0.1306263506412506, -0.0027997333090752363, 0.12483625113964081, 0.08934134244918823, -0.14522109925746918, 0.00202905829064548, 0.49254220724105835, -0.1291441023349762, 0.24171176552772522, 0.12346258759498596, -0.09712973237037659,
-0.5157179832458496, -0.3952341675758362, -0.5529629588127136, -0.3142068684101105, -0.40645352005958557, -0.8104886412620544, -0.624930739402771, -0.3790861964225769, -0.8530924916267395, -0.07885301858186722, -0.32264894247055054, 0.3018924295902252, 0.4689868986606598, -0.7809972763061523, -0.2009694129228592, -0.6233527064323425, -0.7485814094543457, -0.9152134656906128, -0.549988865852356, 0.009269666858017445, -0.3744763433933258, -0.2939950227737427, 0.1336391717195511, -0.7175739407539368, 0.17262977361679077, -1.384168267250061, -0.2637236416339874, 0.286724716424942, -1.1597824096679688, 0.4142128527164459, -0.816228985786438, 0.16495534777641296,
0.09567096084356308, 0.30422326922416687, 0.1956665813922882, 0.0689150020480156, 0.09212367236614227, 0.09997683763504028, 0.11485965549945831, -0.06179841607809067, 0.1301324963569641, -0.09315531700849533, 0.0855470672249794, 0.11103762686252594, 0.22536341845989227, -0.27795252203941345, 0.0390443280339241, -0.054644759744405746, -0.07490253448486328, -0.1488536298274994, 0.11529466509819031, 0.2749793231487274, 0.18751417100429535, -0.23212400078773499, 0.3356311619281769, 0.05241650715470314, 0.10574151575565338, 0.3143053650856018, 0.21784277260303497, 0.10079625248908997, 0.2582101821899414, -0.015435347333550453, -0.0848475843667984, -0.1125086173415184,
-0.47203928232192993, -0.23775337636470795, -0.45133811235427856, -0.37292706966400146, 0.08826296776533127, -0.07960264384746552, -0.09518657624721527, 0.2760712206363678, 0.10562389343976974, -0.3712886571884155, 0.17084477841854095, -0.19485607743263245, 0.05228957161307335, 0.09130214154720306, -0.34800490736961365, -0.20338308811187744, -0.32751476764678955, -0.6973714828491211, -0.49657565355300903, 0.192325621843338, -0.21784891188144684, -0.4887525141239166, -0.00969707127660513, -0.2628183960914612, -0.11542008817195892, -0.0592581145465374, -0.30331942439079285, -0.12955333292484283, -0.6043446063995361, -0.18308383226394653, -0.19024276733398438, -0.4612157940864563,
0.027150513604283333, -0.34828460216522217, -0.40008044242858887, -0.06995180249214172, 0.4066368043422699, 0.14715294539928436, 0.1602688431739807, 0.19997595250606537, -0.11468572169542313, 0.13329370319843292, 0.23414047062397003, -0.05703191086649895, 0.2471608966588974, 0.24455878138542175, -0.6246379017829895, 0.20239615440368652, -0.15028737485408783, -0.4704560935497284, -0.07448522001504898, 0.009646664373576641, -0.11714883148670197, -0.019543714821338654, 0.07940880954265594, -0.23621134459972382, -0.01584777981042862, -0.119088314473629, -0.26746895909309387, 0.10119491070508957, -0.06905023008584976, 0.05576131492853165, 0.2958891689777374, -0.07106005400419235,
-0.38358232378959656, -0.7978127598762512, -0.25336864590644836, -0.34470945596694946, -0.25376424193382263, -0.5696171522140503, 0.10158084332942963, 0.10651781409978867, 0.19274595379829407, 0.31951266527175903, 0.287161260843277, -0.30153971910476685, 0.08892466872930527, -0.2059023231267929, 0.2318604290485382, -0.07576208561658859, 0.14096075296401978, -0.20828402042388916, 0.08917143940925598, 0.417038232088089, 0.09230706840753555, -0.013907364569604397, -0.40909743309020996, 0.022920949384570122, -0.1102740690112114, 0.032043661922216415, 0.3847661018371582, 0.25878745317459106, -0.29924169182777405, 0.0028398691210895777, 0.15683996677398682, -0.2951436936855316,
0.07329430431127548, -0.18737509846687317, 0.15466564893722534, -0.0708983764052391, 0.2832033336162567, 0.14859525859355927, 0.2639255225658417, -0.03648374602198601, 0.054989688098430634, -0.1621600091457367, 0.19482366740703583, 0.03397776931524277, -0.0031921055633574724, -0.0324183814227581, 0.20806248486042023, -0.28338488936424255, 0.03485759720206261, 0.07848289608955383, 0.03934133052825928, -0.1729007065296173, 0.003997316583991051, 0.08224225789308548, -0.12254644185304642, -0.11080599576234818, -0.003042166121304035, 0.0665721744298935, -0.1392020732164383, -0.08505885303020477, 0.06388864666223526, 0.08411896973848343, -0.14971254765987396, 0.27820277214050293,
-0.008881323039531708, 0.28139814734458923, 0.2963946461677551, 0.11180025339126587, -0.07571447640657425, 0.17859086394309998, 0.11741957068443298, -0.2462579756975174, -0.10805020481348038, 0.0152550945058465, -0.421932578086853, -0.06550063192844391, -0.2482113093137741, -0.014373844489455223, 0.30014678835868835, 0.1870371550321579, 0.27328747510910034, 0.648187518119812, 0.17934584617614746, -0.014307859353721142, 0.1857374906539917, 0.021439379081130028, -0.027768630534410477, 0.17225410044193268, -0.0802856832742691, 0.024822309613227844, 0.1932150274515152, 0.37652450799942017, 0.4601002037525177, -0.028476396575570107, 0.41400617361068726, 0.0065045664086937904,
0.3936128318309784, -0.17006969451904297, 0.20723366737365723, -0.030442068353295326, 0.08124782145023346, 0.10146494209766388, -0.10382983833551407, -0.00037825305480509996, -0.047968022525310516, -0.3557562232017517, -0.6495493054389954, 0.03833881393074989, -0.1458822786808014, -0.255452960729599, -0.5991718769073486, -0.20907212793827057, -0.09833716601133347, -0.08813811093568802, 0.14961624145507812, -1.2524094581604004, -0.17984889447689056, -0.04928342625498772, -0.12863832712173462, -0.22163504362106323, -0.12553268671035767, -0.2742370665073395, -0.034010253846645355, -0.047941237688064575, 0.3459852635860443, 0.1472044140100479, -0.32585451006889343, -0.19669869542121887,
-0.2048209011554718, -0.5726300477981567, -0.27614840865135193, 0.10727647691965103, -0.30618587136268616, -0.49938300251960754, -0.3833872079849243, -0.07718774676322937, -0.10580860078334808, -0.23732465505599976, 0.19131873548030853, 0.1396530121564865, 0.12071356177330017, -0.38252565264701843, -0.1619502604007721, -0.6008079051971436, -0.2995355427265167, -0.3470815122127533, -0.2270279824733734, 0.01574895530939102, -0.17110468447208405, -0.24265868961811066, -0.14355947077274323, -0.2989898920059204, -0.03152867779135704, -0.6338675618171692, -0.033618368208408356, 0.4374900460243225, -0.1220824345946312, 0.6423993110656738, -0.41410285234451294, -0.17738208174705505,
-0.06799910962581635, 0.006687426473945379, -0.08133344352245331, 0.2037203013896942, -0.37647220492362976, 0.12901119887828827, -0.22620965540409088, 0.02568720281124115, 0.15313993394374847, -0.012984099797904491, 0.26805758476257324, 0.2151641994714737, -0.14648258686065674, -0.014434827491641045, 0.2719191014766693, -0.0615260936319828, -0.38664543628692627, 0.15182265639305115, -0.16722425818443298, 0.2493218630552292, 0.07232454419136047, 0.02523615024983883, 0.05240899696946144, -0.1583903580904007, 0.11077012121677399, -0.25109392404556274, -0.19138900935649872, 0.06320458650588989, 0.07688180357217789, -0.053350936621427536, -0.230881467461586, -0.3074418604373932,
-0.4863092601299286, -0.009596357122063637, -0.18900033831596375, -0.46488213539123535, -0.3319321274757385, 0.07280037552118301, -0.013379969634115696, 0.47856834530830383, -0.5369366407394409, -0.2277120053768158, 0.3806687891483307, -0.149373397231102, -0.697767972946167, 0.20100675523281097, 0.6128025054931641, -0.16580669581890106, 0.02937350794672966, 0.23134566843509674, -0.28407543897628784, -0.11195386946201324, -0.02072473056614399, -0.12414073199033737, -0.07125979661941528, 0.06398745626211166, 0.006481533404439688, -0.2520333528518677, -0.6226197481155396, -0.1301233023405075, 0.09679245948791504, 0.15212808549404144, 0.06490843743085861, -0.07445243746042252,
0.047914694994688034, -0.38726726174354553, 0.2012203186750412, 0.33298608660697937, 0.554425060749054, -0.18518662452697754, -0.09084310382604599, 0.048041895031929016, -0.22941340506076813, 0.04820955544710159, 0.15588195621967316, -0.1583842933177948, -0.2187182903289795, -0.293740451335907, -0.2955348491668701, -0.36000216007232666, -0.3008660078048706, -0.09771312773227692, 0.02212442085146904, -0.22577814757823944, 0.11082839220762253, 0.08077175915241241, -0.1905200481414795, -0.04142013564705849, -0.16033218801021576, -0.6000573039054871, -0.40653252601623535, 0.0973316952586174, -0.18724070489406586, -0.02403968945145607, 0.05346864461898804, 0.147560253739357,
-0.05470115318894386, -0.07546962052583694, 0.1089724525809288, -0.0957254096865654, 0.16332221031188965, 0.03838590905070305, -0.08740363270044327, -0.24304239451885223, -0.15849153697490692, 0.025303397327661514, -0.1512635052204132, -0.25155261158943176, -0.16112467646598816, 0.0751737505197525, -0.24040183424949646, -0.27581891417503357, 0.054784324020147324, -0.08261050283908844, -0.1455666720867157, -0.1330903023481369, -0.1244584396481514, -0.017629435285925865, 0.028425689786672592, -0.2642570734024048, 0.023837026208639145, 0.03795881196856499, 0.04624786227941513, 0.11597902327775955, -0.05373859032988548, -0.22914789617061615, 0.09191565960645676, 0.11782470345497131,
-0.08543138951063156, 0.027627797797322273, -0.08560334146022797, -0.1828668713569641, -0.11989301443099976, 0.13070252537727356, -0.2956293821334839, -0.6233718395233154, -0.18520110845565796, -0.204589381814003, -0.2294120192527771, -0.031053710728883743, -0.06127538904547691, -0.21841612458229065, 0.22456780076026917, -0.5067081451416016, -0.5387373566627502, -0.013245362788438797, 0.06596815586090088, 0.03283153846859932, 0.058574479073286057, 0.06092650070786476, 0.18417847156524658, 0.5369064807891846, -0.027865560725331306, 0.16321218013763428, 0.3875545561313629, 0.1044749841094017, 0.8195931315422058, 0.02664800174534321, -0.07574032247066498, -0.2720339000225067,
0.056473229080438614, 0.3204301595687866, -0.16686050593852997, -0.2673562169075012, 0.11662882566452026, -0.25206807255744934, -0.06479877978563309, -0.0831279307603836, -0.142658993601799, 0.1815522164106369, -0.04849262535572052, 0.16946116089820862, 0.06537448614835739, -0.0932135358452797, 0.16523297131061554, 0.05787486582994461, 0.23033970594406128, 0.44609150290489197, 0.15762954950332642, 0.2435050904750824, -0.17673468589782715, -0.0832793116569519, 0.018629692494869232, -0.44956785440444946, 0.0012586558004841208, 0.1770096719264984, -0.24173536896705627, 0.02502054162323475, 0.05437767133116722, 0.18605315685272217, 0.07653205096721649, 0.381808340549469
};

const float biases_fc1[] = {
-1.102137804031372, -0.2597319185733795, -0.36855968832969666, -0.11760959029197693, -0.5460296273231506, 0.08834582567214966, -0.05704871937632561, -0.5720548033714294, -0.08884511142969131, -0.12087340652942657, -0.07966850697994232, -0.13852423429489136, 0.007110533770173788, -0.09679504483938217, -0.08379703015089035, 0.17258279025554657, -0.7406191229820251, -0.6048390865325928, -0.1726459115743637, -0.02815738320350647, 0.23221458494663239, -0.08748237043619156, 0.13774527609348297, -0.41157853603363037, -0.044452063739299774, -0.6319553256034851, -0.12614068388938904, -0.13844013214111328, 0.06712444126605988, -0.08198999613523483, -0.2185993790626526, 0.015289503149688244
};

const float weights_fc2[] = {
-0.1494905948638916, 0.27253636717796326, -0.21651384234428406, -0.10594609379768372, -0.018622128292918205, -0.048910871148109436, 0.02636420726776123, 0.07455405592918396, -0.2795502245426178, -0.03056022897362709, -0.019481947645545006, -0.025901224464178085, 0.0509706474840641, -0.10052080452442169, -0.3066396713256836, -0.10118284076452255, -0.1857592612504959, -0.10707977414131165, -0.004354952834546566, 0.07418520748615265, 0.056364525109529495, 0.07243548333644867, 0.01760914735496044, 0.07755247503519058, -0.10836342722177505, 0.11126534640789032, -0.008125079795718193, -0.10867002606391907, 0.09954124689102173, -0.02674126997590065, 0.01708948239684105, 0.025898590683937073,
-0.027256891131401062, 0.043914373964071274, -0.046847883611917496, -0.2574503421783447, -0.002234290586784482, 0.05862714722752571, 0.04907344654202461, -0.07926800847053528, -0.3149108588695526, 0.003572676330804825, 0.03169911354780197, -0.1307862251996994, -0.016643529757857323, 0.5493669509887695, -0.08326926827430725, 0.20496490597724915, -0.08104989677667618, 0.014392606914043427, 0.1618642807006836, 0.2084595412015915, 0.01966693438589573, -0.3691256642341614, 0.010412609204649925, 0.013737699016928673, 0.09329364448785782, -0.1833622008562088, -0.004684352781623602, 0.07463310658931732, -0.04617457091808319, 0.010661322623491287, 0.20535250008106232, 0.008218412287533283,
-0.21147944033145905, -0.2542564570903778, -0.04159623384475708, -0.1615448296070099, 0.15296955406665802, 0.014790373854339123, -0.04808105528354645, 0.047261279076337814, 0.008365458808839321, -0.010037997737526894, -0.15701600909233093, -0.30911970138549805, 0.05288572981953621, 0.05016700178384781, 0.22219671308994293, -0.013434872962534428, -0.01634390465915203, -0.025235868990421295, -0.1575649380683899, -0.29304569959640503, 0.03559793531894684, -0.044884007424116135, 0.004817074164748192, 0.05139223486185074, 0.3717038631439209, -0.02972259372472763, -0.01147406455129385, 0.014338540844619274, 0.08444194495677948, 0.006506996229290962, 0.004896418657153845, 0.02306770347058773,
-0.13924415409564972, 0.11398910731077194, -0.09511903673410416, 0.5826004147529602, 0.10334925353527069, -0.01899450644850731, 0.04434124752879143, -0.1253393143415451, 0.23978081345558167, 0.07972686737775803, -0.057946059852838516, -0.27677562832832336, -0.061620429158210754, -0.4637155532836914, 0.12421716004610062, 0.057491615414619446, -0.08318021893501282, -0.0009180379565805197, -0.04077889025211334, 0.0027412050403654575, -0.023498067632317543, 0.11060921102762222, 0.025066914036870003, 0.003775584977120161, 0.08624053001403809, -0.13007429242134094, -0.054200634360313416, -0.21891506016254425, -0.07228270173072815, 0.06012754887342453, -0.1663336455821991, -0.010862879455089569
};

const float biases_fc2[] = {
0.06049969047307968, 0.06140495091676712, 0.170688658952713, 0.05524865537881851
};

void nn_forward(const float* input, float* output) {
    const float* fc0_output = input;
    float fc1_output[32];
    nn_linear(weights_fc0, biases_fc0, fc0_output, 12, 32, fc1_output);
    nn_elu(fc1_output, 32);
    float fc2_output[32];
    nn_linear(weights_fc1, biases_fc1, fc1_output, 32, 32, fc2_output);
    nn_elu(fc2_output, 32);
    float* fc3_output = output;
    nn_linear(weights_fc2, biases_fc2, fc2_output, 32, 4, fc3_output);
    nn_elu(fc3_output, 4);
}