#include "neural_network.h"
#include "nn_helpers.h"

const float weights_fc0[] = {
0.6281389594078064, -0.11670365184545517, -0.960123598575592, 0.0018253126181662083, -0.10318449139595032, -0.2791553735733032, 0.7697418928146362, 0.2773781418800354, 0.26927006244659424, -2.046743869781494, -0.580565869808197, 1.2510831356048584,
1.316030502319336, -0.41886106133461, -0.25545862317085266, 0.06465326249599457, 0.3988734185695648, -0.4619799554347992, -0.9507623314857483, -0.8344748020172119, -0.15373024344444275, -0.2529459297657013, 0.31978270411491394, -0.18432922661304474,
0.511719286441803, 0.36841443181037903, -0.5917533040046692, -0.21475142240524292, 0.4213464558124542, -0.15375040471553802, -0.8516647219657898, -0.49998238682746887, -0.1097039058804512, -0.5855641961097717, -0.3209598660469055, 1.1433943510055542,
0.06714146584272385, -0.8047744035720825, -1.6433628797531128, 0.2852828800678253, 0.11309726536273956, 0.07894552499055862, 0.2005014270544052, -0.44596266746520996, 0.06436331570148468, 0.48185256123542786, 0.09432857483625412, 1.8305823802947998,
-0.09172940999269485, 0.02282777801156044, 0.049431219696998596, 0.20145297050476074, 0.1756105124950409, -0.32674893736839294, 1.17092764377594, -1.1933937072753906, 0.523423433303833, 0.09297965466976166, 0.3198687434196472, -0.4127025008201599,
-1.6031010150909424, -0.48872384428977966, -0.35911092162132263, -0.06389965116977692, -0.24027207493782043, -0.4387417435646057, -0.3079240918159485, -0.1520444005727768, 0.17825095355510712, 0.7332596778869629, 0.6290803551673889, 0.5052323341369629,
0.4308777451515198, -0.7471185922622681, 1.664387822151184, 0.002493983367457986, -0.04057880863547325, -0.021412266418337822, 0.3636838495731354, -1.2352726459503174, 0.5399702191352844, -1.226102590560913, 1.4703370332717896, -1.5023221969604492,
0.42885392904281616, 0.11905505508184433, -0.07796633988618851, 0.08304889500141144, -0.015085184015333652, -0.03757520392537117, -1.1148124933242798, 1.0228551626205444, -0.0947892963886261, 0.1882173717021942, -0.07127152383327484, -2.3166677951812744,
-0.2785128951072693, 0.06125761196017265, -0.6493068933486938, -0.0117571372538805, -0.03887467458844185, -0.09440947324037552, -0.22299346327781677, 0.36184537410736084, 0.0943307876586914, -1.6040503978729248, 2.024932622909546, -1.156359314918518,
1.0012404918670654, 1.4022208452224731, -1.2496671676635742, -0.3347873389720917, 0.07439440488815308, 0.3388384282588959, 1.3296023607254028, 1.4593744277954102, 0.18711787462234497, -0.9113441109657288, -1.52326238155365, 1.1785314083099365,
1.142365574836731, 0.31468451023101807, -0.18502190709114075, 0.05863520875573158, 0.01868588849902153, -0.23249168694019318, 2.6008334159851074, 1.6533722877502441, 0.43047940731048584, -0.43724697828292847, -0.1877097636461258, -0.47502467036247253,
0.16076593101024628, -0.14560659229755402, -0.30328696966171265, -0.25158390402793884, -0.4101032316684723, -0.15589457750320435, 1.2274937629699707, 0.2766750454902649, 0.007247596513479948, 0.23119398951530457, -0.023672733455896378, 0.202714204788208,
0.18838132917881012, 0.4409540295600891, 1.6619216203689575, -0.06262888014316559, 0.03052370622754097, 0.08732519298791885, 1.3142788410186768, 1.7385642528533936, 0.4539002478122711, -2.5675408840179443, -1.6204833984375, -1.198305606842041,
0.33741307258605957, 0.07817618548870087, 0.8505409955978394, -0.0987834632396698, 0.03893990069627762, 0.04417918995022774, -0.7621510028839111, 0.8987658619880676, -0.13630443811416626, 0.19989030063152313, -0.031108947470784187, -0.7173501253128052,
-0.6916555166244507, 0.027311118319630623, 0.4091074466705322, -0.011193404905498028, -0.06279250234365463, -0.02866656892001629, 1.6988064050674438, 0.4584445059299469, 0.1437162160873413, 1.2728772163391113, -0.5327589511871338, -2.902265787124634,
-0.43378064036369324, -0.1082553043961525, 0.5928261280059814, 0.29097768664360046, -0.34050253033638, 0.2166939377784729, -0.594477117061615, -0.6609371900558472, -0.0637274831533432, 0.3602965474128723, 0.6098703742027283, -0.1296943724155426,
0.6193642020225525, 0.5804471373558044, 0.35809382796287537, -0.31368184089660645, 0.42660239338874817, 0.20626911520957947, 1.1186920404434204, 0.013313367031514645, 0.29437118768692017, -0.3974246382713318, -0.15598586201667786, -0.5995837450027466,
-0.25775349140167236, 0.8838973641395569, 0.23272256553173065, -0.09705173224210739, 0.02677145041525364, 0.010523397475481033, -0.3994028568267822, 1.3784857988357544, 0.029251016676425934, 1.7945793867111206, -2.6951279640197754, 0.4720265567302704,
0.2374969869852066, -0.31968674063682556, -1.0142372846603394, 0.1396350860595703, 0.00986508373171091, 0.016039486974477768, 1.14995539188385, -0.48435771465301514, 0.1485711932182312, -0.8304479718208313, 0.7687842845916748, 0.20025436580181122,
1.2355351448059082, -0.43148142099380493, -0.17680387198925018, 0.4265049993991852, 0.2505878806114197, 0.3284400999546051, 0.8265060782432556, 0.10412734746932983, -0.07724414765834808, -1.3331825733184814, 0.6651545166969299, 0.10443702340126038,
0.1256272792816162, 0.17899437248706818, -0.841477632522583, 0.2682843804359436, 0.09419762343168259, 0.2026536613702774, -0.30375662446022034, 0.8800589442253113, 0.007437442895025015, -0.25773778557777405, -0.0722087100148201, 0.43386054039001465,
-0.17674586176872253, 0.9909598231315613, 1.0459115505218506, -0.033471040427684784, 0.05627639219164848, 0.10945501923561096, 0.7331158518791199, -0.8835009932518005, 0.045155443251132965, 1.3506088256835938, -0.6378349661827087, -0.3535909652709961,
-0.6208929419517517, -0.304017037153244, 0.3548641800880432, 0.02557988464832306, -0.056169621646404266, -0.04578988254070282, -0.8514801263809204, -0.19253894686698914, 0.08712281286716461, 2.37955904006958, 2.234464645385742, -0.22671110928058624,
0.03568542003631592, -0.3602304756641388, 0.04991159215569496, 0.28556668758392334, 0.3346045911312103, -0.21221522986888885, -0.9748550653457642, 0.24086523056030273, 0.22726131975650787, -0.3428109884262085, 0.10493988543748856, 0.7771428823471069,
0.06221308186650276, -0.4699515700340271, -0.2835659086704254, 0.5138818025588989, -0.31856849789619446, 0.1523284614086151, -0.12384766340255737, -0.20651093125343323, 0.21656809747219086, 0.12532518804073334, 0.18646536767482758, 1.2575820684432983,
0.09757563471794128, -0.07879844307899475, -1.2824879884719849, -0.13372161984443665, -0.028824694454669952, 0.20457367599010468, -0.038573652505874634, -0.5850615501403809, 0.08394419401884079, -0.47983670234680176, 1.2464454174041748, 2.0306198596954346,
0.6999661326408386, 0.17377138137817383, 0.25479957461357117, -0.0285466481000185, -0.07109007984399796, -0.008432252332568169, -1.707919955253601, -1.9906494617462158, 0.00926463957875967, -0.20964482426643372, -1.0020649433135986, -0.5683163404464722,
0.5380427241325378, -0.07389968633651733, -0.3030303418636322, 0.04003584012389183, 0.07897935807704926, -0.018778584897518158, 0.8090529441833496, -0.5780571699142456, 0.2989369332790375, -0.5033754110336304, -0.07389213889837265, 0.2875150740146637,
-1.149964690208435, 1.3165688514709473, -0.4193823039531708, -0.05770057812333107, -0.10224060714244843, -0.11661835014820099, -2.130681037902832, 2.15024471282959, 0.014544280245900154, 0.9318111538887024, -1.0974348783493042, -0.08981715887784958,
0.15404975414276123, 0.18534260988235474, 0.43545106053352356, -0.029647979885339737, -0.015979668125510216, -0.10007849335670471, 0.25047218799591064, 0.6082234978675842, 0.45023345947265625, -1.0113301277160645, -0.8573186993598938, -2.118114471435547,
-0.17728783190250397, -1.0834532976150513, -0.44738197326660156, -0.07430893182754517, -0.019362956285476685, 0.2263045758008957, 0.15643683075904846, -0.21318624913692474, -0.0980270728468895, 0.6362756490707397, 2.1011226177215576, 0.7706499695777893,
-0.9581701755523682, -1.2316244840621948, -0.6212629675865173, -0.05399252474308014, -0.023469677194952965, 0.05380610376596451, -0.9647621512413025, -2.2332723140716553, 0.44004589319229126, 0.9628499150276184, 0.8347649574279785, 0.05043308809399605
};

const float biases_fc0[] = {
0.04185963049530983, -0.4178333580493927, 0.0460175983607769, 0.07866820693016052, 0.05480557307600975, -0.2632741630077362, 0.3743617832660675, -0.09130923449993134, -0.03854592517018318, 0.08887100219726562, 0.03968391194939613, -0.23261860013008118, 0.24905088543891907, -0.002331482246518135, 0.17611053586006165, -0.03816749155521393, 0.21201197803020477, -0.10191559791564941, 0.15591351687908173, 0.08315879106521606, -0.011316390708088875, 0.20934443175792694, -0.24124255776405334, -0.2468433529138565, -0.09665080159902573, -0.007852991111576557, -0.14611303806304932, -0.7141672372817993, -0.3428094983100891, -0.16544082760810852, 0.1346423476934433, 0.09033125638961792
};

const float weights_fc1[] = {
-0.21600408852100372, 0.15142692625522614, -0.20532724261283875, 0.03506148234009743, -0.05083366110920906, 0.25814640522003174, 0.1065211370587349, -0.2535855770111084, -0.3006889224052429, 0.3829192519187927, 0.3961713910102844, 0.2658340632915497, -0.18878810107707977, -0.23760254681110382, -0.6563407182693481, 0.13231509923934937, 0.2935631573200226, -0.013155701570212841, 0.07802089303731918, 0.053182389587163925, 0.4022251069545746, -0.6462364196777344, -0.1396525651216507, 0.132825568318367, 0.09805122017860413, 0.15115255117416382, -0.19845755398273468, 1.1043519973754883, 0.7211145758628845, 0.5268108248710632, -0.18417750298976898, 0.7351704835891724,
-0.4778168797492981, -0.7259172797203064, -0.37828317284584045, 0.11334911733865738, 0.07276628911495209, -0.2684490382671356, 0.15297186374664307, -0.017375385388731956, 0.09555812925100327, -0.1356230229139328, -0.8101194500923157, -0.5776939392089844, 0.4525139331817627, -0.07157351821660995, 0.1439267098903656, 0.03345784544944763, -0.03127175569534302, 0.04985162988305092, 0.12710939347743988, 0.034485120326280594, -0.10056637227535248, -0.504905641078949, -0.09831554442644119, -0.031190739944577217, -0.29940760135650635, -0.03924587741494179, -0.5921592712402344, 0.24116933345794678, -0.12774686515331268, 0.06712700426578522, 0.22428442537784576, -0.6024596691131592,
-0.06469552963972092, 0.14057804644107819, -0.060040559619665146, -0.20846453309059143, -0.23052051663398743, -0.007272231858223677, -0.3108653426170349, -0.12557733058929443, 0.32174360752105713, 0.08441450446844101, -0.6418973207473755, -0.05757337436079979, -0.2870819866657257, -0.08346688002347946, -0.210127592086792, 0.42076724767684937, 0.19704513251781464, 0.1808014214038849, -0.2026500552892685, 0.08497583866119385, 0.0023553711362183094, 0.36147019267082214, -0.09731700271368027, 0.0020312026608735323, 0.13130806386470795, -0.3089044392108917, 0.03861935809254646, -0.23291753232479095, -0.18912681937217712, 0.017819464206695557, -0.2782739996910095, -0.2459515780210495,
-0.17850156128406525, 0.12990616261959076, 0.3062685430049896, -0.3130250573158264, 0.30766740441322327, -0.27249935269355774, -0.41231462359428406, -0.03977693244814873, -0.1028212457895279, 0.05250389128923416, -0.09978413581848145, -0.2645513415336609, 0.10554219037294388, 0.22451986372470856, -0.07508111000061035, -0.11610204726457596, 0.4709419906139374, 0.15594373643398285, -0.3381578326225281, -0.496911883354187, -0.10087142884731293, 0.18508519232273102, -0.0739934891462326, -0.12688779830932617, -0.2794279456138611, -0.16728182137012482, -0.09120979905128479, 0.15365853905677795, -0.23047901690006256, 0.1474713683128357, -0.22045160830020905, -0.17409035563468933,
-0.5502678751945496, -0.05298808589577675, -0.2958645820617676, -0.3908889889717102, -0.08356854319572449, -0.38174793124198914, -0.5743151903152466, -0.1914854645729065, 0.06622142344713211, -0.2015988826751709, -0.2514643371105194, 0.02894575707614422, -0.45792561769485474, -0.03676031529903412, 0.17855997383594513, -0.07323552668094635, 0.2911469340324402, -0.2380131483078003, -0.0832812637090683, -0.1817803829908371, 0.009589849039912224, -0.7269101738929749, 0.29342547059059143, -0.0413845032453537, -0.06883929669857025, -0.2823142111301422, -0.1549919992685318, 0.20865239202976227, -0.3769291639328003, 0.5011310577392578, -0.5006346106529236, -0.11969268321990967,
-0.41071879863739014, 0.038271527737379074, -0.10365083068609238, -0.2882698178291321, 0.01236333791166544, -0.1466144174337387, -0.4583030641078949, -0.024371463805437088, -0.18216046690940857, 0.06706807017326355, 0.005747181363403797, 0.1664913445711136, -0.25271597504615784, -0.12594038248062134, -0.20789536833763123, -0.023078875616192818, 0.0606372244656086, -0.5268442034721375, -0.04148455709218979, 0.04526706784963608, -0.07090657949447632, -0.3008463680744171, -0.5883941054344177, 0.034683212637901306, -0.024055059999227524, -0.371004581451416, 0.054976142942905426, -0.24370098114013672, -0.07394521683454514, -0.42806288599967957, -0.18113936483860016, 0.07915186136960983,
0.10544849932193756, -0.6149226427078247, -0.7366307973861694, 0.03675134479999542, -0.33396264910697937, -0.008739710785448551, 0.165157750248909, -0.7038083076477051, 0.2730972468852997, 0.22536861896514893, -0.5456801056861877, 0.04680625721812248, 0.004725821316242218, -0.1725156009197235, -0.24569229781627655, 0.10909780859947205, -0.12239441275596619, 0.0023305362556129694, -0.013017921708524227, -0.6932565569877625, -0.216366708278656, -0.12012825906276703, 0.2116985321044922, -0.3311814069747925, 0.34539559483528137, 0.22003646194934845, 0.0889023020863533, 0.3800015151500702, -0.06911549717187881, 0.10669193416833878, 0.01356450468301773, -0.08893266320228577,
-0.01417400874197483, 0.03791341185569763, -0.20854637026786804, -0.2744871973991394, 0.23374581336975098, -0.26786676049232483, -0.3459985852241516, 0.16959334909915924, -0.019697772338986397, -0.08602192997932434, -0.09590663015842438, 0.08530405908823013, -0.2108798325061798, -0.24495312571525574, 0.29517149925231934, -0.2914259731769562, -0.01818535476922989, -0.11366794258356094, 0.005433710291981697, -0.13562023639678955, -0.09898801147937775, -0.1746176779270172, 0.013396518304944038, -0.16915351152420044, 0.057140134274959564, -0.22939305007457733, 0.20367440581321716, 0.0899670422077179, -0.419910728931427, 0.3505110740661621, -0.2975868582725525, -0.13316062092781067,
0.19283507764339447, -0.0622815378010273, 0.026729317381978035, -0.046480000019073486, -0.06074875220656395, -0.023566018790006638, -0.14684048295021057, -0.23362313210964203, 0.24220336973667145, 0.4784814417362213, -0.2857760190963745, 0.35981425642967224, -0.12885843217372894, -0.0004162251716479659, -0.6723512411117554, -0.4243089258670807, 0.10980521887540817, 0.37893667817115784, -0.6194626092910767, -0.6032764315605164, -0.34420034289360046, -0.1594550460577011, 0.029371492564678192, -0.12565253674983978, -0.2681420147418976, 0.5253353714942932, 0.025441544130444527, 0.3474832773208618, 0.020905671641230583, -0.02528904378414154, 0.11568836122751236, 0.08490842580795288,
-0.07013583183288574, 0.00933435745537281, 0.16117888689041138, 0.2776033580303192, -0.20617806911468506, 0.1189277246594429, 0.48927876353263855, -0.4585535526275635, 0.08660762012004852, 0.3859589397907257, 0.31081387400627136, 0.24120551347732544, 0.29890191555023193, 0.47073501348495483, 0.22481173276901245, -0.45777881145477295, 0.4562363028526306, 0.19079211354255676, -0.2624628245830536, 0.23212198913097382, -0.0037147875409573317, -0.02081037312746048, 0.25405576825141907, 0.054945748299360275, -0.06846179813146591, 0.22121240198612213, -0.49288782477378845, 0.17026738822460175, 0.38347068428993225, -0.061327043920755386, 0.35542789101600647, 0.17593011260032654,
-0.03161705285310745, -0.10995461046695709, -0.2209177166223526, -0.15512530505657196, -0.13800643384456635, -0.07875280827283859, 0.6031493544578552, 0.10260967165231705, -0.08838335424661636, -0.3624076247215271, -0.3574388921260834, -0.0396670363843441, 0.12151381373405457, 0.22994565963745117, -0.27665141224861145, 0.3323368728160858, 0.07511389255523682, 0.1595410704612732, -0.2066793590784073, 0.13943874835968018, -0.0065918490290641785, -0.13739526271820068, 0.21495646238327026, 0.20840446650981903, 0.24146237969398499, 0.20255547761917114, 0.6824769973754883, -0.1545896679162979, 0.04668071120977402, 0.07267598807811737, 0.163896381855011, 0.22014294564723969,
-0.17195457220077515, -0.2604709267616272, -0.2128669023513794, -0.1546599566936493, 0.07864243537187576, 0.20803600549697876, 0.5224842429161072, -0.07063280791044235, 0.22924301028251648, -0.604124128818512, -0.3068421483039856, -0.09108969569206238, -0.05131284147500992, -0.027407506480813026, -0.1275814175605774, 0.011896639131009579, -0.09299740940332413, -1.1241213083267212, -0.005535217467695475, 0.14384128153324127, -0.20778018236160278, -0.16084347665309906, 0.11924196034669876, 0.12174070626497269, 0.04844232276082039, -0.4363444745540619, 0.022768210619688034, -0.13524070382118225, -0.5686773061752319, -0.017124740406870842, -0.18194374442100525, -0.2994922995567322,
-0.07720839977264404, -0.09518211334943771, 0.059496089816093445, 0.2114744335412979, -0.28589144349098206, -0.6908091306686401, 0.16930535435676575, 0.21474090218544006, -0.47381526231765747, -0.2548418641090393, -0.12197660654783249, 0.14771319925785065, 0.053752489387989044, -0.013928077183663845, -0.37705954909324646, -0.5548771619796753, 0.2494276762008667, -0.05211588367819786, -0.021488187834620476, 0.02106432057917118, -0.03820372745394707, -0.42979782819747925, -0.41159582138061523, 0.16361941397190094, -0.03839147090911865, -0.042000215500593185, -0.14652636647224426, 0.2454596310853958, -0.4931316077709198, -0.10475286096334457, -0.059109121561050415, -0.5668488144874573,
-0.033170394599437714, 0.37471604347229004, 0.16495083272457123, 0.4077063500881195, 0.4594559967517853, -0.01817888580262661, -0.1444873958826065, -0.4077611267566681, 0.1576162576675415, 0.10572788119316101, -0.13691429793834686, -0.3719501793384552, -0.018160583451390266, -0.10334888100624084, -0.6160731315612793, -0.011247926391661167, 0.15288130939006805, 0.5785802006721497, -0.04501378908753395, 0.20704808831214905, 0.3324982523918152, -0.31689292192459106, 0.30929380655288696, 0.7102898359298706, 0.3027513921260834, -0.05993777886033058, 0.10957564413547516, 0.5912400484085083, 0.06265300512313843, -0.10472038388252258, 0.07820047438144684, 0.2494111806154251,
-0.2579788565635681, -0.07058662921190262, -0.16346615552902222, -0.5240233540534973, -0.07224700599908829, -0.5826554894447327, -0.34337276220321655, 0.5248004198074341, 0.23411716520786285, -0.14193129539489746, -0.3342631757259369, -0.36070314049720764, 0.42330202460289, 0.025611847639083862, 0.05318254232406616, -0.30469948053359985, -0.13346222043037415, 0.07354521006345749, -0.17168600857257843, -0.003960516303777695, 0.13876619935035706, -0.3349497318267822, -0.596827507019043, -0.03832681104540825, -0.418597936630249, 0.15390464663505554, -0.05702453851699829, -0.2754443287849426, -0.07304064929485321, 0.054545674473047256, -0.7104687094688416, -0.3791271448135376,
-0.020194076001644135, -0.050058890134096146, -0.12049414962530136, 0.06724297255277634, 0.013950148597359657, -0.08388196676969528, 0.1783214807510376, 0.028578629717230797, -0.15307669341564178, -0.13768543303012848, -0.08059022575616837, 0.046379491686820984, 0.030236665159463882, -0.1644108146429062, -0.14119873940944672, -0.06442820280790329, -0.06953909993171692, -0.17003720998764038, -0.05380617082118988, -0.08188237249851227, -0.11251657456159592, -0.07127723097801208, 0.03461899608373642, -0.053053177893161774, -0.09571359306573868, 0.0050786747597157955, -0.453742653131485, -0.3488979637622833, -0.12390456348657608, -0.25424516201019287, -0.2622740864753723, -0.05977918580174446,
0.04833991453051567, 0.06930771470069885, -0.010269802063703537, 0.2468414306640625, 0.30083027482032776, 0.14153555035591125, 0.2938886880874634, -0.20435158908367157, 0.003045107237994671, 0.011703652329742908, 0.051553308963775635, 0.07035259157419205, 0.4961692690849304, 0.008000774309039116, 0.10899943113327026, 0.026425009593367577, -0.0047116936184465885, 0.16915206611156464, -0.1631639152765274, -0.06224473938345909, 0.134924054145813, 0.38655170798301697, 0.2889261245727539, -0.022732390090823174, -0.004471073858439922, 0.24712920188903809, -0.18746954202651978, 0.3191969394683838, 0.36486321687698364, -0.02816571481525898, 0.2961367666721344, 0.19701389968395233,
0.153968945145607, -0.19289280474185944, -0.013629571534693241, -0.007257453631609678, -0.1940356343984604, -0.07747717201709747, -0.10903332382440567, -0.5349674224853516, 0.39134663343429565, -0.16417163610458374, -0.4354664981365204, -0.07961323112249374, -0.062452442944049835, -0.4201192259788513, -1.1981632709503174, -0.007893318310379982, -0.02144218422472477, -0.8109709620475769, 0.19605502486228943, -0.04179617390036583, -0.4279713034629822, -0.44120314717292786, -0.07340342551469803, 0.10593957453966141, -0.11995132267475128, 0.06582944095134735, -0.5758771896362305, 0.15898890793323517, -0.6968890428543091, -0.06676056981086731, -0.3761330246925354, -0.11729048192501068,
0.0720953568816185, 0.09712141007184982, -0.21521207690238953, -0.15404866635799408, 0.11023888736963272, -0.09506741911172867, -0.12644115090370178, -0.348140150308609, -0.011003674007952213, 0.18490463495254517, -0.009757466614246368, 0.0752062276005745, -0.5379663705825806, -0.2435220628976822, -0.1606835275888443, -0.028242113068699837, 0.07193034887313843, 0.0608239471912384, 0.1342042088508606, 0.007672172039747238, -0.010079370811581612, 0.06643074005842209, 0.02040090225636959, -0.04177490994334221, 0.02697972021996975, -0.27784404158592224, -0.5596830248832703, 0.261050820350647, 0.0993087962269783, -0.1792706698179245, -0.48874443769454956, -0.5219492316246033,
-0.7007588148117065, -0.3087829351425171, -0.8559098839759827, 0.11704979091882706, 0.038922153413295746, -0.05891333520412445, -0.07492701709270477, 0.325736939907074, 0.10604830831289291, -0.7555021047592163, -0.25324758887290955, -0.04400989040732384, -0.8291786313056946, 0.1972530484199524, 0.26831313967704773, -0.18175813555717468, -0.19430069625377655, 0.21214759349822998, -0.24318519234657288, -0.0933525338768959, 0.019136952236294746, -0.04738966003060341, 0.2636346220970154, 0.08706355094909668, 0.3369905352592468, -0.19547052681446075, -0.2302776575088501, 0.07898061722517014, -0.3227898180484772, -0.014133703894913197, -0.07381068170070648, -0.5424177050590515,
0.5622662305831909, 0.036210738122463226, -0.2737467586994171, 0.30027270317077637, -0.06595329195261002, 0.13704264163970947, -0.1725037842988968, 0.266144722700119, 0.36220476031303406, 0.4535623788833618, 0.22981855273246765, 0.11453171074390411, 0.5451638698577881, 0.04758816212415695, -0.6167184114456177, 0.22756007313728333, -0.4320772886276245, 0.5432088375091553, -0.1904623955488205, 0.11868263781070709, 0.2800299823284149, -0.19203299283981323, 0.22880637645721436, 0.2299937605857849, 0.23691633343696594, 0.22955961525440216, -0.07513529062271118, 0.4279165267944336, 0.7702244520187378, 0.14482758939266205, -0.1021423488855362, 0.2766650915145874,
-0.05599285662174225, -0.17221693694591522, -0.1938726156949997, -0.23785217106342316, 0.4325408935546875, 0.41011613607406616, 0.4196409285068512, 0.19982796907424927, 0.25298231840133667, -0.0395350381731987, 0.024517470970749855, 0.13739676773548126, 0.7869681715965271, -0.05085941031575203, 0.5387700796127319, 0.01653527282178402, -0.07155770808458328, -0.014598705805838108, 0.23159000277519226, 0.07645898312330246, -0.0246860533952713, 0.12469030171632767, -0.009860233403742313, -0.2674345076084137, -0.3507819175720215, 0.17787973582744598, -0.2815011143684387, 0.17543451488018036, -0.19066758453845978, 0.304654598236084, -0.48987409472465515, 0.03150947019457817,
0.013036204501986504, -0.12453850358724594, 0.18314380943775177, 0.05918242037296295, 0.3145696818828583, 0.03563859313726425, 0.2484620362520218, 0.5536912679672241, -0.07834994047880173, -0.11834822595119476, -0.22093486785888672, 0.04257350042462349, -0.14880889654159546, 0.0035482465755194426, 0.0061181411147117615, 0.010826978832483292, -0.1248600110411644, 0.09477974474430084, -0.021795285865664482, -0.1087137758731842, 0.03652730956673622, 0.057157523930072784, -0.11637551337480545, -0.1692180335521698, -0.011515447869896889, 0.21299396455287933, -0.058463774621486664, 0.0870295837521553, 0.15163755416870117, 0.2672770321369171, 0.029039153829216957, -0.1624407023191452,
-0.1552085280418396, -0.14011113345623016, -0.12978532910346985, -0.06618969142436981, -0.14703397452831268, 0.07779141515493393, -0.44683805108070374, 0.3333422839641571, -0.36208876967430115, -0.2551688849925995, -0.08189072459936142, 0.20459340512752533, -0.45667150616645813, 0.1684485524892807, 0.32456210255622864, 0.03625929728150368, 0.12318992614746094, -0.3055866062641144, -0.009459758177399635, -0.0023197380360215902, -0.02498922124505043, 0.003703195136040449, -0.14676938951015472, 0.15755629539489746, -0.11312147974967957, -0.5362725257873535, 0.15431371331214905, -0.03710133209824562, 0.16823142766952515, -0.17779035866260529, -0.01776188611984253, 0.1055244579911232,
0.0990586131811142, -0.1547316610813141, -0.04480113089084625, 0.14925935864448547, -0.14602620899677277, -0.0328742191195488, -0.13706733286380768, -0.35614779591560364, 0.05989682674407959, -0.22484421730041504, -0.3206733465194702, 0.2483113557100296, -0.00407449621707201, -0.16832293570041656, -0.4732827842235565, -0.7648426294326782, -1.1454737186431885, 0.402866929769516, -0.19530856609344482, -0.3743394911289215, 0.021482620388269424, -0.3865445554256439, 0.5111740827560425, 0.1921713501214981, -0.6576350331306458, 0.14261986315250397, -0.05988625809550285, 0.18068812787532806, 0.38781970739364624, 0.08838029950857162, -0.37025123834609985, -0.07568883895874023,
-0.3141013979911804, -0.24859030544757843, 0.17035235464572906, -0.028560250997543335, -0.30211305618286133, -0.4520312547683716, -0.3526275157928467, 0.24671851098537445, 0.0998150110244751, -0.552672803401947, -0.2478007823228836, -0.39359715580940247, 0.027173886075615883, -0.16290196776390076, -0.29176706075668335, -0.3019830584526062, 0.24729295074939728, -0.0989559069275856, -0.327268123626709, 0.13342943787574768, -0.14833594858646393, -0.13514798879623413, -0.4245297908782959, -0.02342417649924755, -0.2080388218164444, -0.3400966227054596, 0.2493421733379364, -0.0427892729640007, -0.9574787020683289, 0.44082051515579224, -0.388079971075058, -0.704687237739563,
-0.16803713142871857, -0.2540024518966675, -0.2581835985183716, 0.07383647561073303, -0.25824764370918274, 0.11705861240625381, -0.5491521954536438, -0.27506643533706665, -1.1954213380813599, 0.039807043969631195, 0.012759814038872719, -0.11125359684228897, -0.4715022146701813, -0.4615948796272278, -0.09830167889595032, -0.09171560406684875, 0.2000340074300766, 0.24056875705718994, -0.12178914994001389, -0.28985920548439026, 0.12777546048164368, 0.11089426279067993, 0.05774904415011406, -0.07396592944860458, -0.2510519325733185, 0.28919151425361633, -0.3720215857028961, 0.2775833308696747, 0.08917663246393204, -0.04116407781839371, -0.331830769777298, -0.18768645823001862,
-0.03438068553805351, -0.1596815586090088, -0.30432626605033875, -0.9830954670906067, -0.39597034454345703, 0.12763230502605438, -0.35187381505966187, 0.26656562089920044, -0.32751789689064026, -0.35405856370925903, 0.05986067280173302, 0.03327282890677452, -0.018291659653186798, 0.044978201389312744, 0.24501830339431763, -0.0663287416100502, -0.2958543598651886, 0.11377207934856415, -0.5083631873130798, -0.7802925109863281, -0.5177040100097656, -0.016857173293828964, 0.10330318659543991, -0.19724935293197632, -0.17882908880710602, -0.3403308391571045, 0.1735093891620636, -0.14520010352134705, 0.04925169050693512, 0.1636870801448822, -0.4633629024028778, -0.20078720152378082,
-0.2857995629310608, -0.19520989060401917, -0.1634238362312317, 0.21784381568431854, 0.15091490745544434, -0.14487561583518982, 0.1857212483882904, -0.2077264040708542, 0.22711226344108582, 0.1284443587064743, 0.11059345304965973, 0.2020607441663742, -0.617138147354126, -0.13191008567810059, -0.004495500586926937, -0.35071074962615967, -0.13273026049137115, -0.2579081356525421, -0.045740094035863876, -0.031837355345487595, -0.13217245042324066, -0.0957312136888504, 0.20990760624408722, -0.07036976516246796, -0.07248441874980927, 0.15875296294689178, -0.019129615277051926, 0.2292138785123825, -0.4649231433868408, -0.33994370698928833, 0.03742386773228645, 0.24646268784999847,
0.005751898046582937, -0.21428383886814117, 0.2046409249305725, 0.04171730577945709, 0.2680763900279999, 0.04848681017756462, -0.14943350851535797, -0.20464004576206207, 0.2697063088417053, 0.09769578278064728, 0.33536019921302795, -0.17396067082881927, 0.1745024025440216, -0.2639099657535553, 0.24525511264801025, -0.17983266711235046, 0.05964639410376549, -0.6773212552070618, 0.35286945104599, -0.20694252848625183, 0.13751645386219025, -0.5232717394828796, -0.2280733585357666, -0.16941803693771362, 0.1402713656425476, 0.42241358757019043, -0.06908415257930756, 0.11018407344818115, 0.008397148922085762, -0.043439581990242004, 0.022088399156928062, 0.3359493911266327,
-0.11532723903656006, 0.20742064714431763, -0.1402585208415985, 0.15216940641403198, -0.26816537976264954, -0.19707468152046204, -0.5644557476043701, 0.006168690975755453, -0.5297868847846985, 0.023011570796370506, -0.4607403576374054, 0.09457892179489136, 0.10294835269451141, -0.235816091299057, 0.2979487478733063, 0.17823883891105652, -0.025495273992419243, 0.07406771928071976, 0.14296472072601318, -0.07895353436470032, -0.09897340089082718, -0.13488321006298065, -0.39317113161087036, -0.10877656191587448, 0.01140118669718504, 0.08714769780635834, -0.17439021170139313, 0.14385202527046204, -0.22747354209423065, 0.051268234848976135, 0.04443987086415291, -0.19225263595581055,
0.056681837886571884, 0.30865809321403503, -0.1372668296098709, 0.02466561645269394, 0.23283900320529938, 0.006671207025647163, 0.25885263085365295, 0.23515187203884125, 0.21907520294189453, -0.030981602147221565, -0.12345905601978302, 0.1623641699552536, -0.12734490633010864, 0.09445352107286453, 0.11240124702453613, 0.029934260994195938, 0.03185146301984787, 0.2538275718688965, 0.1305312067270279, 0.08519430458545685, 0.13961516320705414, -0.14722920954227448, -0.3726058006286621, -0.20741239190101624, -0.19499409198760986, -0.05785078927874565, 0.005203269422054291, -0.1187538430094719, 0.270468145608902, 0.2335987538099289, 0.30097344517707825, 0.09292341768741608
};

const float biases_fc1[] = {
-1.262307047843933, -0.16721946001052856, -0.44219622015953064, -0.190725177526474, -0.7120893597602844, 0.040463827550411224, -0.11019743978977203, -0.43584802746772766, -0.24048125743865967, -0.18559102714061737, 0.1083160787820816, -0.3854130804538727, -0.26110196113586426, -0.45000702142715454, -0.26278945803642273, 0.368058443069458, -0.7500002384185791, -0.41906532645225525, -0.3893575966358185, -0.12341472506523132, 0.15528009831905365, -0.2422836571931839, 0.01911839284002781, -0.3157009780406952, -0.027407368645071983, -0.3387737572193146, -0.19115273654460907, -0.3012610971927643, -0.13646873831748962, 0.0001441360655007884, -0.13364887237548828, -0.09740377962589264
};

const float weights_fc2[] = {
-0.19384662806987762, 0.12132804840803146, 0.060589805245399475, 0.005928032100200653, -0.13001956045627594, -0.08076048642396927, -0.1157815158367157, 0.0056685954332351685, -0.1866772323846817, 0.03339666128158569, -0.07456327974796295, 0.00778228510171175, 0.041700687259435654, 0.22428283095359802, 0.06061578914523125, -0.039497047662734985, -0.06273990869522095, 0.08900390565395355, -0.030443698167800903, 0.04617762938141823, -0.07312421500682831, -0.030689315870404243, -0.0011400976218283176, -0.01979983225464821, 0.03247504681348801, -0.04068541154265404, 0.004545867443084717, -0.5197502970695496, 0.05389765277504921, 0.02682511694729328, 0.04965636506676674, 0.004843486472964287,
-0.013431002385914326, -0.17510223388671875, 0.012303594499826431, -0.2935234606266022, -0.054648756980895996, -0.000718092021998018, 0.17755582928657532, -0.035964809358119965, -0.2381567656993866, -0.19368447363376617, 0.0529884435236454, 0.15823155641555786, 0.02126532420516014, -0.0061911651864647865, -0.3550123870372772, 0.027131060138344765, -0.16997241973876953, 0.05816815420985222, 0.08164197206497192, 0.062433842569589615, 0.23853009939193726, -0.15014027059078217, 0.001403874484822154, 0.025674570351839066, 0.29410839080810547, -0.227316215634346, 0.04544423893094063, 0.0015798660460859537, 0.10463627427816391, 0.008531780913472176, -0.002563097281381488, -0.0036230660043656826,
-0.20974606275558472, -0.15468986332416534, -0.03690459951758385, -0.07589353621006012, -0.11452270299196243, -0.02649771049618721, -0.10603120177984238, 0.08378688246011734, 0.11148083955049515, 0.20518159866333008, -0.175601527094841, -0.09912186115980148, 0.13522447645664215, 0.11227339506149292, 0.09666015207767487, -0.0408548042178154, 0.017196573317050934, 0.0737093985080719, 0.07333081215620041, -0.435289591550827, -0.15030977129936218, 0.016081588342785835, 0.027454091235995293, -0.010293073020875454, 0.1716400384902954, 0.01053151860833168, 0.06610038131475449, 0.0291121955960989, -0.02320164442062378, 0.01081579364836216, -0.08135492354631424, 0.025047315284609795,
-0.05526956543326378, 0.09634264558553696, 0.07227035611867905, 0.051984142512083054, -0.05371785908937454, -0.018969185650348663, 0.16234126687049866, 0.06647046655416489, 0.2147693783044815, 0.05840617045760155, 0.08037509769201279, -0.35656076669692993, -0.20409266650676727, -0.26592209935188293, 0.05832662060856819, -0.03051595762372017, -0.23002533614635468, 0.006986704654991627, -0.03641321137547493, 0.07350543886423111, 0.04764785245060921, -0.05582216754555702, 0.018355973064899445, 0.0516136959195137, 0.07377239316701889, -0.23504173755645752, 0.1228746548295021, -0.053796734660863876, 0.043967507779598236, 0.053216636180877686, 0.03388897329568863, -0.005555275361984968
};

const float biases_fc2[] = {
0.14265021681785583, 0.1238744929432869, 0.18620018661022186, 0.17329950630664825
};

void nn_forward(const float* input, float* output) {
    const float* fc0_output = input;
    float fc1_output[32];
    nn_linear(weights_fc0, biases_fc0, fc0_output, 12, 32, fc1_output);
    nn_elu(fc1_output, 32);
    float fc2_output[32];
    nn_linear(weights_fc1, biases_fc1, fc1_output, 32, 32, fc2_output);
    nn_elu(fc2_output, 32);
    float* fc3_output = output;
    nn_linear(weights_fc2, biases_fc2, fc2_output, 32, 4, fc3_output);
    nn_elu(fc3_output, 4);
}