#include "neural_network.h"
#include "nn_helpers.h"

const float weights_fc0[] = {
-0.5611087679862976, 0.5687854290008545, 1.1020773649215698, -0.18970800936222076, -0.09758962690830231, -0.3439697027206421, -0.41288667917251587, 0.47043389081954956, 0.25156915187835693, 0.8765578866004944, -0.9847890734672546, -0.17114441096782684, -0.010987136512994766, -0.05233456939458847, -0.17653198540210724, -0.10798276960849762, -0.1621505171060562, 0.4706984758377075, 0.06611133366823196,
-0.7634234428405762, -0.08455204963684082, -0.055280085653066635, -0.06316512823104858, -0.1956114023923874, -0.11394374817609787, -0.24496597051620483, -0.3128403425216675, -0.3003937005996704, 0.5992795825004578, 0.16044794023036957, 0.3921011686325073, -0.5775259733200073, 0.26851317286491394, -0.06257739663124084, -0.39641186594963074, 0.35871562361717224, -0.08044077455997467, 0.9356840252876282,
0.09685672074556351, -0.3366265594959259, -0.892579197883606, -0.07954581081867218, -0.016662312671542168, -0.5197816491127014, 0.054802507162094116, -0.11672857403755188, -1.0047187805175781, -0.1597631871700287, 0.2571527659893036, 0.5209296345710754, 0.3795945942401886, 0.1779634803533554, 1.2456930875778198, 0.24392476677894592, -0.3990557789802551, 0.6268125772476196, -0.6951180100440979,
-0.06542935967445374, 0.2841525077819824, 0.021353760734200478, -0.27299198508262634, 0.7191953659057617, 0.35002315044403076, -0.2555272579193115, 0.25055962800979614, 0.30089110136032104, 0.27701106667518616, -0.09963288903236389, 0.11677807569503784, 0.3344685733318329, -0.16370469331741333, -0.608913004398346, 0.49279704689979553, -0.5842969417572021, 0.7266915440559387, -0.3178008198738098,
0.09349648654460907, -0.145419642329216, 0.3613205552101135, 0.1496109962463379, 0.12436016649007797, 0.09448148310184479, 0.12469511479139328, 0.847497284412384, -0.5545263290405273, -0.11342374980449677, 0.2531532347202301, -0.0775241032242775, 0.14904679358005524, 0.7811920046806335, -0.20974843204021454, 0.9659373760223389, 0.010499533265829086, 0.1891155242919922, -0.8091508746147156,
-0.2125995010137558, 0.08294852823019028, 0.0008781773503869772, 0.06444982439279556, 0.11029556393623352, 0.05667971074581146, 0.9328451156616211, -0.11341995000839233, -0.5882445573806763, 0.22349105775356293, -0.05780988186597824, -0.40690433979034424, 0.42696449160575867, -0.38727256655693054, -0.06859907507896423, 0.12251129746437073, -0.6728745102882385, 0.5607332587242126, -0.24910835921764374,
-1.0857501029968262, -0.013045130297541618, 0.4903026521205902, -0.07982399314641953, -0.01257723942399025, 0.24497218430042267, -0.5245881080627441, 0.0587296336889267, 0.5870285630226135, 0.45847150683403015, 0.2049051970243454, -0.05821618437767029, 0.00037905751378275454, -0.010050456039607525, 0.16935420036315918, -0.1506703794002533, -0.3549874424934387, -0.5908880233764648, 0.2083379626274109,
0.10863673686981201, -0.36466243863105774, -0.17407560348510742, -0.01094259787350893, 0.029838044196367264, 0.1421993374824524, -0.04302665963768959, 0.5503187775611877, 0.07466535270214081, -0.23574960231781006, -1.7443848848342896, -0.11271820217370987, -0.42624661326408386, -0.019238034263253212, -0.24579976499080658, -0.7149235010147095, -0.7716363072395325, 0.28930217027664185, 1.046396255493164,
-0.2373192459344864, 0.059305883944034576, -0.8225278854370117, 0.22176726162433624, -0.12779191136360168, 0.5348515510559082, -0.15224222838878632, 0.20300665497779846, -0.2618089020252228, -0.00585085479542613, 0.13314583897590637, -0.15358984470367432, -0.09940485656261444, -0.03735191002488136, -0.46298179030418396, -0.490782767534256, -0.5132218599319458, 0.14231203496456146, 0.35132989287376404,
-1.127526044845581, 0.29347649216651917, -0.5135821104049683, 0.09558884799480438, -0.03271941468119621, -0.3040572702884674, -0.18358640372753143, 0.09594713896512985, 0.3938928544521332, 0.10567457973957062, -0.011958482675254345, 0.033747803419828415, 0.1259467601776123, 0.1817282736301422, 0.2734770178794861, -0.8464750051498413, 0.634766697883606, -0.7484720945358276, 0.32154685258865356,
-0.1936301440000534, 0.1731560081243515, -0.4251248240470886, 0.2554919123649597, -0.0005169890937395394, -0.07260102033615112, -0.04391257464885712, 0.5890292525291443, -0.468856543302536, 0.23007075488567352, -0.4691823124885559, 0.2712779641151428, 0.3707656264305115, 0.23985475301742554, 0.1901409775018692, -0.20277303457260132, 0.3981224000453949, 0.15139131247997284, 0.961453914642334,
0.11407700181007385, 0.48292651772499084, 0.6318475604057312, -0.03207136690616608, 0.011815600097179413, 0.05128340423107147, -0.19259671866893768, -0.4586378037929535, -1.691702961921692, -0.16306692361831665, -1.0153868198394775, -0.8920319080352783, -0.004393535666167736, 0.02513628825545311, -0.022349681705236435, -0.2877056896686554, -0.15696199238300323, -0.22251634299755096, -0.017622070387005806,
0.00337358471006155, 0.11494320631027222, -0.35037583112716675, -0.279921293258667, 0.06349562853574753, 0.18048377335071564, 0.34169286489486694, 0.34473732113838196, -1.7497445344924927, -0.16731427609920502, -0.1319802850484848, 0.1685856133699417, 0.1500377655029297, -0.15782058238983154, -0.557125985622406, 0.40663301944732666, 0.43609529733657837, -0.8883540034294128, -0.446327269077301,
-0.18961259722709656, -0.004498743452131748, -0.31932395696640015, 0.09272043406963348, 0.04468826949596405, 0.40783676505088806, -0.220920592546463, -0.4368765652179718, -0.06989605724811554, -0.19299724698066711, -0.16927850246429443, 0.5097872614860535, -0.3340977430343628, -0.7721405625343323, -0.36019769310951233, 0.8277369737625122, 0.26966172456741333, -0.12055108696222305, -0.15891721844673157,
0.2690199911594391, -0.11676537245512009, 0.48742517828941345, 0.3846397399902344, 0.5808182954788208, -0.16184104979038239, 0.6025146245956421, -0.13202089071273804, 0.6865760684013367, -0.22288233041763306, 0.059561461210250854, 0.07546454668045044, -0.2590373456478119, -0.23623809218406677, 0.1451924443244934, -0.15881769359111786, 0.3265593349933624, 0.2649378478527069, 0.11185680329799652,
0.6385935544967651, 0.26133131980895996, -0.1256980448961258, -0.05705464631319046, -0.024813208729028702, -0.5202581286430359, 0.49580028653144836, 0.18544375896453857, 0.3116101920604706, -0.3878777325153351, -0.282525897026062, -0.07455535233020782, -0.19344380497932434, -0.5314205884933472, 0.35644179582595825, -0.10378361493349075, -0.07648373395204544, 0.631180465221405, 0.1692361980676651,
0.16880156099796295, 0.5537550449371338, 0.9603883028030396, -0.057400181889534, 0.033118657767772675, 0.17427055537700653, 0.355448842048645, 0.25729626417160034, 0.6549209356307983, -0.7377791404724121, -0.6643807888031006, -1.130800724029541, 0.24142439663410187, 0.5417525172233582, -0.10507667064666748, -0.33093270659446716, 0.35418185591697693, -0.3166508376598358, 0.08752380311489105,
0.24271321296691895, -0.20334133505821228, -0.5796934962272644, 0.08491669595241547, -0.15748408436775208, 0.22394834458827972, -0.06181959807872772, -0.19359686970710754, -0.6664751768112183, 0.10299614071846008, 0.4725106358528137, 0.4999043643474579, -0.17977772653102875, 0.24256478250026703, -1.542097568511963, -0.15214470028877258, -0.8577437996864319, 0.021443665027618408, 0.6969487071037292,
-0.4809468686580658, -0.21823342144489288, 0.2844862639904022, 0.24292956292629242, -0.08110731840133667, -0.25055447220802307, -0.07533346861600876, 0.06523997336626053, -0.2237313836812973, -0.132809579372406, 0.16546091437339783, -0.20042629539966583, 0.19760870933532715, -0.14247478544712067, 0.09357140213251114, 0.0705331489443779, -0.03330938518047333, -0.005330906715244055, -0.3999510705471039,
-0.11424162983894348, 0.15045209228992462, -0.19340616464614868, -0.045640092343091965, -0.05289534851908684, -0.09930595755577087, 0.17521095275878906, 0.6180099844932556, -0.9495324492454529, 0.06567706912755966, -0.1688740998506546, 0.5054637789726257, -0.025319624692201614, -0.31936734914779663, 0.1764581948518753, -0.2564472258090973, -0.40345141291618347, -0.6442288160324097, 0.18121282756328583,
-0.12590250372886658, 0.23600435256958008, 0.30022212862968445, -0.10080692917108536, -0.16793067753314972, 0.06838986277580261, -0.6173906326293945, 0.4523800313472748, -0.27610448002815247, 0.3088867664337158, -0.5217485427856445, -0.40477752685546875, 0.5273187160491943, 0.4016699194908142, 0.02279319055378437, -0.20539318025112152, 0.6982527375221252, -0.0884590819478035, 0.4761773943901062,
-0.1398874670267105, -0.3224713206291199, 0.27795523405075073, 0.12433350831270218, 0.037579141557216644, -0.06623781472444534, -0.23333914577960968, 0.14470326900482178, -0.8672968149185181, 0.04727163910865784, 0.7267900705337524, -0.35828930139541626, -0.050356797873973846, 0.2742297649383545, 0.7046038508415222, -0.7321619391441345, 0.5581158399581909, -0.39758461713790894, 0.631991446018219,
0.3888274133205414, 0.12298935651779175, 0.3734920918941498, 0.3485094904899597, 0.058484263718128204, 0.1685802936553955, 0.4853357970714569, 0.1715562492609024, 0.20433878898620605, -0.381415992975235, -0.020269906148314476, -0.13872995972633362, -0.09354418516159058, 0.047681428492069244, -0.10242904722690582, -0.7444012761116028, -0.5810751914978027, 0.08396569639444351, 0.346031129360199,
0.10654255002737045, 0.07296096533536911, 0.539142906665802, -0.032310277223587036, 0.24513715505599976, 0.0009086756617762148, -0.1714293211698532, -0.18866191804409027, -0.01665325090289116, -0.19792544841766357, -0.014895707368850708, -0.02873344160616398, -0.3308573067188263, -0.11407189816236496, 0.31243470311164856, 0.20211046934127808, -0.0818542093038559, 0.7925008535385132, 0.8137847781181335,
-0.4482041597366333, 0.2464296966791153, 0.1041833832859993, 0.17633065581321716, 0.03681521490216255, -0.05446048825979233, -0.6428096294403076, 0.3937203884124756, 0.3063751757144928, 1.5970582962036133, -1.2276437282562256, -0.9483308792114258, 0.11770503968000412, 0.25776827335357666, 0.337839275598526, 0.48132985830307007, -0.20526909828186035, 0.3491469621658325, -0.20832596719264984,
0.3103366196155548, 0.2491564154624939, -0.3392045497894287, -0.028717119246721268, -0.011401588097214699, 0.04472736641764641, 0.1874859780073166, 0.3651972711086273, -0.69626384973526, -2.2044835090637207, -0.49625474214553833, -0.2332518845796585, -0.0061350935138762, 0.13687126338481903, -0.004894903860986233, -0.4456564486026764, -0.03910035640001297, 0.049127742648124695, 0.47082626819610596,
0.5172911286354065, 1.5098576545715332, -0.32867535948753357, -0.11765823513269424, -0.0018936570268124342, -0.041670866310596466, -0.12018407136201859, 0.1816658228635788, 0.13539372384548187, -0.24725867807865143, -0.7179341912269592, 0.20922881364822388, 0.5058158040046692, -0.2908150851726532, 0.3714578151702881, -0.3011320233345032, 0.30616357922554016, -0.41958481073379517, -0.06548191606998444,
-0.252636194229126, 0.2002256065607071, -0.18760189414024353, 0.3932155966758728, 0.2838006913661957, -0.03210028260946274, -1.1013325452804565, 0.10312427580356598, -0.851324737071991, -0.07758831232786179, 0.15064582228660583, 0.5286461114883423, -0.29523780941963196, 0.6039995551109314, -0.09642073512077332, -0.6490254998207092, -1.0626522302627563, 0.5969428420066833, 0.17938962578773499,
-0.4920993149280548, -0.22083143889904022, 0.5378199815750122, 0.01094161719083786, -0.029504837468266487, -0.029581284150481224, 0.15424755215644836, -0.39778390526771545, -0.004884934052824974, 0.6591336131095886, 0.7654862403869629, -0.40680232644081116, -0.29263103008270264, -0.5515309572219849, 0.4144725203514099, 0.03421124815940857, -0.6529759168624878, 0.8156675100326538, 0.24576438963413239,
-0.10160232335329056, -0.005932665895670652, -0.4284248650074005, -0.07319524884223938, 0.03648978844285011, -0.034684184938669205, 0.35223469138145447, 0.13395264744758606, -0.1097804605960846, 0.684433102607727, -0.17690202593803406, 1.0145906209945679, -0.0517035573720932, -0.22249358892440796, 0.17277997732162476, 0.24631822109222412, 0.1289777159690857, -0.12874160706996918, -0.29735952615737915,
-0.26322680711746216, 0.6801697015762329, 0.09765713661909103, -0.10471267253160477, -0.08362050354480743, 0.006945048924535513, -0.43714678287506104, 0.7181467413902283, -0.44154682755470276, 0.48985055088996887, -0.7836859822273254, -0.25144341588020325, 0.057451993227005005, -0.2671577036380768, -0.3286091089248657, 0.4451778829097748, -0.3586798310279846, 0.47803834080696106, 0.41104015707969666,
0.07486479729413986, -0.12315212190151215, -0.06575590372085571, 0.00784163549542427, -0.06309868395328522, -0.02848990447819233, 0.49312838912010193, 0.23844605684280396, -0.7180707454681396, 0.11571122705936432, -0.06325136870145798, 0.11820066720247269, -0.3397943079471588, -1.5233428478240967, -0.030985597521066666, -0.5709826946258545, -0.8051765561103821, 0.35283362865448, -0.04642508178949356
};

const float biases_fc0[] = {
0.011634738184511662, 0.021754391491413116, 0.0062483674846589565, 0.0025315885432064533, 0.04124344885349274, -0.015494516119360924, -0.01274100225418806, 0.0058057717978954315, 0.0016091978177428246, -0.03584001585841179, 0.05948329344391823, 0.029207687824964523, 0.00513430405408144, 0.011789021082222462, 0.009935966692864895, 0.005772755481302738, -0.07009461522102356, -0.005857201758772135, -0.0013047019019722939, -0.005863133352249861, 0.014860454015433788, -0.008672784082591534, -0.02459569089114666, 0.025660214945673943, -0.01188671588897705, -0.008985371328890324, -0.013303577899932861, -0.0006488006329163909, -0.01231999322772026, 0.004626159556210041, 0.0054024746641516685, -0.010350306518375874
};

const float weights_fc1[] = {
-0.20381927490234375, -0.17519107460975647, 0.015019525773823261, 0.23016786575317383, 0.2259991317987442, 0.3607208728790283, -0.5124695301055908, -0.059602297842502594, -0.13932982087135315, -0.18654297292232513, 0.3632243871688843, 0.3366937041282654, 0.24023057520389557, 0.7446213960647583, 0.4305908977985382, 0.3575194776058197, 0.21312446892261505, -0.21374940872192383, -0.27318984270095825, -0.060927923768758774, -0.0452134907245636, -0.4963800609111786, 0.10138643532991409, 0.06320112943649292, 0.20195123553276062, 0.4223175644874573, 0.05324805900454521, -0.12014763802289963, 0.10584990680217743, -0.45662108063697815, 0.1587013155221939, -0.1306179165840149,
-0.37765294313430786, 0.12686720490455627, -0.23962873220443726, -0.37904831767082214, -0.4613007605075836, -0.14370444416999817, 0.1143440529704094, -0.2961723506450653, -0.5977718234062195, -0.4323875606060028, -0.020973676815629005, 0.6043534874916077, 0.6186606884002686, 0.10065314173698425, 0.11552946269512177, -0.2587767541408539, -0.8587288856506348, 0.034568216651678085, -0.2349957525730133, 0.07958438247442245, 0.19897878170013428, 0.467117577791214, -0.4753217399120331, 0.41541755199432373, -0.4773103892803192, 0.09852135181427002, -0.529022753238678, -0.006215940695255995, -0.3057211935520172, 0.006974727381020784, 0.4628554880619049, 0.32460683584213257,
0.35859188437461853, -0.3979748785495758, -0.06150228902697563, 0.10574768483638763, -0.011544838547706604, -0.013394427485764027, 0.09979581832885742, 0.0608331523835659, 0.08916101604700089, -0.5108994245529175, 0.588911771774292, 0.7327780723571777, 0.3352978825569153, -0.1273363083600998, -0.5151866674423218, 0.21786591410636902, 0.4023277759552002, 0.46351906657218933, 0.26970329880714417, 0.24871152639389038, 0.34406188130378723, 0.15630768239498138, 0.1273510903120041, -0.03949929401278496, 0.03575556352734566, 0.3164141774177551, 0.1612909436225891, 0.3847110867500305, 0.3742085099220276, -0.022706594318151474, -0.5145983695983887, 0.12937553226947784,
0.2090918868780136, 0.07483343034982681, 0.2708496153354645, -0.09673432260751724, 0.8434559106826782, 0.004325073212385178, 0.213737353682518, -0.5854672193527222, 0.3100736141204834, -0.1761673241853714, -0.11161275953054428, -0.4518306255340576, 0.17048446834087372, 0.5262546539306641, 0.13715803623199463, -0.3452003300189972, -0.3729028105735779, 0.43779057264328003, -0.020950261503458023, -0.32450389862060547, -0.3909705877304077, 0.04197707772254944, -0.05445457622408867, 0.17856965959072113, 0.14516766369342804, -1.4558805227279663, 0.17277483642101288, 0.07887822389602661, 0.3822416365146637, -0.036289870738983154, -0.22946763038635254, -0.49841931462287903,
-0.22698625922203064, -0.5560370683670044, 0.24046678841114044, 0.24114321172237396, 0.026272086426615715, 0.14785678684711456, -0.4294138252735138, -0.022329140454530716, 0.10864481329917908, -0.11122801154851913, -0.2606125473976135, -0.10441047698259354, -0.3942807614803314, 0.42870616912841797, -0.11734610795974731, -0.5264841914176941, 0.2735294699668884, 0.44785720109939575, -0.21140123903751373, 0.2820545434951782, 0.1286076009273529, -0.313197523355484, -0.24751152098178864, 0.07202871143817902, -0.1778135448694229, 0.04762900248169899, 0.006231675390154123, -0.6881622076034546, -0.007166619878262281, 0.2578110694885254, -0.017749261111021042, -0.1356874257326126,
-0.5368595719337463, -0.3353607654571533, 0.8070680499076843, -0.13477016985416412, 0.3301860988140106, 0.4864102303981781, -0.692548394203186, -0.1230660006403923, 0.2461978942155838, -0.4343681037425995, 0.3462883532047272, 0.2559249699115753, 0.3529997169971466, -0.33998116850852966, -0.16987188160419464, 0.38269251585006714, -0.21187925338745117, -0.17274609208106995, -0.2746572494506836, 0.2414053976535797, -0.5090996026992798, 0.2790411412715912, -0.611769437789917, -0.06468509137630463, -0.6632035970687866, 0.04529966786503792, 0.6125742197036743, -0.10399973392486572, 0.21224133670330048, 0.06457235664129257, 0.4943566620349884, 0.2784822881221771,
0.3561882972717285, 0.34787142276763916, 0.6833136677742004, -0.39311903715133667, -0.7732864022254944, -0.4071626663208008, -0.11101146042346954, 0.4039613604545593, -0.11271525174379349, 0.29854077100753784, 0.2803928256034851, 0.3260958194732666, -0.14728166162967682, -0.047175332903862, 0.22794373333454132, 0.16965557634830475, 0.09300240874290466, -0.010389106348156929, 0.06662532687187195, 0.16356755793094635, 0.15431790053844452, 0.38699638843536377, -0.3883513808250427, -0.008015709929168224, 0.012337105348706245, -0.20483435690402985, 0.06432390958070755, -0.08643617480993271, 0.07167088240385056, -0.28374922275543213, 0.1793833076953888, -0.4377983510494232,
-0.42149826884269714, 0.08189383149147034, -0.12921230494976044, -0.030887264758348465, 0.37733957171440125, 0.27642378211021423, 0.2747744619846344, 0.18783675134181976, -0.4201633930206299, -0.559269905090332, -0.37465474009513855, 0.027344880625605583, -0.18317881226539612, -0.410970538854599, 0.32819828391075134, 0.15976372361183167, 0.3317004442214966, -0.23103351891040802, 0.178548663854599, 0.022523317486047745, -0.6143277883529663, -0.018050843849778175, -0.45438018441200256, 0.2811856269836426, -0.1351887583732605, 0.2733784019947052, 0.05763919651508331, -0.16473719477653503, 0.1681787371635437, -0.06759832799434662, -0.11139200627803802, -0.03541241213679314,
0.15510793030261993, -0.18150562047958374, -0.1404140293598175, 0.04024052619934082, -0.138540118932724, 0.004203878343105316, 0.17280010879039764, 0.8976603746414185, 0.01907988265156746, 0.14463171362876892, 0.5680819749832153, 0.015672238543629646, 0.08875749260187149, -0.2734605073928833, -0.4701596200466156, 0.03556988388299942, -0.15496112406253815, -0.3995687961578369, -0.2681830823421478, 0.14745065569877625, 0.4612368047237396, -0.3805992007255554, 0.10721713304519653, -0.25529831647872925, 0.36679983139038086, -0.441497802734375, 0.4464738368988037, 0.5506716370582581, -0.5971646308898926, 0.4967746436595917, 0.8835909962654114, -0.24556195735931396,
0.4677896201610565, -0.24269483983516693, -0.6813685297966003, 0.23617976903915405, 0.23762987554073334, 0.3178418278694153, -0.246662437915802, -0.019411327317357063, 0.106022909283638, 0.3390060067176819, -0.31521034240722656, -0.06695837527513504, 0.7941981554031372, 0.01933322101831436, -0.01311334129422903, -0.20784419775009155, 0.042162712663412094, 0.35384681820869446, -0.10542751103639603, -0.09642045944929123, -0.34268462657928467, -0.05773541331291199, -0.061482060700654984, 0.3429044783115387, 0.15428897738456726, 0.08622824400663376, 0.38671430945396423, -0.09575024992227554, 0.14932529628276825, -0.08011874556541443, -0.24213214218616486, -0.350858211517334,
0.01271966565400362, 0.864598274230957, -0.10508041083812714, -0.04299517348408699, 0.06141657009720802, -0.43628010153770447, -0.4795939326286316, -0.09509026259183884, 0.05733504518866539, 0.16445061564445496, 0.21140751242637634, 0.7868315577507019, -0.4454920291900635, -0.0895686149597168, -0.0012432895600795746, -0.15347649157047272, -0.142897367477417, 0.3819410502910614, 0.05314522609114647, -0.5036062002182007, -0.13304640352725983, 0.2710983455181122, 0.21177351474761963, 0.6364569664001465, 0.07572870701551437, -0.13567575812339783, 0.054581861943006516, 0.406645804643631, 0.2180580198764801, 0.26729682087898254, -0.09435176849365234, -0.1847189962863922,
-0.9884523153305054, 0.1268213540315628, 0.26444345712661743, -0.3680090010166168, 0.04106270521879196, -0.09601013362407684, -0.19165226817131042, -0.45260781049728394, -0.03774845227599144, 0.38621440529823303, 0.21370264887809753, -0.3475624620914459, 0.634082555770874, 0.3321601152420044, 0.29539915919303894, 0.3164876401424408, 0.4289933741092682, 0.10651949793100357, 0.17045719921588898, -0.3190266788005829, -0.4805155396461487, 0.43658456206321716, 0.32782062888145447, -0.47499167919158936, -1.18076753616333, 0.6664645075798035, -0.045176152139902115, -0.08080854266881943, -0.7565628886222839, 0.6482428312301636, -0.8642618656158447, -0.05297699198126793,
0.2828843295574188, 0.34392768144607544, -0.34358248114585876, 0.5263567566871643, 0.32345640659332275, -0.32333528995513916, 0.43452727794647217, -0.40500983595848083, 0.017881441861391068, 0.311016708612442, 0.6172633767127991, 0.08642669022083282, 0.1973545253276825, 0.331041157245636, 0.5277106761932373, 0.30292782187461853, 0.29057902097702026, -0.17026232182979584, 0.10393372178077698, -0.032863255590200424, 0.43632078170776367, 0.23896153271198273, -0.18442587554454803, 0.34856441617012024, 0.3675462305545807, 0.24573171138763428, 0.07648127526044846, -0.37725967168807983, -0.08682432770729065, 0.25020265579223633, 0.21651263535022736, 0.1030392050743103,
-0.150552898645401, -0.14460112154483795, -0.42192602157592773, -0.17796599864959717, 0.17114390432834625, -0.23793084919452667, -0.009704816155135632, -0.1898820847272873, -0.3210243880748749, 0.7260894179344177, -0.28401413559913635, 0.16075499355793, -0.41048023104667664, -0.05700455978512764, -0.23466110229492188, -0.07030447572469711, -0.07142451405525208, -0.17058630287647247, 0.4823215901851654, 0.28567788004875183, 0.10663260519504547, 0.21012017130851746, -0.09338212013244629, -0.1263209879398346, -0.7797707319259644, -0.14928898215293884, -0.3193087577819824, -0.08291427046060562, -0.010854999534785748, -0.22257345914840698, 0.059504926204681396, -0.493594229221344,
0.5492568016052246, 0.11967166513204575, 0.29407843947410583, -0.02527107112109661, 0.6387985944747925, 0.4753744304180145, 0.2234489917755127, 0.06899677962064743, -0.5644534230232239, 0.004596887622028589, 0.298878937959671, 0.18446242809295654, 0.8132792115211487, -0.1587739735841751, -0.2750290632247925, -0.1726694107055664, -0.08593057096004486, -0.3955376446247101, 0.15552955865859985, 0.3169209659099579, 0.30634376406669617, -0.0009671797160990536, 0.09791798144578934, -0.3034939467906952, -0.059854429215192795, -0.2721777558326721, 0.09041422605514526, -0.45151379704475403, -0.3093082308769226, 0.11622049659490585, -0.04323386028409004, -0.2881862223148346,
-0.005168522708117962, 0.6556313037872314, -0.7858700156211853, -0.4849933087825775, -0.27704453468322754, -0.06747227907180786, -0.1596229076385498, -0.045288097113370895, 0.2549821138381958, 0.19183580577373505, 0.14579452574253082, -0.1649080216884613, 0.06698045134544373, -0.040389616042375565, 0.2752489745616913, -0.8388394713401794, 0.23395948112010956, -0.2426062524318695, -0.15877665579319, 0.4387531280517578, 0.5099396109580994, 0.376333624124527, 0.0839974656701088, -0.2805478870868683, 0.2779846489429474, -0.16767603158950806, -0.19916467368602753, -0.032599303871393204, 0.2570832669734955, 0.18858925998210907, 0.5043242573738098, -0.6076939702033997,
0.384457528591156, -0.4756019413471222, -0.3318365216255188, -0.5046053528785706, 0.31194329261779785, 0.09104862064123154, -0.147330641746521, 0.3165969252586365, -0.006119411438703537, 0.003538690973073244, -0.5751598477363586, -0.02742200531065464, -0.22906474769115448, 0.19956530630588531, -0.2475099116563797, 0.06250886619091034, 0.3129807412624359, -0.5193597674369812, -0.3522898852825165, -0.0734248235821724, -0.37699490785598755, 0.7316555380821228, -0.24180230498313904, -0.06365613639354706, -0.21758808195590973, 0.18548628687858582, -0.4479997158050537, -0.1400122046470642, -0.20708632469177246, -0.39654701948165894, 0.20625340938568115, -0.2617932856082916,
-0.3528602123260498, 0.039089102298021317, 0.2872729003429413, -0.10471153259277344, -0.3890301287174225, 0.325491338968277, 0.3025738596916199, -0.20977920293807983, -0.14938601851463318, 0.4001401662826538, 0.6072877049446106, -0.43435752391815186, -0.11005180329084396, 0.288368284702301, -0.05172645300626755, -0.34452271461486816, -0.1751687228679657, 0.3706958293914795, -0.0644589364528656, -0.06724385917186737, -0.6084230542182922, 0.34174609184265137, -0.33310213685035706, -0.5913811326026917, -0.10791543871164322, 0.18672944605350494, 0.21156781911849976, 0.04438568651676178, -0.4791939854621887, -0.0818854495882988, -0.23581868410110474, 0.06256535649299622,
0.04294780641794205, -0.06717009842395782, 0.025360576808452606, -0.16755986213684082, 0.152455672621727, -0.6105166673660278, -0.3327729105949402, -0.43210655450820923, -0.21358376741409302, -0.2162993848323822, -0.018496399745345116, 0.05864496901631355, 0.4584358036518097, 0.6144658327102661, 0.13226188719272614, 0.14886857569217682, -0.30762696266174316, -0.8058593273162842, 0.2477828860282898, 0.04268627613782883, -0.007077913265675306, -0.21966493129730225, -0.20732775330543518, -0.5528571605682373, 0.2835574746131897, 0.1694655567407608, 0.4657425880432129, -0.27041175961494446, -0.27647557854652405, 0.43607792258262634, 0.11118229478597641, -0.4636317491531372,
0.05891569331288338, -0.12096543610095978, -0.3352994918823242, 0.11297821998596191, 0.023022187873721123, -0.1433173567056656, -0.13052025437355042, 0.17833781242370605, -0.540557324886322, -0.05853709205985069, -0.2614160478115082, -0.5417657494544983, -0.09800401329994202, 0.10487733781337738, 0.5618367791175842, -0.34568941593170166, 0.3497888445854187, -0.511649489402771, 0.013164607807993889, 0.052048731595277786, 0.007008027750998735, 0.25583457946777344, 0.15949855744838715, 0.013314985670149326, -0.23030433058738708, -0.43590864539146423, 0.2389068603515625, 0.32320624589920044, -0.2208026945590973, 0.2257501184940338, -0.10860361158847809, 0.4768903851509094,
0.04764953628182411, -0.16154755651950836, 0.3975796103477478, 0.03672589361667633, 0.09647732973098755, 0.3865383267402649, -0.4631377160549164, 0.03119591251015663, -0.5205702185630798, -0.23502756655216217, 0.06688734143972397, -0.5452746152877808, 0.05720485746860504, 0.1823268085718155, -0.14959770441055298, 0.3088310658931732, 0.04953472316265106, 0.06203475221991539, 0.06041925027966499, 0.2756694257259369, -0.3722879886627197, -0.5145143270492554, -0.23894454538822174, 0.3537646234035492, 0.3231208920478821, 0.3032230734825134, -0.6157220602035522, 0.5695168972015381, 0.05702781304717064, 0.344450980424881, 0.4673870801925659, -0.19246415793895721,
0.3057432472705841, -0.13076436519622803, -0.06164051219820976, -0.09787476807832718, -0.30538085103034973, 0.3832587003707886, 0.299660325050354, -0.5048475861549377, 0.2633686363697052, -0.35350847244262695, -0.5841621160507202, -0.018760045990347862, 0.09785512834787369, 0.019230840727686882, 0.019605398178100586, -0.0993308275938034, -0.0870668962597847, 0.10268707573413849, -0.015298888087272644, 0.1054358035326004, -0.2884550094604492, -0.21701714396476746, 0.10057380050420761, 0.5253090858459473, -0.28244659304618835, -0.10129611939191818, 0.4266722798347473, 0.4070907235145569, -0.1805844008922577, 0.1398829072713852, 0.40780240297317505, -0.1482962816953659,
-0.16794657707214355, 0.005669229663908482, -0.006746815983206034, -0.16578826308250427, 0.32213151454925537, 0.42696818709373474, 0.2263062745332718, 0.22632621228694916, 0.0757586807012558, -0.1001565232872963, -0.10196249932050705, -0.3257684111595154, 0.017399517819285393, 0.6977413892745972, -0.26417025923728943, -0.11785899847745895, 0.022202549502253532, 0.3292563259601593, 0.6238246560096741, -0.4174538850784302, 0.0759650468826294, -0.10542963445186615, -0.2785094082355499, 0.5409256219863892, -0.10874712467193604, 0.3627011775970459, -0.1510688215494156, -0.0066544548608362675, 0.17371828854084015, -0.09720645844936371, 0.23130205273628235, 0.17570385336875916,
-0.22576047480106354, 0.34188082814216614, -0.341208815574646, 0.17778955399990082, -0.03389369323849678, -0.5674684047698975, -0.35794690251350403, 0.18301604688167572, 0.28336265683174133, 0.1892775148153305, 0.05359886586666107, -0.3878585696220398, 0.6440594792366028, -0.0525776743888855, -0.4111633002758026, -0.17074891924858093, -0.090403251349926, 0.28587308526039124, -0.18095892667770386, 0.23954527080059052, 0.5158559083938599, 0.16858859360218048, -0.24588821828365326, 0.12804348766803741, 0.09534797072410583, -0.29148900508880615, 0.45864298939704895, -0.04806779697537422, -0.7369387745857239, -0.07687465101480484, -0.10598722845315933, -0.5030800700187683,
-0.1828497052192688, -0.2141963094472885, -0.550964891910553, -0.306917667388916, 0.05346585810184479, -0.03377067297697067, -0.3546983003616333, -0.18613407015800476, -0.47416871786117554, -0.21174080669879913, -0.3586868941783905, 0.010705769062042236, 0.12275463342666626, 0.01780836284160614, -0.2367781102657318, -0.6017670631408691, 0.019353115931153297, -0.2298683226108551, 0.191572904586792, -0.3760533034801483, -0.2231244295835495, -0.014061015099287033, 0.18767260015010834, -0.24548007547855377, 0.37840238213539124, -0.7522485256195068, -0.33130207657814026, 0.012171017937362194, 0.013282688334584236, -0.374869167804718, 0.8253916501998901, -0.32386890053749084,
-0.6844370365142822, 0.15255014598369598, 0.05429888889193535, -0.517167866230011, 0.3877486288547516, 0.3972277343273163, -0.6127816438674927, -0.5817871689796448, 0.07985182106494904, -0.43113261461257935, 0.48099273443222046, 1.19416081905365, 0.534618079662323, 0.21890735626220703, -0.07439582049846649, -0.3265566825866699, -1.3522673845291138, 0.07460573315620422, 0.1373681277036667, 0.6849302053451538, -0.6747905611991882, 0.039746783673763275, -0.17003753781318665, -0.04304032027721405, -0.703423023223877, -0.2532717287540436, -0.4729350507259369, -0.0043945047073066235, -0.3661896884441376, -0.08962981402873993, -0.5656105875968933, 0.38251596689224243,
-0.31023287773132324, 0.04601695016026497, 0.6310532093048096, 0.01326666958630085, -0.29373571276664734, 0.07987792789936066, 0.011086606420576572, -0.3341156244277954, -0.5890841484069824, 0.2333298623561859, -0.0028598823118954897, 0.37574347853660583, -0.9416289329528809, -0.33944883942604065, -0.07862025499343872, 0.11865165084600449, -0.1991645246744156, -1.1466090679168701, 0.37531355023384094, 0.16126687824726105, 0.24463392794132233, 0.8042401671409607, 0.6503325700759888, 0.4441448748111725, 0.4471120536327362, -0.037237491458654404, 0.13095982372760773, -0.5822504162788391, 0.18807440996170044, 0.044392090290784836, -0.04944334551692009, -0.45415905117988586,
-0.810833215713501, 0.007400593254715204, -0.29977425932884216, -0.47643178701400757, -0.21650370955467224, -0.27774420380592346, -0.09568239003419876, -0.06729578971862793, -0.3374660611152649, 0.12237831950187683, -0.44736164808273315, 0.19873835146427155, 0.7690693736076355, -0.3081379532814026, 0.20445027947425842, 0.25505560636520386, 0.48935213685035706, 0.20934119820594788, -0.03606180101633072, -0.17952659726142883, 0.17119665443897247, -0.45221689343452454, -0.0445597842335701, -0.21055720746517181, -0.25389713048934937, -0.15735700726509094, 0.11247589439153671, -0.2088036984205246, -0.2921367883682251, 0.3450014293193817, -0.18344342708587646, 0.1357380598783493,
0.1613810956478119, 0.016649333760142326, 0.9848857522010803, 0.3966563045978546, -0.18042251467704773, -0.39495986700057983, 0.26241958141326904, 0.39481019973754883, 0.28718677163124084, 0.22246940433979034, -0.22964060306549072, 0.40365007519721985, 0.24771080911159515, 0.2634669840335846, 0.28895303606987, -0.2803996801376343, -0.346956729888916, 0.5741190314292908, 0.06694293767213821, 0.7064397931098938, -0.6055912375450134, -0.1167726144194603, 0.08712341636419296, -0.6603673696517944, -0.1559276431798935, 0.08296424895524979, 0.4497886598110199, 0.4924139976501465, -0.22823765873908997, 0.6818901896476746, -0.47209301590919495, 0.6418271660804749,
0.04353491961956024, -0.6790274381637573, -0.6266129016876221, -0.2556209862232208, 0.4102470278739929, -0.033324506133794785, 0.04521480202674866, 0.3310978412628174, -0.4303138554096222, 0.14604364335536957, 0.32204028964042664, 0.040953051298856735, 0.13507521152496338, -0.2508446276187897, 0.07691944390535355, 0.2469266951084137, 0.3091074824333191, 0.12190067768096924, -0.15893138945102692, 0.282949835062027, -0.19434964656829834, -0.537969708442688, 0.24026955664157867, 0.5095226168632507, -0.10703524202108383, 1.0266311168670654, 0.4626859724521637, -0.5859754681587219, -0.86442631483078, 0.2128751128911972, 0.3564310073852539, 0.14565712213516235,
0.08462708443403244, -0.2879239022731781, 0.7216483950614929, -0.20723532140254974, 0.9177490472793579, 0.016201501712203026, -0.47261494398117065, -0.5602556467056274, 0.07504452019929886, 0.4540954530239105, -0.037195030599832535, 0.5986332297325134, 0.5916624665260315, -0.6609486937522888, -0.13512888550758362, -0.710433304309845, -0.13061295449733734, -0.11440980434417725, 0.12367838621139526, -0.4944436252117157, 0.5047099590301514, 0.03295053541660309, -0.49278494715690613, -0.2767903208732605, 0.19871960580348969, -0.08325725793838501, -0.2182626575231552, 0.30813461542129517, -0.6347652077674866, -0.23395223915576935, -0.0012111053802073002, -0.28607985377311707,
0.036008935421705246, -0.5658356547355652, 0.7658182978630066, -0.5571885704994202, -0.3225039541721344, 0.0011251879623159766, 0.047149721533060074, -0.4838351607322693, 0.3300681412220001, 0.10942888259887695, -0.33782845735549927, -0.41406863927841187, 0.4313802421092987, -0.18129219114780426, -0.22244715690612793, -0.12328121066093445, 0.1392061859369278, -0.5411090850830078, -0.3124406337738037, -0.33578887581825256, -0.38875916600227356, 0.04378627613186836, 0.03029789961874485, 0.741706132888794, 0.24035389721393585, -0.1929239183664322, -0.3350352644920349, -0.2689991593360901, 0.16400864720344543, 0.3356468975543976, -0.5356521010398865, -0.06335798650979996
};

const float biases_fc1[] = {
0.00998229905962944, 0.01733287051320076, 0.014544297941029072, 0.005382921081036329, -0.005038563162088394, 0.01540988590568304, -0.003753902390599251, 0.0011589087080210447, -0.008519606664776802, -0.01783713325858116, 0.018695173785090446, -0.010019094683229923, 0.027840755879878998, -0.007607040461152792, 0.005391049198806286, -0.011143993586301804, -0.00529659865424037, -0.00570659851655364, 0.002542635193094611, 0.0005583828897215426, -0.003124518785625696, -0.0031239932868629694, -0.011477451771497726, -0.0011886442080140114, -0.0200230460613966, 0.030898021534085274, -0.02047043852508068, -0.015080037526786327, -0.028763895854353905, -0.001535644056275487, 0.014217499643564224, -0.01352495513856411
};

const float weights_fc2[] = {
-0.2586860954761505, 0.11165253818035126, 0.013133068569004536, 0.07593043893575668, -0.2341180294752121, 0.15996506810188293, 0.4256097674369812, -0.06310597062110901, -0.0707598626613617, -0.23549258708953857, 0.343442440032959, 0.11130746454000473, 0.03382522612810135, -0.05728435888886452, -0.17974109947681427, 0.1404326856136322, -0.10457545518875122, 0.2584492564201355, -0.16274121403694153, -0.005556156858801842, -0.12552474439144135, -0.03363455832004547, -0.2151576429605484, 0.10070478916168213, -0.27614060044288635, 0.01977098360657692, 0.22084181010723114, 0.006345135625451803, 0.17901332676410675, -0.2669960558414459, -0.2570282518863678, -0.10972156375646591,
0.10545288026332855, 0.0033808378502726555, 0.05940273776650429, -0.05917603522539139, 0.1768818199634552, 0.15153169631958008, -0.2908432185649872, -0.027019059285521507, -0.023443659767508507, 0.04825097694993019, 0.013767587020993233, 0.04712529480457306, -0.14598917961120605, -0.0793960765004158, -0.44205421209335327, -0.18670135736465454, -0.004220158793032169, -0.02295653708279133, -0.40135055780410767, -0.16284608840942383, 0.2693382203578949, 0.12647946178913116, 0.3462415635585785, -0.09768318384885788, -0.13766194880008698, 0.11751936376094818, -0.1992206871509552, -0.13007280230522156, 0.0720965564250946, 0.02229728177189827, -0.08619646728038788, -0.03566564619541168,
-0.044554322957992554, 0.20976099371910095, -0.059176236391067505, 0.12398819625377655, 0.009768248535692692, -0.2873486876487732, -0.10989455878734589, -0.22970224916934967, 0.3348378837108612, 0.07059501111507416, -0.09351874142885208, 0.02638000249862671, 0.08125726133584976, -0.11265038698911667, 0.2853216826915741, 0.2710660398006439, -0.07775846868753433, 0.3651956617832184, 0.3271656930446625, 0.050360944122076035, -0.26187410950660706, -0.16319380700588226, -0.2017422765493393, 0.5705555081367493, 0.04366040229797363, 0.06867485493421555, -0.2507905662059784, 0.14354930818080902, 0.09872183948755264, 0.028984397649765015, 0.1053113341331482, -0.06978704035282135,
0.21919791400432587, -0.2557390630245209, -0.2351943403482437, -0.12118476629257202, 0.04387946426868439, 0.09183119237422943, 0.004543747752904892, 0.056455329060554504, 0.02431776188313961, -0.0701131522655487, -0.2755177915096283, 0.06072007492184639, 0.05769992992281914, -0.05234502628445625, 0.2508808970451355, -0.21652103960514069, -0.002960044192150235, -0.08552710711956024, 0.40502238273620605, -0.0600825659930706, 0.33839645981788635, -0.14217637479305267, 0.09416653215885162, -0.09677056968212128, 0.001910919207148254, -0.03608941659331322, 0.1368159055709839, -0.020595278590917587, 0.07817771285772324, 0.16762495040893555, 0.2774304449558258, 0.11871304363012314
};

const float biases_fc2[] = {
0.008026360534131527, 0.014959904365241528, -0.001138217281550169, 0.005846250336617231
};

void nn_forward(const float* input, float* output) {
    const float* fc0_output = input;
    float fc1_output[32];
    nn_linear(weights_fc0, biases_fc0, fc0_output, 19, 32, fc1_output);
    nn_elu(fc1_output, 32);
    float fc2_output[32];
    nn_linear(weights_fc1, biases_fc1, fc1_output, 32, 32, fc2_output);
    nn_elu(fc2_output, 32);
    float* fc3_output = output;
    nn_linear(weights_fc2, biases_fc2, fc2_output, 32, 4, fc3_output);
    nn_elu(fc3_output, 4);
}