// meteor75 with domain randomization: https://wandb.ai/epedley/puffer_raptor/runs/tmnv2m33?nw=nwuserepedley
#include "neural_network.h"
#include "nn_helpers.h"

const float weights_fc0[] = {
-0.3520433008670807, 0.49319085478782654, 0.4677780270576477, -0.12897734344005585, -0.057740263640880585, -0.3578356206417084, -0.27566784620285034, 0.06171603128314018, 0.3297065496444702, 0.8693376779556274, -0.8878892064094543, 0.46378833055496216, 0.2585991322994232, 0.005445497110486031, -0.0007742666639387608, 0.17311736941337585, 0.04758436977863312, 0.23740366101264954, 0.006299331318587065,
-0.5385405421257019, -0.08180633932352066, 0.03767620027065277, -0.031742583960294724, -0.028575900942087173, -0.2573431134223938, -0.2561621069908142, -0.7825528383255005, -0.6892620921134949, 0.32197147607803345, 0.8208808898925781, -0.05272297188639641, -0.6256402134895325, 0.6817017197608948, -0.6630765795707703, -0.05078500509262085, 0.37324702739715576, 0.5183867812156677, 0.7324069142341614,
0.3529728055000305, 0.21286122500896454, -0.70970219373703, 0.04801206290721893, 0.01685008592903614, -0.30446913838386536, -0.09967212378978729, 0.07013179361820221, -0.21211814880371094, 0.8210961818695068, 0.4150559604167938, 0.2479824721813202, 0.19813735783100128, 0.2951173484325409, 0.6294348835945129, 0.060927584767341614, 0.02718968130648136, 0.16769184172153473, -0.44160738587379456,
-0.20261214673519135, 0.5976902842521667, -0.29730746150016785, -0.3173491358757019, 0.3455953598022461, 0.0742737278342247, 0.23787160217761993, 0.34439772367477417, 0.2432861328125, 0.13193869590759277, 0.6217086911201477, 0.08454061299562454, 0.5010867714881897, 0.009270724840462208, 0.016391871497035027, 0.7006595134735107, 0.06696610897779465, 0.4379868805408478, -0.057898592203855515,
0.030592098832130432, 0.3298362195491791, -0.05042622610926628, -0.03256082907319069, -0.006404857616871595, -0.17579975724220276, 0.36068248748779297, 1.0833790302276611, -0.8088006377220154, 0.2025081366300583, -0.4598334729671478, -0.33547747135162354, 0.5925071835517883, 0.3568478226661682, -0.298734188079834, 0.33184728026390076, -0.20639148354530334, 0.053314197808504105, -0.46640098094940186,
-0.05574324354529381, 0.021222054958343506, 0.12524406611919403, 0.048609718680381775, 0.06840436160564423, 0.17947721481323242, 0.5479065775871277, -0.3135080337524414, -0.7770698070526123, 0.12146913260221481, -0.027673834934830666, -0.19990274310112, 0.7880914807319641, -0.4390106499195099, -0.478878915309906, 0.1385679990053177, -0.08230093121528625, 0.012717312201857567, -0.5012891292572021,
-1.238345742225647, 0.4153592586517334, 0.051821768283843994, 0.06138823553919792, -0.04778500273823738, 0.056459952145814896, -0.4547152519226074, 0.4527987539768219, 0.14184638857841492, 1.0864242315292358, -0.7475709319114685, -0.930536687374115, -0.07615537941455841, 0.05814466252923012, 0.022079814225435257, -0.12029586732387543, -0.31882014870643616, 0.22644245624542236, 0.07052285969257355,
0.2512734532356262, -0.1660098135471344, -0.5188803672790527, 0.14645728468894958, -0.019691098481416702, 0.05788513645529747, 0.08482074737548828, -0.3286290168762207, 0.22348447144031525, 0.3766496479511261, -0.6895240545272827, 0.33568620681762695, -0.27879592776298523, 0.14011885225772858, 0.5791210532188416, -0.5549376010894775, -0.764191746711731, -0.005782302003353834, 0.8157315850257874,
-0.18657048046588898, -0.12299443036317825, -0.39265841245651245, 0.03626532852649689, -0.017002174630761147, 0.21664592623710632, 0.011222111992537975, 0.007644136901944876, -0.30224549770355225, 0.28695768117904663, -0.044970352202653885, -0.10034021735191345, 0.08833766728639603, -0.5470061898231506, -0.454302042722702, -0.46211761236190796, -0.049377184361219406, 0.21272395551204681, 0.29253530502319336,
-0.11426553130149841, -0.5182570815086365, -0.2115064412355423, -0.04910416528582573, 0.014042133465409279, -0.15873561799526215, -0.47969570755958557, 0.16210420429706573, 0.2659143805503845, 0.06855826824903488, -1.065161943435669, -0.40655073523521423, 0.12535007297992706, 0.08897332102060318, 0.09557339549064636, -0.3897036015987396, 0.197381392121315, -0.652384877204895, 0.13967283070087433,
-0.12594729661941528, -0.06883867084980011, -0.18190307915210724, 0.14953845739364624, -0.05820321664214134, -0.041980575770139694, -0.09787282347679138, 0.027634577825665474, -0.8494130969047546, -0.391812801361084, -0.6811696290969849, 0.4141540825366974, 0.34547823667526245, 0.1808246523141861, -0.06503979116678238, 0.10047005861997604, 0.6224326491355896, 0.28235119581222534, 0.8690502643585205,
-0.3365625739097595, 0.31689921021461487, 0.06266041845083237, -0.013699298724532127, -0.002535171341150999, -0.0797775611281395, -0.5165702104568481, -0.38987553119659424, -1.80073881149292, 0.5177311897277832, -0.3384454548358917, -0.6348788738250732, -0.3314274549484253, 0.45800095796585083, 0.7807518243789673, -0.4138663411140442, -0.5483497381210327, -0.045073002576828, -0.3798980116844177,
0.09082692116498947, 0.18015418946743011, -0.043211281299591064, -0.09764911234378815, -0.055960554629564285, 0.228253573179245, 0.2859245836734772, 0.44772711396217346, -1.2363030910491943, -0.3730733394622803, 0.12422081083059311, 0.09082569926977158, 0.37202078104019165, -0.3386029303073883, -0.3746843636035919, 0.22007200121879578, 0.37567511200904846, -0.6003530621528625, -0.27473828196525574,
-0.00800517201423645, 0.33657240867614746, -0.20243409276008606, 0.04815850406885147, 0.17943906784057617, 0.1528216004371643, 0.21070590615272522, -0.45938271284103394, 0.07355052977800369, 0.2707923650741577, -0.10144830495119095, 0.27908748388290405, -0.26146867871284485, -0.6113115549087524, -0.48572030663490295, 0.6962431073188782, 0.19118043780326843, -0.01658669114112854, -0.3774144947528839,
0.19135001301765442, -0.233850359916687, 0.5507497191429138, 0.23062282800674438, 0.29908987879753113, -0.08136631548404694, 0.9656399488449097, -0.5285232067108154, 0.12427724152803421, -0.6384563446044922, 0.3394670784473419, -0.2078787237405777, -0.07505536824464798, -0.19499674439430237, 0.40526238083839417, 0.07424300909042358, 0.11818954348564148, 0.5952582359313965, 0.42874911427497864,
0.21183249354362488, 0.05679492652416229, -0.037044279277324677, -0.030813703313469887, 0.013494748622179031, -0.44725745916366577, 0.6721138954162598, -0.024251792579889297, 0.004379580728709698, -0.5479466915130615, 0.04000036418437958, -0.37590253353118896, -0.31637489795684814, -0.9993423223495483, 0.7699417471885681, 0.1718209683895111, 0.22676625847816467, 0.40591222047805786, 0.13716058433055878,
0.3053056001663208, 0.42332327365875244, 0.29691609740257263, 0.10804513841867447, 0.03170955181121826, -0.1433342695236206, 0.3233271539211273, -0.1575995534658432, 0.343634694814682, -0.5432279109954834, -0.21930794417858124, 0.08701881766319275, 0.3528231680393219, 0.27878323197364807, -0.27531659603118896, -0.6820603013038635, -0.2525966465473175, -0.1852112114429474, -0.04655927047133446,
-0.1930156946182251, -0.03433019667863846, -0.21213650703430176, 0.18377284705638885, -0.23509249091148376, 0.20309804379940033, 0.32877030968666077, -0.3662871718406677, -0.2876090407371521, 0.21747815608978271, 0.602966845035553, -0.18044602870941162, -0.09037397056818008, -0.4126759469509125, -1.195278286933899, -0.08548518270254135, -0.524562656879425, 0.2587049901485443, 0.680579662322998,
-0.524221658706665, -0.22744649648666382, -0.13763801753520966, 0.15936726331710815, 0.1201285868883133, -0.48314303159713745, -0.1902228593826294, 0.047331154346466064, -0.025710247457027435, -0.5172938704490662, 0.05953546613454819, -0.09158048033714294, 0.06832356005907059, -0.1711088865995407, 0.08982937037944794, -0.020293254405260086, -0.13454805314540863, -0.310660719871521, -0.4449593424797058,
-0.025944992899894714, 0.46781522035598755, 0.08263257890939713, -0.012983768247067928, 0.013308485969901085, -0.22048556804656982, 0.6499658823013306, 0.7546417117118835, -0.6251499652862549, 0.1640574187040329, -0.3931143879890442, -0.187258780002594, 0.09197477251291275, -0.44106024503707886, 0.17300428450107574, -0.05312391370534897, -0.017036883160471916, -0.3537548780441284, 0.20351804792881012,
-0.15219630300998688, 0.22914688289165497, 0.4158763885498047, 0.08770441263914108, -0.12631192803382874, 0.33930593729019165, -0.5200295448303223, 0.26248791813850403, 0.11084089428186417, 0.43430960178375244, -0.6561422348022461, -0.7417171597480774, 0.6190995573997498, 0.5011860132217407, -0.23223717510700226, -0.018992796540260315, 0.9777342081069946, -0.41506701707839966, 0.4471323788166046,
-0.1639593094587326, -0.08985177427530289, -0.20420463383197784, 0.024331452324986458, -0.02269655466079712, -0.04532000795006752, 0.019489943981170654, -0.03240431472659111, -0.8057705760002136, -0.42817023396492004, 0.8973605632781982, -0.173925518989563, 0.11712470650672913, -0.17958658933639526, 0.9154054522514343, -0.39068150520324707, 0.7322821021080017, -0.4085409939289093, 0.5153483748435974,
0.4558885395526886, 0.4505487084388733, 0.12067892402410507, -0.024140335619449615, 0.000826035684440285, 0.14634594321250916, 0.04050181433558464, -0.024354228749871254, 0.09943278133869171, -1.0145879983901978, -0.41291186213493347, -0.7782477140426636, -0.14241264760494232, -0.30117329955101013, -0.12297030538320541, -0.3650396764278412, -0.09581071138381958, 0.11638817936182022, 0.3475407361984253,
0.2914172112941742, 0.4400745630264282, -0.10764521360397339, 0.03213559463620186, 0.12935899198055267, 0.1750665009021759, 0.24439600110054016, 0.26196008920669556, -0.7424379587173462, -0.22062593698501587, -0.9237952828407288, 0.24245837330818176, -0.01660699024796486, -0.3247763514518738, 0.09610314667224884, 0.27418142557144165, -0.2993568181991577, 0.9140031337738037, 0.6622827053070068,
0.008822779171168804, 0.13773737847805023, -0.09870254993438721, -0.0030011895578354597, 0.059092242270708084, -0.06098965182900429, 0.2958163619041443, 0.0388747863471508, -0.19873417913913727, 0.44651898741722107, -0.6142618656158447, -0.23263615369796753, -0.40207338333129883, -0.1787186563014984, 0.3911965787410736, 0.42037004232406616, -0.27056244015693665, 0.6606610417366028, -0.45326173305511475,
-0.4228423833847046, 0.3018016815185547, -0.19082361459732056, 0.06825217604637146, 0.0087363813072443, -0.07545205950737, 0.014927089214324951, 0.11037343740463257, -0.26379331946372986, -1.570533037185669, -0.5973391532897949, 0.6388728618621826, -0.10941215604543686, 0.180744007229805, 0.05288640782237053, 0.06422818452119827, -0.11193633079528809, 0.2217770218849182, -0.19252629578113556,
-0.43061110377311707, 1.013171672821045, -0.2850363552570343, -0.15236406028270721, -0.26013845205307007, -0.10140234977006912, -0.12706054747104645, 0.08002221584320068, 0.36661839485168457, -0.0594116635620594, -0.23436330258846283, 0.19797348976135254, 0.3470596671104431, 0.16857144236564636, -0.07406584173440933, -0.4863009750843048, 0.6604651212692261, -0.42800477147102356, 0.4014926254749298,
-0.051498424261808395, -0.14887681603431702, 0.39919066429138184, 0.49088966846466064, 0.3612983822822571, 0.1195513978600502, -0.5887781381607056, -0.2105094939470291, -0.3852200210094452, 0.11090106517076492, 0.23494918644428253, 0.40372318029403687, -0.2564001977443695, 0.3006555736064911, -0.6602002382278442, -0.2920196056365967, -0.6888567805290222, 0.7439610362052917, 0.42652949690818787,
-0.4412562847137451, -0.020441535860300064, 0.5577178001403809, 0.1370576024055481, -0.12369491159915924, -0.14698179066181183, 0.13859626650810242, -0.09436754882335663, 0.24261842668056488, 0.6447218060493469, 0.5432343482971191, -0.6500693559646606, -0.09269977360963821, -0.11344033479690552, 0.7240440249443054, -0.006752095650881529, 0.2849796712398529, 0.3109144866466522, 0.3134673833847046,
-0.5032643675804138, -0.20456227660179138, -0.35797175765037537, -0.023477349430322647, -0.037353914231061935, 0.09116573631763458, 0.16279186308383942, 0.06079975143074989, -0.23860809206962585, 0.30764147639274597, -0.24926269054412842, 0.9375566244125366, 0.002555872080847621, 0.07839659601449966, 0.4563329517841339, 0.107666015625, 0.26599740982055664, -0.006315513979643583, -0.20591755211353302,
-0.1579507440328598, 0.4169344902038574, -0.1668999344110489, 0.021939922124147415, 0.08602603524923325, -0.053694307804107666, -0.22546860575675964, 0.5995177626609802, 0.3142523765563965, 0.3878052830696106, -0.4604248106479645, -0.08303121477365494, 0.3943549692630768, 0.003332224441692233, -0.01804249919950962, 0.4950927793979645, 0.37832483649253845, -0.17146728932857513, 0.22780729830265045,
0.22121328115463257, -0.019144447520375252, 0.15143270790576935, -0.0560898631811142, 0.05329994112253189, 0.14644064009189606, 0.21326813101768494, -0.25884562730789185, -0.23577556014060974, 0.11722331494092941, -0.5147066712379456, 0.7116021513938904, -0.40050411224365234, -1.0451868772506714, -0.29304566979408264, -0.4095052182674408, 0.023661352694034576, -0.014278145506978035, 0.3530823290348053
};

const float biases_fc0[] = {
-0.032964516431093216, 0.15458141267299652, -0.012616606429219246, 0.006956303492188454, 0.12864059209823608, 0.029945535585284233, -0.06240150332450867, -0.057328857481479645, 0.03812700882554054, -0.08955582976341248, 0.24739372730255127, 0.2617570459842682, 0.1102924644947052, -0.005682540126144886, 0.01922917552292347, 0.03594886511564255, -0.0806058794260025, 0.01676970347762108, -0.0127568943426013, 0.06647380441427231, 0.010533096268773079, 0.057864364236593246, -0.08261550962924957, 0.13525384664535522, -0.022811776027083397, -0.027785247191786766, -0.03037809208035469, 0.03196476399898529, -0.012023625895380974, 0.00022823938343208283, 0.003728038165718317, 0.03188164159655571
};

const float weights_fc1[] = {
-0.35856470465660095, -0.23573561012744904, -0.40353190898895264, 0.25907108187675476, 0.46120133996009827, 0.5739064812660217, -0.279299259185791, 0.1433986872434616, -0.07325362414121628, -0.24180246889591217, 0.29452693462371826, 0.23712779581546783, 0.4596215486526489, 0.4030066728591919, 0.4217107892036438, 0.3036951720714569, -0.0004700615827459842, 0.015476648695766926, -0.41055092215538025, 0.03341531381011009, 0.12640683352947235, -0.3549712002277374, 0.2571137845516205, 0.19498135149478912, 0.31006813049316406, -0.054638855159282684, 0.036578379571437836, 0.2117767632007599, 0.3797457814216614, -0.4310351014137268, 0.02421049028635025, -0.2361389398574829,
-0.25814613699913025, 0.14021781086921692, -0.3697863519191742, -0.2667710483074188, -0.3704587519168854, -0.17577114701271057, -0.205524742603302, -0.3059532344341278, -0.20414228737354279, -0.4456954002380371, 0.17811578512191772, 0.471258282661438, 0.3052881956100464, 0.18797938525676727, 0.10046571493148804, -0.35775190591812134, -0.8181143999099731, 0.04098321869969368, -0.6118378043174744, -0.12323641777038574, 0.3091384768486023, 0.21980583667755127, -0.30972185730934143, 0.3224804103374481, -0.23717287182807922, 0.21082782745361328, -0.29792532324790955, -0.17367112636566162, -0.010903392918407917, 0.08656231313943863, 0.30682113766670227, 0.08639170974493027,
0.15790243446826935, -0.5282177925109863, -0.1059466302394867, 0.04454449936747551, 0.10576222091913223, -0.035649996250867844, 0.2311764508485794, 0.07508759200572968, 0.061746835708618164, -0.11997571587562561, 0.4210503101348877, 0.4783256947994232, 0.15273675322532654, -0.12699325382709503, -0.37399259209632874, -0.13075894117355347, 0.49025067687034607, 0.7579863667488098, 0.2578088641166687, 0.08482377231121063, 0.4841134548187256, 0.22691620886325836, 0.19715359807014465, -0.019678795710206032, -0.016612021252512932, 0.2877272963523865, 0.13826914131641388, 0.7395071983337402, 0.2924785315990448, -0.13990147411823273, -0.4653837978839874, 0.03296534717082977,
0.04029180109500885, 0.29243767261505127, 0.2682484984397888, -0.1358901411294937, 0.2705022990703583, -0.11347369104623795, 0.0584448017179966, 0.06177454814314842, 0.16092216968536377, -0.13496604561805725, -0.1343725621700287, -0.39308056235313416, -0.11683828383684158, 0.1045408695936203, 0.303928941488266, -0.14188605546951294, -0.1029047966003418, 0.5968198180198669, -0.35288089513778687, -0.3541277050971985, -0.19077177345752716, 0.1965564489364624, -0.17416951060295105, -0.09832301735877991, 0.2556235194206238, -1.220350980758667, -0.09855383634567261, -0.07233580201864243, 0.11110062897205353, -0.11954044550657272, -0.2196996510028839, -0.8260629177093506,
-0.007700697518885136, -0.478962779045105, 0.043175775557756424, 0.42837458848953247, -0.034506797790527344, 0.053524699062108994, -0.4835279881954193, 0.047893229871988297, -0.13562121987342834, -0.24831023812294006, -0.2502448856830597, 0.014478467404842377, -0.4702751040458679, 0.3686768710613251, -0.2769912779331207, -0.3103391230106354, 0.3103817105293274, 0.42033350467681885, 0.08813901990652084, 0.12783008813858032, 0.1443128138780594, -0.4916466772556305, -0.4590599238872528, 0.056154049932956696, 0.03484140709042549, 0.0040598358027637005, -0.3253771662712097, -0.5844625234603882, -0.10335727781057358, 0.20934344828128815, -0.24861428141593933, 0.15970399975776672,
-0.12905491888523102, -0.16397716104984283, 0.6248124837875366, -0.10384774953126907, 0.5630688071250916, 0.4411684274673462, -0.26552820205688477, -0.13703732192516327, 0.2652069926261902, -0.15095648169517517, 0.46721506118774414, 0.37584900856018066, 0.23743388056755066, -0.21953536570072174, -0.30655980110168457, 0.2677352726459503, 0.052531030029058456, 0.005911052692681551, -0.18147854506969452, 0.41070547699928284, -0.25666311383247375, 0.5834136009216309, -0.7015799880027771, 0.0775279849767685, -0.29773595929145813, -0.1482257843017578, 0.7622862458229065, -0.0655255988240242, 0.20486514270305634, 0.07766422629356384, 0.5223539471626282, 0.036373287439346313,
0.4004436135292053, 0.27177178859710693, 0.7646804451942444, -0.3245360553264618, -0.825567364692688, -0.4396848976612091, -0.10638418793678284, 0.5638566613197327, -0.17753782868385315, 0.10315264761447906, 0.36720746755599976, 0.4454079866409302, -0.2671622931957245, -0.004361285362392664, 0.40490224957466125, 0.15744400024414062, 0.3233640193939209, -0.2903967499732971, 0.2612191438674927, 0.30873599648475647, 0.11216992884874344, 0.3426706790924072, -0.30634579062461853, 0.04723082110285759, -0.14492756128311157, -0.11863940209150314, 0.11392414569854736, -0.2715025246143341, 0.10519198328256607, -0.12368441373109818, 0.26200994849205017, -0.16745342314243317,
-0.6314768195152283, 0.3164314031600952, -0.04667968302965164, 0.14456574618816376, 0.2000841200351715, 0.1446947306394577, 0.22641915082931519, 0.20033609867095947, -0.30992382764816284, -0.5337457656860352, -0.35176026821136475, -0.02199636586010456, -0.33891353011131287, -0.6323530673980713, 0.44201794266700745, 0.3312109708786011, 0.2068505734205246, -0.10123629122972488, 0.1487518548965454, 0.11448267847299576, -0.49875780940055847, 0.02505284734070301, -0.41548413038253784, 0.22595268487930298, 0.05055353790521622, 0.5069159269332886, 0.059871554374694824, -0.08486533164978027, 0.12426448613405228, -0.0857011154294014, -0.15876412391662598, -0.4811417758464813,
-0.02293166145682335, -0.23297949135303497, -0.5410734415054321, -0.22809958457946777, -0.40061455965042114, -0.02760898880660534, 0.17600587010383606, 0.8850383162498474, 0.05063933506608009, 0.1256275326013565, 0.6178373098373413, -0.04817449301481247, -0.11699143797159195, -0.11830517649650574, -0.006219977512955666, -0.04042544588446617, -0.20320165157318115, -0.5046902298927307, -0.13811880350112915, -0.5683504343032837, -0.167268767952919, 0.13913963735103607, -0.20677170157432556, -0.4499763250350952, 0.09018821269273758, 0.18092411756515503, 0.25659552216529846, 0.1328001767396927, -0.2414928376674652, 0.9404717087745667, -0.01460143644362688, 0.09404560923576355,
0.42616328597068787, -0.13766101002693176, -0.08645675331354141, 0.2602684795856476, -0.08226156234741211, 0.19114984571933746, -0.2573160231113434, -0.11640489101409912, -0.01733560301363468, 0.3699013292789459, -0.24069981276988983, 0.04900132119655609, 0.5486080050468445, -0.10416239500045776, 0.17689549922943115, -0.22485901415348053, 0.05524357780814171, 0.3137209713459015, 0.43506115674972534, -0.12054634094238281, -0.31656011939048767, 0.5477360486984253, -0.035513486713171005, -0.34989261627197266, 0.26164186000823975, 0.3886699378490448, 0.05046354606747627, -0.20098331570625305, 0.12378843873739243, 0.0624651238322258, -0.3231859803199768, -0.47531136870384216,
0.04585573449730873, 1.225974440574646, -0.21084696054458618, -0.15529783070087433, 0.04184320941567421, -0.5300174951553345, -0.47096869349479675, 0.3533479571342468, 0.017700092867016792, 0.2041187584400177, 0.45805877447128296, 0.877896785736084, -0.4461938738822937, -0.06005994230508804, -0.022601857781410217, -0.4648546576499939, -0.20475031435489655, 0.13556724786758423, 0.07343539595603943, -0.42301705479621887, -0.45840689539909363, 0.26412010192871094, -0.179014191031456, 0.3923289477825165, -0.08678675442934036, -0.04552462324500084, -0.021159928292036057, 0.5545682311058044, 0.03887801244854927, 0.35467082262039185, -0.37495020031929016, -0.12158139050006866,
-0.7910376191139221, 0.18080006539821625, 0.20936794579029083, 0.16282881796360016, -0.3661559224128723, 0.053771015256643295, -0.5192838311195374, -0.08485206216573715, -0.24957247078418732, 0.1846427023410797, 0.04845650494098663, -0.43185073137283325, 0.3423197269439697, 0.16527806222438812, 0.4901192784309387, 0.3658541440963745, 0.20955105125904083, 0.2766217589378357, -0.20234552025794983, -0.2642294466495514, -0.37231138348579407, 0.7448792457580566, 0.6385895609855652, -0.5089502930641174, -1.0529260635375977, 0.6785476803779602, -0.13710293173789978, -0.11063370853662491, -0.3046870827674866, -0.22984735667705536, -0.4666211009025574, -0.4557710289955139,
0.1842871755361557, -0.02756631001830101, -0.36576300859451294, 0.6107038855552673, 0.7375691533088684, 0.033028494566679, 0.4279050827026367, -0.6688113212585449, 0.013799795880913734, 0.19393600523471832, 0.7122986912727356, 0.37286633253097534, 0.33873817324638367, 0.5057752132415771, 0.12026078999042511, 0.18496738374233246, 0.11133833974599838, -0.3429746627807617, -0.032351817935705185, 0.4654173254966736, 0.29157838225364685, 0.2727018892765045, -0.42232826352119446, 0.34404999017715454, 0.03140576183795929, 0.08189033716917038, -0.07495355606079102, -0.3027101457118988, -0.3664746880531311, 0.3083198368549347, 0.38246312737464905, -0.12929107248783112,
-0.31658196449279785, -0.2241302728652954, -0.23033130168914795, -0.2905488610267639, 0.011643866077065468, 0.07294919341802597, 0.09909113496541977, -0.06060701608657837, -0.23306623101234436, 0.5769503712654114, -0.11884888261556625, 0.19520080089569092, -0.1820886880159378, 0.022829225286841393, -0.09958596527576447, -0.03087153285741806, 0.0607331283390522, -0.23596826195716858, 0.29986509680747986, 0.2909999489784241, -0.17651529610157013, -0.15704034268856049, -0.0033521722070872784, 0.029835321009159088, -0.5454508662223816, -0.29175877571105957, -0.12632854282855988, -0.1307384967803955, 0.13318783044815063, -0.14980442821979523, -0.1693183183670044, -0.3715525269508362,
0.7375214099884033, 0.25661370158195496, 0.25711706280708313, -0.030042512342333794, 0.4406943917274475, 0.13285161554813385, 0.24904341995716095, 0.0875309482216835, -0.6800392866134644, -0.001299117342568934, 0.19437503814697266, 0.28202369809150696, 0.618994951248169, -0.06610693782567978, -0.3227231204509735, -0.09129849821329117, -0.1741136759519577, -0.5129159092903137, -0.21869786083698273, 0.16593916714191437, 0.5245703458786011, 0.11882740259170532, 0.0809849426150322, -0.09857092052698135, -0.318452924489975, -0.24673880636692047, 0.44023597240448, -0.5225328207015991, 0.012779281474649906, 0.0429081916809082, -0.12679648399353027, -0.32314926385879517,
-0.011156476102769375, 0.5938767194747925, -0.2710992395877838, -0.4245569407939911, 0.028879662975668907, 0.05768175423145294, 0.1256502866744995, -0.20714762806892395, 0.1514240950345993, 0.19414345920085907, -0.03420364484190941, -0.08659742027521133, 0.21396653354167938, 0.05994339659810066, 0.022673264145851135, -0.680355429649353, 0.30364352464675903, -0.44207435846328735, -0.007150001358240843, 0.5101412534713745, 0.8497269153594971, 0.18811215460300446, 0.12784560024738312, -0.1204298809170723, 0.05164600536227226, -0.12530352175235748, -0.1820133477449417, 0.12969645857810974, 0.3693591058254242, 0.016352251172065735, 0.4853511154651642, -0.18238767981529236,
0.40274640917778015, -0.2831869423389435, -0.35180073976516724, -0.3842259347438812, 0.36835312843322754, -0.010981613770127296, -0.036870285868644714, 0.11984320729970932, 0.07918774336576462, -0.13231635093688965, -0.46914348006248474, -0.04691309854388237, -0.28096500039100647, 0.34992459416389465, -0.48019883036613464, 0.22546759247779846, 0.2441958636045456, -0.2740764617919922, -0.3055644929409027, -0.09152519702911377, -0.2189669907093048, 0.5264914035797119, -0.17681384086608887, -0.09194450080394745, -0.06308040767908096, -0.10596577823162079, -0.6650878190994263, -0.08267746865749359, -0.38940247893333435, -0.25996458530426025, 0.1532038003206253, -0.29117411375045776,
-0.15654264390468597, 0.07298292964696884, -0.11293451488018036, -0.4103374779224396, -0.3422408103942871, 0.5691365599632263, 0.4772493839263916, -0.4856463074684143, -0.20946432650089264, 0.3839257061481476, 0.5355983376502991, -0.5688199400901794, 0.15633130073547363, 0.26714658737182617, -0.15544487535953522, -0.5855574011802673, -0.0415881872177124, 0.40075188875198364, -0.12768350541591644, -0.08843261003494263, -0.601914644241333, 0.051427021622657776, -0.22486580908298492, -0.404574453830719, -0.20786315202713013, -0.04635791853070259, 0.3493240773677826, 0.35280078649520874, -0.6883448362350464, -0.26158228516578674, -0.18103210628032684, 0.29680997133255005,
-0.05156099051237106, -0.13910844922065735, 0.03809637948870659, -0.06080029904842377, -0.015881678089499474, -0.6017969250679016, -0.34684720635414124, -0.350206583738327, -0.11152233928442001, -0.24122844636440277, -0.09969113022089005, -0.051948223263025284, 0.30102795362472534, 0.3814244866371155, 0.1671561300754547, 0.34243011474609375, -0.35820528864860535, -0.5409846901893616, 0.2408735454082489, -0.06068713217973709, -0.06320200860500336, 0.05198344215750694, -0.21212558448314667, -0.47988176345825195, 0.1821773201227188, 0.2168184071779251, 0.4089330732822418, -0.21899116039276123, -0.007984056137502193, 0.4237405061721802, -0.09304974973201752, -0.38690200448036194,
0.24106663465499878, -0.20791000127792358, -0.03271330147981644, -0.22451214492321014, -0.1428176760673523, 0.17056134343147278, -0.3563084006309509, 0.05287826433777809, -0.640721321105957, -0.02986885793507099, -0.1043640747666359, -0.4550863206386566, -0.009380348026752472, 0.23165473341941833, 0.4857940375804901, -0.5174931287765503, 0.30371996760368347, -0.5437156558036804, -0.0518200546503067, -0.05259164050221443, 0.07987008988857269, 0.31747549772262573, -0.1223660558462143, 0.2742421329021454, -0.17452169954776764, -0.37712162733078003, 0.14940215647220612, 0.1306132972240448, -0.1620149165391922, 0.08336279541254044, -0.40726810693740845, 0.730562686920166,
0.22580435872077942, -0.05890027433633804, 0.21535493433475494, 0.016273237764835358, 0.15853384137153625, 0.3044280707836151, -0.5411129593849182, -0.10861941426992416, -0.6941584348678589, -0.3320489525794983, 0.057677626609802246, -0.40088561177253723, 0.12049230933189392, -0.002544323680922389, 0.0953761488199234, 0.4201824367046356, -0.007131501566618681, 0.08296182751655579, 0.03964805603027344, 0.26329177618026733, -0.2321617603302002, -0.08312288671731949, -0.09681864082813263, 0.2831909954547882, 0.6047773957252502, 0.40590593218803406, -0.2671428918838501, 0.40228286385536194, -0.10156149417161942, 0.37252214550971985, 0.15322722494602203, -0.11769302189350128,
0.2244359254837036, 0.030995197594165802, 0.02797972410917282, -0.010233144275844097, -0.4624224305152893, 0.35661885142326355, 0.22159042954444885, -0.23905539512634277, 0.42925190925598145, -0.4973074793815613, -0.5864261984825134, 0.0355876125395298, 0.06272067129611969, 0.25111123919487, 0.09379241615533829, -0.14209266006946564, 0.04854263365268707, 0.2750106453895569, -0.2104152888059616, -0.014925057999789715, -0.2945272922515869, -0.223041832447052, 0.15985381603240967, 0.44608429074287415, -0.42177730798721313, 0.009418193250894547, 0.4022977352142334, 0.42331749200820923, -0.4913628399372101, 0.12424217909574509, 0.20946626365184784, -0.24910759925842285,
-0.29994985461235046, 0.11806132644414902, 0.12394621968269348, -0.2626297175884247, 0.41067907214164734, 0.2566581964492798, 0.13270337879657745, 0.16766582429409027, -0.10969222337007523, 0.04845291003584862, -0.1594819724559784, -0.2881793975830078, 0.22935861349105835, 1.006688117980957, -0.38561198115348816, -0.16442742943763733, -0.16381998360157013, 0.03413112461566925, 0.5331419110298157, -0.328644722700119, -0.0016460822662338614, -0.42286065220832825, -0.3545723557472229, 0.3197057247161865, 0.07701826095581055, 0.2496636062860489, 0.275373250246048, -0.11462926119565964, -0.1595844328403473, -0.008027835749089718, 0.38589346408843994, 0.2831396460533142,
-0.16282813251018524, 0.37611153721809387, -0.08529677242040634, 0.2621399164199829, 0.12809886038303375, -0.311757355928421, -0.1799502819776535, -0.0013189272722229362, 0.41302722692489624, 0.2106303721666336, 0.11310581862926483, -0.2041405588388443, 0.3615357279777527, -0.18527188897132874, -0.46948397159576416, -0.1954522430896759, 0.03826891630887985, 0.21450653672218323, -0.04901852458715439, 0.18573808670043945, 0.43218573927879333, 0.2182837575674057, -0.34746989607810974, 0.4336366355419159, -0.19013890624046326, -0.2537432909011841, 0.4939524531364441, 0.21114647388458252, -0.4507478177547455, -0.23797373473644257, 0.10589216649532318, -0.30189186334609985,
-0.4445653557777405, -0.45512545108795166, -0.07362482696771622, -0.2952326536178589, 0.11652490496635437, -0.6284623742103577, 0.26381686329841614, 0.17984940111637115, -0.19729752838611603, -0.203126922249794, 0.08168639987707138, -0.2532658278942108, 0.15123681724071503, -0.009151550941169262, -0.2830624580383301, -0.3533300459384918, 0.48700129985809326, -0.056543461978435516, 0.24197565019130707, 0.09944675117731094, -0.47060495615005493, -0.1326790153980255, 0.10012213885784149, -0.3824630081653595, -0.13806423544883728, -0.5156890749931335, -0.2895166873931885, -0.29858940839767456, -0.19483308494091034, -0.3321859836578369, 0.2734328806400299, 0.0800924077630043,
-0.7219467759132385, 0.3211500346660614, -0.1892615258693695, -0.5797570943832397, 0.20716075599193573, 0.42657914757728577, -0.7433390021324158, -0.0538659505546093, 0.28817427158355713, -0.7536820769309998, 0.20992882549762726, 1.0201388597488403, 0.5849694609642029, 0.120509073138237, -0.009300109930336475, 0.32706159353256226, -0.6884074807167053, 0.3635548949241638, 0.13514265418052673, 0.5713977217674255, -0.6977302432060242, 0.08038604259490967, -0.11433404684066772, 0.24560682475566864, 0.1126953661441803, -0.1609911024570465, -0.49186041951179504, -0.19927345216274261, -0.346958726644516, -0.009455340914428234, -0.5037142634391785, 0.37023088335990906,
-0.16831234097480774, -0.15597158670425415, 0.20825296640396118, 0.10667295008897781, 0.050173357129096985, 0.04098666459321976, 0.19364036619663239, -0.17404450476169586, -0.12493323534727097, 0.26961222290992737, -0.6080194711685181, 0.5007472038269043, -0.1587439924478531, 0.0832507535815239, 0.05988595634698868, -0.030630098655819893, -0.12838709354400635, -0.06758963316679001, 0.1376403421163559, 0.17984606325626373, -0.004692703485488892, 0.7159331440925598, 0.4183349311351776, 0.05861879140138626, 0.7779785990715027, 0.15417462587356567, 0.39533746242523193, -0.09673348814249039, 0.15734872221946716, -0.07179392129182816, 0.2628564238548279, -0.6454839110374451,
-0.6883425712585449, 0.10283782333135605, -0.38950207829475403, -0.25368982553482056, -0.10468798875808716, -0.12517878413200378, 0.20127448439598083, -0.14887891709804535, -0.1711331009864807, 0.19172807037830353, -0.3797095715999603, 0.17545300722122192, 0.2888370156288147, -0.30153223872184753, -0.10133515298366547, 0.11362802982330322, 0.6040871739387512, -0.07019885629415512, 0.03195234760642052, -0.14365656673908234, 0.034831702709198, 0.07977969199419022, -0.2737720012664795, -0.551125705242157, 0.03998137265443802, -0.17093946039676666, -0.04095642268657684, -0.07452278584241867, -0.29852160811424255, 0.45352545380592346, 0.034736596047878265, -0.029927605763077736,
0.3110763430595398, 0.2606997489929199, 0.8479087352752686, 0.3930278420448303, 0.255069762468338, -0.2525882422924042, 0.4417552649974823, 0.5524847507476807, 0.029621047899127007, -0.013561543077230453, -0.5262534022331238, 0.03678540885448456, 0.27424055337905884, 0.4982866048812866, -0.33865582942962646, -0.5315735340118408, -0.05700229853391647, 0.43945419788360596, -0.010904882103204727, 0.4322761595249176, -0.03686515986919403, -0.016485560685396194, 0.00442914292216301, -0.29135602712631226, 0.0634615495800972, 0.06254716962575912, 0.15062110126018524, 0.42443254590034485, 0.19663359224796295, 0.623692512512207, 0.29701265692710876, 0.07937701791524887,
0.16115473210811615, -0.6374115943908691, -0.5955779552459717, -0.21353231370449066, 0.5265637040138245, -0.36178746819496155, 0.10988739132881165, 0.4813252389431, -0.08258496969938278, 0.5950419902801514, 0.3709106147289276, -0.2664394974708557, -0.07284665107727051, -0.37758705019950867, 0.2563980519771576, 0.029847601428627968, 0.23182174563407898, 0.046803586184978485, 0.0017648780485615134, 0.25793561339378357, -0.05114232376217842, -0.6419621706008911, 0.5655817985534668, 0.9703097343444824, 0.1436457633972168, 0.9332592487335205, 0.5920646786689758, -0.12025429308414459, -0.8851544260978699, -0.015893980860710144, 0.26866328716278076, 0.2748059630393982,
0.0830904170870781, -0.14982956647872925, 0.6521546840667725, 0.018790939822793007, 0.5036777853965759, 0.007065581623464823, -0.5709313154220581, -0.2704821228981018, -0.22675815224647522, -0.01574612967669964, 0.29729780554771423, 0.3493679463863373, 0.3159083425998688, -0.7560942769050598, -0.3517821729183197, -0.8033470511436462, 0.04596581682562828, -0.645843505859375, 0.11549706757068634, -0.5602724552154541, 0.3318976163864136, -0.08874114602804184, -0.9128783941268921, -0.1446109116077423, -0.18179136514663696, 0.3311733603477478, -0.20416170358657837, 0.3443337678909302, -0.7276536226272583, 0.0461152121424675, 0.1693636178970337, -0.3749772012233734,
-0.2966272532939911, -0.6152142882347107, 0.33688437938690186, -0.5028031468391418, 0.08339329063892365, -0.17537543177604675, 0.10915175825357437, 0.00816584937274456, -0.06048335134983063, 0.11652051657438278, -0.0003363517171237618, 0.13707727193832397, -0.1767868548631668, -0.03340501710772514, -0.24904504418373108, 0.06511081010103226, 0.18450623750686646, -0.5770220756530762, -0.1938995122909546, 0.21392372250556946, -0.25027355551719666, -0.3859020173549652, -0.17197702825069427, 0.8987079858779907, 0.45083314180374146, -0.2541033625602722, -0.04313551262021065, -0.25726982951164246, 0.244330495595932, 0.36222270131111145, -0.24610643088817596, 0.04326235502958298
};

const float biases_fc1[] = {
0.04665283486247063, 0.0660591721534729, 0.031388137489557266, -0.03589530661702156, -0.016083335503935814, 0.07833702862262726, 0.002992552239447832, -0.0007669480401091278, -0.03590303286910057, -0.03402819111943245, 0.10055053979158401, -0.045384492725133896, 0.10354192554950714, -0.014250901527702808, 0.025069253519177437, -0.0059556737542152405, -0.012209584005177021, -0.020686041563749313, -0.000602721469476819, -0.001088573015294969, 0.017680345103144646, -0.009735490195453167, -0.03188779205083847, 0.029450805857777596, -0.029767051339149475, 0.15064434707164764, -0.059853825718164444, -0.03310121223330498, -0.06310418248176575, -0.03888566792011261, 0.03589455783367157, -0.025965578854084015
};

const float weights_fc2[] = {
-0.3651949167251587, -0.0615650974214077, 0.11252135783433914, 0.12192191928625107, -0.027848869562149048, 0.23120136559009552, 0.5570691823959351, 0.03696943074464798, 0.056193556636571884, -0.18554486334323883, 0.4164818525314331, 0.053561728447675705, -0.19612963497638702, -0.02480262517929077, -0.07231336832046509, -0.026993148028850555, -0.01882726326584816, 0.07974462956190109, -0.06068670377135277, -0.014233019202947617, -0.20551583170890808, -0.030665993690490723, -0.14677436649799347, 0.0905458852648735, -0.04683848097920418, -0.0979875773191452, 0.0589011013507843, 0.00043150322744622827, 0.23090310394763947, -0.05334186553955078, -0.08716146647930145, -0.04294406250119209,
0.1271573305130005, 0.050361379981040955, 0.12090060114860535, 0.2105208784341812, 0.14526745676994324, -0.16584472358226776, -0.3821274936199188, 0.12037069350481033, 0.035073865205049515, 0.05262839049100876, 0.12340785562992096, 0.2596120536327362, -0.10015648603439331, -0.1517518162727356, -0.4255318343639374, -0.4242945909500122, -0.04521661996841431, 0.1543698012828827, -0.17832109332084656, -0.03819844871759415, 0.1305454820394516, 0.32014000415802, 0.028315052390098572, 0.020561452955007553, 0.020350812003016472, 0.22284409403800964, -0.19982333481311798, -0.12663954496383667, 0.1419634073972702, 0.12522131204605103, -0.12196428328752518, -0.03475551679730415,
-0.17856167256832123, 0.15332511067390442, -0.015103936195373535, -0.1197560727596283, 0.12492308765649796, 0.21560059487819672, -0.09342081099748611, -0.47236883640289307, 0.1883930116891861, -0.002912747673690319, -0.12969748675823212, -0.08964741230010986, 0.19335003197193146, -0.0923662856221199, 0.23474083840847015, 0.179054856300354, 0.008974563330411911, 0.27481043338775635, 0.007635472342371941, -0.13500012457370758, -0.31340697407722473, -0.110755555331707, 0.2768886983394623, 0.30444449186325073, 0.05740523710846901, -0.2191517949104309, -0.2013838291168213, 0.041790083050727844, 0.06942440569400787, 0.03454984351992607, 0.23401018977165222, 0.024862539023160934,
0.040086667984724045, -0.10265407711267471, -0.24483679234981537, -0.35951200127601624, 0.047982893884181976, 0.13722346723079681, 0.05445544049143791, 0.17864319682121277, -0.03957885131239891, 0.15440896153450012, -0.21129772067070007, 0.01055995561182499, 0.17500942945480347, -0.04852291941642761, 0.020324090495705605, -0.30650585889816284, 0.03579211235046387, -0.22390103340148926, 0.3348279893398285, -0.10054461658000946, 0.3848475515842438, -0.10038018226623535, 0.19960829615592957, -0.16034069657325745, 0.04506475478410721, 0.0666772797703743, 0.23219642043113708, -0.03631049022078514, 0.027556058019399643, 0.1262006312608719, 0.18333664536476135, 0.22632506489753723
};

const float biases_fc2[] = {
-0.001477043959312141, 0.0021989624947309494, -0.0027380348183214664, -0.0028443385381251574
};

void nn_forward(const float* input, float* output) {
    const float* fc0_output = input;
    float fc1_output[32];
    nn_linear(weights_fc0, biases_fc0, fc0_output, 19, 32, fc1_output);
    nn_elu(fc1_output, 32);
    float fc2_output[32];
    nn_linear(weights_fc1, biases_fc1, fc1_output, 32, 32, fc2_output);
    nn_elu(fc2_output, 32);
    float* fc3_output = output;
    nn_linear(weights_fc2, biases_fc2, fc2_output, 32, 4, fc3_output);
    nn_elu(fc3_output, 4);
}